{"learner":{"attributes":{"scikit_learn":"{\"_estimator_type\": \"regressor\"}"},"feature_names":["birch_pollen_lag1","birch_pollen_lag2","birch_pollen_lag3","weather_temperature_2m_mean","weather_precipitation_sum","weather_dew_point_2m_mean","weather_wind_speed_10m_mean","weather_sunshine_duration","weather_doy","weather_temp_7d_mean","weather_temp_14d_mean","weather_precip_3d_sum","weather_precip_7d_sum","weather_dew_point_3d_mean"],"feature_types":["float","float","float","float","float","float","float","float","int","float","float","float","float","float"],"gradient_booster":{"model":{"gbtree_model_param":{"num_parallel_tree":"1","num_trees":"100"},"iteration_indptr":[0,1,2,3,4,5,6,7,8,9,10,11,12,13,14,15,16,17,18,19,20,21,22,23,24,25,26,27,28,29,30,31,32,33,34,35,36,37,38,39,40,41,42,43,44,45,46,47,48,49,50,51,52,53,54,55,56,57,58,59,60,61,62,63,64,65,66,67,68,69,70,71,72,73,74,75,76,77,78,79,80,81,82,83,84,85,86,87,88,89,90,91,92,93,94,95,96,97,98,99,100],"tree_info":[0,0,0,0,0,0,0,0,0,0,0,0,0,0,0,0,0,0,0,0,0,0,0,0,0,0,0,0,0,0,0,0,0,0,0,0,0,0,0,0,0,0,0,0,0,0,0,0,0,0,0,0,0,0,0,0,0,0,0,0,0,0,0,0,0,0,0,0,0,0,0,0,0,0,0,0,0,0,0,0,0,0,0,0,0,0,0,0,0,0,0,0,0,0,0,0,0,0,0,0],"trees":[{"base_weights":[-9.3006344E-7,-3.7158802E1,3.8947928E2,-4.7363342E1,9.313695E1,2.763754E2,6.054509E2,-5.0761566E1,-1.0036777E1,1.356137E2,9.742255E0,9.638972E1,3.414603E2,7.2710187E2,3.2593414E2,-1.5296317E1,-1.5275809E1,2.3295362E1,-3.174241E1,9.338385E0,1.9390799E2,-2.0375809E1,1.9799086E1,1.9340857E1,1.2965367E2,4.5477505E2,1.4306471E2,3.5752357E1,7.5585205E2,5.0119922E2,3.766726E1,-1.1051468E1,5.569806E0,3.3472355E1,1.5608683E1,-3.5590134E1,3.0792236E0,-2.9559143E1,3.423247E1,2.7882413E2,1.390096E2,-6.678233E0,-1.6426455E0,3.0229874E1,-1.1280777E1,8.677292E-2,1.1569805E1,1.6301031E1,1.5110541E2,1.7849641E2,3.537932E2,1.979929E2,7.834358E1,4.1313922E2,2.4885666E2,1.6909854E2,3.7702354E1,-2.9456275E0,1.2537424E1,6.6823545E0,-1.1344868E1,1.4002355E1,-5.8464684E0,1.3273544E0,-1.1172234E1,3.6022577E0,1.7703533E1,3.3626034E1,1.0028118E2,5.7002464E1,1.8369741E1,1.2413075E1,1.2357671E0,1.2098057E0,-6.8501945E0,-1.940194E0,2.9623547E0,4.8818325E1,1.0462355E1,1.14049736E2,3.1199806E1,1.5052355E1,6.358261E1,3.8697674E0,3.843577E1,1.3696854E2,3.591736E1],"categories":[],"categories_nodes":[],"categories_segments":[],"categories_sizes":[],"default_left":[0,0,0,0,0,0,0,0,0,0,0,0,0,0,0,0,0,0,0,0,0,0,0,0,0,0,0,0,0,0,0,0,0,0,0,0,0,0,0,0,0,0,0,0,0,0,0,0,0,0,0,0,0,0,0,0,0,0,0,0,0,0,0,0,0,0,0,0,0,0,0,0,0,0,0,0,0,0,0,0,0,0,0,0,0,0,0],"id":0,"left_children":[1,3,5,7,9,11,13,15,17,19,21,23,25,27,29,-1,31,33,35,37,39,41,43,45,47,49,51,-1,53,55,-1,-1,-1,-1,57,59,61,63,65,67,69,-1,-1,71,73,75,-1,-1,77,-1,79,81,83,85,-1,-1,-1,-1,-1,-1,-1,-1,-1,-1,-1,-1,-1,-1,-1,-1,-1,-1,-1,-1,-1,-1,-1,-1,-1,-1,-1,-1,-1,-1,-1,-1,-1],"loss_changes":[1.3459502E7,1.1332486E6,1.811274E6,9.94435E4,2.1830356E5,6.11376E5,6.81107E5,5.015375E3,4.921363E4,2.9999556E5,7.0670527E3,3.8499562E4,8.341835E5,2.24526E5,2.8826075E5,0E0,5.0622095E3,1.6579953E4,5.6029336E3,1.4568341E4,9.1770125E4,4.6631348E1,5.8522026E3,2.2176309E3,9.561891E3,1.43471E5,4.136875E4,0E0,8.6502E4,4.644325E4,0E0,0E0,0E0,0E0,1.7720096E4,5.608371E3,5.8287764E3,1.7310728E3,4.247882E3,5.4982625E4,6.372928E4,0E0,0E0,3.613293E3,9.7668005E2,3.2046042E2,0E0,0E0,5.131953E3,0E0,7.2454E4,5.8614062E3,2.7665176E4,9.0424375E3,0E0,0E0,0E0,0E0,0E0,0E0,0E0,0E0,0E0,0E0,0E0,0E0,0E0,0E0,0E0,0E0,0E0,0E0,0E0,0E0,0E0,0E0,0E0,0E0,0E0,0E0,0E0,0E0,0E0,0E0,0E0,0E0,0E0],"parents":[2147483647,0,0,1,1,2,2,3,3,4,4,5,5,6,6,7,7,8,8,9,9,10,10,11,11,12,12,13,13,14,14,16,16,17,17,18,18,19,19,20,20,21,21,22,22,23,23,24,24,25,25,26,26,28,28,29,29,34,34,35,35,36,36,37,37,38,38,39,39,40,40,43,43,44,44,45,45,48,48,50,50,51,51,52,52,53,53],"right_children":[2,4,6,8,10,12,14,16,18,20,22,24,26,28,30,-1,32,34,36,38,40,42,44,46,48,50,52,-1,54,56,-1,-1,-1,-1,58,60,62,64,66,68,70,-1,-1,72,74,76,-1,-1,78,-1,80,82,84,86,-1,-1,-1,-1,-1,-1,-1,-1,-1,-1,-1,-1,-1,-1,-1,-1,-1,-1,-1,-1,-1,-1,-1,-1,-1,-1,-1,-1,-1,-1,-1,-1,-1],"split_conditions":[1.757E2,5.66E1,5.544E2,5.3E0,1.0733482E1,6.9649177E0,8.310155E0,7.51E1,1.46E2,5.075333E0,1.3000332E1,9.537609E1,1.35E2,6.2607503E0,3.913E2,-1.5296317E1,6E-1,3.2821429E0,1.3740001E1,3.397917E0,6.2E0,4.29E2,1.76295E1,5.2E0,-3.4374998E0,7.522173E0,5.7624707E0,3.5752357E1,2.025E2,7.355E2,3.766726E1,-1.1051468E1,5.569806E0,3.3472355E1,5.5635777E0,5.5E0,3.58E1,1.02E1,4.5834227E4,-1.3083335E0,1.015E2,-6.678233E0,-1.6426455E0,1.45E2,7.04E1,3.787E2,1.1569805E1,1.6301031E1,4.6E0,1.7849641E2,8.343E2,7.6812496E0,4.29E2,8.528E2,2.4885666E2,1.6909854E2,3.7702354E1,-2.9456275E0,1.2537424E1,6.6823545E0,-1.1344868E1,1.4002355E1,-5.8464684E0,1.3273544E0,-1.1172234E1,3.6022577E0,1.7703533E1,3.3626034E1,1.0028118E2,5.7002464E1,1.8369741E1,1.2413075E1,1.2357671E0,1.2098057E0,-6.8501945E0,-1.940194E0,2.9623547E0,4.8818325E1,1.0462355E1,1.14049736E2,3.1199806E1,1.5052355E1,6.358261E1,3.8697674E0,3.843577E1,1.3696854E2,3.591736E1],"split_indices":[0,0,0,0,10,3,10,2,8,3,3,7,8,3,2,0,0,10,6,3,12,2,3,4,5,10,5,0,2,0,0,0,0,0,10,0,1,1,7,5,0,0,0,8,0,0,0,0,4,0,2,3,1,0,0,0,0,0,0,0,0,0,0,0,0,0,0,0,0,0,0,0,0,0,0,0,0,0,0,0,0,0,0,0,0,0,0],"split_type":[0,0,0,0,0,0,0,0,0,0,0,0,0,0,0,0,0,0,0,0,0,0,0,0,0,0,0,0,0,0,0,0,0,0,0,0,0,0,0,0,0,0,0,0,0,0,0,0,0,0,0,0,0,0,0,0,0,0,0,0,0,0,0,0,0,0,0,0,0,0,0,0,0,0,0,0,0,0,0,0,0,0,0,0,0,0,0],"sum_hessian":[9.28E2,8.48E2,8E1,7.87E2,6.1E1,5.4E1,2.6E1,7.21E2,6.6E1,4E1,2.1E1,1.5E1,3.9E1,1.7E1,9E0,7.16E2,5E0,2.6E1,4E1,1.3E1,2.7E1,5E0,1.6E1,5E0,1E1,2.4E1,1.5E1,1E0,1.6E1,4E0,5E0,3E0,2E0,1E0,2.5E1,3.6E1,4E0,5E0,8E0,9E0,1.8E1,4E0,1E0,1.2E1,4E0,3E0,2E0,3E0,7E0,8E0,1.6E1,7E0,8E0,4E0,1.2E1,3E0,1E0,1.3E1,1.2E1,1E0,3.5E1,1E0,3E0,1E0,4E0,5E0,3E0,3E0,6E0,1E1,8E0,8E0,4E0,2E0,2E0,2E0,1E0,6E0,1E0,1.4E1,2E0,1E0,6E0,4E0,4E0,3E0,1E0],"tree_param":{"num_deleted":"0","num_feature":"14","num_nodes":"87","size_leaf_vector":"1"}},{"base_weights":[1.5942208E0,-2.5721163E1,2.8788022E2,-3.3446033E1,6.4939964E1,2.0741252E2,4.5983136E2,-3.573901E1,-9.948333E0,9.759353E1,9.694217E0,7.298365E1,2.5368513E2,5.493681E2,2.008948E2,-3.58101E1,2.2318835E0,1.5750343E1,-2.3406176E1,4.231036E1,1.7640346E2,2.0196987E1,4.6961226E0,1.56372595E1,9.7628624E1,3.3550998E2,1.13618576E2,6.003248E2,2.8342846E1,7.786879E1,2.32009E1,-1.08423E1,-3.0595268E1,2.8451502E1,8.503413E0,-1.0105201E1,-2.8742794E1,-1.0772551E1,6.6501236E1,5.017908E1,2.1138179E2,-1.0239303E1,1.5335692E1,3.1628036E-1,9.255844E0,3.3971994E0,1.05126686E2,1.3089737E2,2.664633E2,5.7930706E1,1.690261E2,5.9539097E1,6.777956E2,9.771803E0,-9.77696E0,-5.4532666E0,6.167689E0,-5.328891E0,7.9340568E0,-9.123624E0,-5.7378274E-1,-6.699664E0,2.7780242E0,2.9897186E-1,2.5543703E1,1.6961163E1,3.711984E0,7.385741E1,3.9858575E0,-4.9700484E0,7.955393E0,2.7014651E0,1.129719E1,-2.5816166E0,1.8475899E0,3.5772457E1,9.733467E0,3.203984E1,8.738282E1,2.2058046E1,-8.907475E-1,1.2314568E1,6.1453156E1,2.1122408E2,5.4357075E1],"categories":[],"categories_nodes":[],"categories_segments":[],"categories_sizes":[],"default_left":[0,0,0,0,0,0,0,0,0,0,0,0,0,0,0,0,0,0,0,0,0,0,0,0,0,0,0,0,0,0,0,0,0,0,0,0,0,0,0,0,0,0,0,0,0,0,0,0,0,0,0,0,0,0,0,0,0,0,0,0,0,0,0,0,0,0,0,0,0,0,0,0,0,0,0,0,0,0,0,0,0,0,0,0,0],"id":1,"left_children":[1,3,5,7,9,11,13,15,17,19,21,23,25,27,29,31,-1,33,35,37,39,-1,41,43,45,47,49,51,-1,-1,-1,-1,53,-1,55,57,59,61,63,65,67,69,71,73,-1,-1,75,-1,77,79,81,-1,83,-1,-1,-1,-1,-1,-1,-1,-1,-1,-1,-1,-1,-1,-1,-1,-1,-1,-1,-1,-1,-1,-1,-1,-1,-1,-1,-1,-1,-1,-1,-1,-1],"loss_changes":[7.272196E6,5.967654E5,1.0253825E6,4.1832125E4,1.1991994E5,3.3604625E5,4.692435E5,2.455125E3,2.4923914E4,1.7552453E5,7.1727656E3,2.1086156E4,4.43239E5,3.6052E5,3.7917625E4,1.22875E2,0E0,1.352218E4,3.0457148E3,3.4103566E4,6.4450062E4,0E0,4.1296895E3,1.388945E3,5.9278438E3,6.4719E4,4.266214E4,3.63602E5,0E0,0E0,0E0,0E0,7.2352695E3,0E0,8.0934004E3,4.668382E3,1.4198086E3,2.2909321E3,2.18985E4,5.0231934E2,8.637206E4,2.9977275E3,1.7806077E3,2.6149155E2,0E0,0E0,6.3901484E3,0E0,4.02025E4,9.716324E3,2.826239E4,0E0,4.21185E4,0E0,0E0,0E0,0E0,0E0,0E0,0E0,0E0,0E0,0E0,0E0,0E0,0E0,0E0,0E0,0E0,0E0,0E0,0E0,0E0,0E0,0E0,0E0,0E0,0E0,0E0,0E0,0E0,0E0,0E0,0E0,0E0],"parents":[2147483647,0,0,1,1,2,2,3,3,4,4,5,5,6,6,7,7,8,8,9,9,10,10,11,11,12,12,13,13,14,14,15,15,17,17,18,18,19,19,20,20,22,22,23,23,24,24,25,25,26,26,27,27,32,32,34,34,35,35,36,36,37,37,38,38,39,39,40,40,41,41,42,42,43,43,46,46,48,48,49,49,50,50,52,52],"right_children":[2,4,6,8,10,12,14,16,18,20,22,24,26,28,30,32,-1,34,36,38,40,-1,42,44,46,48,50,52,-1,-1,-1,-1,54,-1,56,58,60,62,64,66,68,70,72,74,-1,-1,76,-1,78,80,82,-1,84,-1,-1,-1,-1,-1,-1,-1,-1,-1,-1,-1,-1,-1,-1,-1,-1,-1,-1,-1,-1,-1,-1,-1,-1,-1,-1,-1,-1,-1,-1,-1,-1],"split_conditions":[1.757E2,5.14E1,5.821E2,3.5E0,1.0571613E1,6.9649177E0,8.297E2,6.1100002E1,1.46E2,6.9649177E0,2.4E0,9.537609E1,1.35E2,1.0804018E1,1E-1,5E-1,2.2318835E0,3.2821429E0,5.933333E0,3.8169997E0,2E-1,2.0196987E1,5.1883367E4,5.2E0,3.456583E0,7.522173E0,1.3799999E1,7.9711666E0,2.8342846E1,7.786879E1,2.32009E1,-1.08423E1,2.2050953E0,2.8451502E1,1.09E2,1.5621761E1,2.3199999E1,3.397917E0,1.07E2,1E-1,2.275E0,1.52E2,1.5608185E1,2.9E2,9.255844E0,3.3971994E0,6.942149E0,1.3089737E2,8.693042E0,1.45E2,8.187048E0,5.9539097E1,1.6619999E1,9.771803E0,-9.77696E0,-5.4532666E0,6.167689E0,-5.328891E0,7.9340568E0,-9.123624E0,-5.7378274E-1,-6.699664E0,2.7780242E0,2.9897186E-1,2.5543703E1,1.6961163E1,3.711984E0,7.385741E1,3.9858575E0,-4.9700484E0,7.955393E0,2.7014651E0,1.129719E1,-2.5816166E0,1.8475899E0,3.5772457E1,9.733467E0,3.203984E1,8.738282E1,2.2058046E1,-8.907475E-1,1.2314568E1,6.1453156E1,2.1122408E2,5.4357075E1],"split_indices":[0,0,0,0,10,3,1,12,8,3,1,7,8,10,4,0,0,10,5,3,11,0,7,4,3,10,12,3,0,0,0,0,9,0,8,10,11,3,8,4,4,0,10,0,0,0,10,0,10,8,6,0,6,0,0,0,0,0,0,0,0,0,0,0,0,0,0,0,0,0,0,0,0,0,0,0,0,0,0,0,0,0,0,0,0],"split_type":[0,0,0,0,0,0,0,0,0,0,0,0,0,0,0,0,0,0,0,0,0,0,0,0,0,0,0,0,0,0,0,0,0,0,0,0,0,0,0,0,0,0,0,0,0,0,0,0,0,0,0,0,0,0,0,0,0,0,0,0,0,0,0,0,0,0,0,0,0,0,0,0,0,0,0,0,0,0,0,0,0,0,0,0,0],"sum_hessian":[9.28E2,8.48E2,8E1,7.82E2,6.6E1,5.6E1,2.4E1,7.12E2,7E1,4.1E1,2.5E1,1.5E1,4.1E1,1.7E1,7E0,7.11E2,1E0,2.4E1,4.6E1,2.5E1,1.6E1,1E0,2.4E1,5E0,1E1,2.5E1,1.6E1,1.5E1,2E0,4E0,3E0,6.63E2,4.8E1,1E0,2.3E1,1.4E1,3.2E1,8E0,1.7E1,4E0,1.2E1,1E1,1.4E1,3E0,2E0,1E0,9E0,8E0,1.7E1,9E0,7E0,3E0,1.2E1,1E0,4.7E1,7E0,1.6E1,1.2E1,2E0,3E1,2E0,5E0,3E0,4E0,1.3E1,3E0,1E0,1E1,2E0,9E0,1E0,1.2E1,2E0,1E0,2E0,7E0,2E0,3E0,1.4E1,7E0,2E0,2E0,5E0,1.1E1,1E0],"tree_param":{"num_deleted":"0","num_feature":"14","num_nodes":"85","size_leaf_vector":"1"}},{"base_weights":[2.2228327E0,-1.780331E1,2.1209903E2,-2.226663E1,6.637582E1,1.598285E2,3.6353275E2,-2.4185982E1,9.28428E0,9.73227E1,2.1201296E0,8.2769615E1,2.0631912E2,6.586173E2,2.4859802E2,-2.5029388E1,-1.1419939E1,6.525567E1,3.9849658E0,7.304002E1,2.3082944E2,9.0887575E0,-1.3634877E1,1.9105474E1,1.0646647E2,1.16044205E2,1.3696506E2,2.2387973E2,4.6203518E1,3.1147083E2,9.189819E1,-2.5082306E1,1.8971009E0,1.2305394E1,-1.4524063E1,2.7567474E1,-2.1978114E0,9.360282E0,-7.729381E0,7.6788936E0,9.6716286E1,8.9119965E1,4.817719E0,-2.6943486E0,9.114835E0,-4.7877088E0,-6.507414E-1,2.7938555E1,-4.9291763E0,4.6900806E1,1.3234091E2,1.8801398E2,7.678515E1,1.0068309E2,4.0568653E1,8.022131E0,2.9874496E1,-7.594509E0,-6.425038E0,1.8789943E0,-5.495531E0,5.7044077E-1,1.4647112E1,4.8431215E0,-3.5431275E0,3.6356632E1,1.4375405E1,5.540173E0,-2.5066833E0,1.1186228E1,1.848162E0,-2.1943743E0,-2.3755075E-2,2.2408626E0,1.5668328E1,4.9619278E1,1.5894615E1,6.6391014E1,1.2342685E1,-2.3232691E0,3.246814E1],"categories":[],"categories_nodes":[],"categories_segments":[],"categories_sizes":[],"default_left":[0,0,0,0,0,0,0,0,0,0,0,0,0,0,0,0,0,0,0,0,0,0,0,0,0,0,0,0,0,0,0,0,0,0,0,0,0,0,0,0,0,0,0,0,0,0,0,0,0,0,0,0,0,0,0,0,0,0,0,0,0,0,0,0,0,0,0,0,0,0,0,0,0,0,0,0,0,0,0,0,0],"id":2,"left_children":[1,3,5,7,9,11,13,15,17,19,21,23,25,27,29,31,33,35,37,39,41,43,45,47,49,-1,51,-1,-1,53,55,57,-1,-1,59,-1,-1,61,-1,63,65,-1,-1,67,-1,-1,-1,69,71,73,75,77,79,-1,-1,-1,-1,-1,-1,-1,-1,-1,-1,-1,-1,-1,-1,-1,-1,-1,-1,-1,-1,-1,-1,-1,-1,-1,-1,-1,-1],"loss_changes":[3.908373E6,3.2046284E5,5.83054E5,4.909428E4,8.529975E4,2.0503912E5,5.1457825E5,7.9078438E3,1.3680629E4,7.715534E4,1.7707858E3,3.5681906E4,4.2270588E5,1.0620575E5,1.2901094E5,1.3415625E3,8.571662E3,8.40632E3,7.2773506E3,3.94925E4,5.213247E4,2.841869E3,9.862317E1,1.8361138E3,2.1535203E4,0E0,7.465475E4,0E0,0E0,1.414125E3,3.4096875E2,6.525E1,0E0,0E0,3.8218633E3,0E0,0E0,1.1092474E4,0E0,1.5104567E3,1.6882969E4,0E0,0E0,1.1127156E3,0E0,0E0,0E0,9.918887E2,3.4128387E1,1.0802227E3,2.2716984E4,6.4234125E4,4.0704703E4,0E0,0E0,0E0,0E0,0E0,0E0,0E0,0E0,0E0,0E0,0E0,0E0,0E0,0E0,0E0,0E0,0E0,0E0,0E0,0E0,0E0,0E0,0E0,0E0,0E0,0E0,0E0,0E0],"parents":[2147483647,0,0,1,1,2,2,3,3,4,4,5,5,6,6,7,7,8,8,9,9,10,10,11,11,12,12,13,13,14,14,15,15,16,16,17,17,18,18,19,19,20,20,21,21,22,22,23,23,24,24,26,26,29,29,30,30,31,31,34,34,37,37,39,39,40,40,43,43,47,47,48,48,49,49,50,50,51,51,52,52],"right_children":[2,4,6,8,10,12,14,16,18,20,22,24,26,28,30,32,34,36,38,40,42,44,46,48,50,-1,52,-1,-1,54,56,58,-1,-1,60,-1,-1,62,-1,64,66,-1,-1,68,-1,-1,-1,70,72,74,76,78,80,-1,-1,-1,-1,-1,-1,-1,-1,-1,-1,-1,-1,-1,-1,-1,-1,-1,-1,-1,-1,-1,-1,-1,-1,-1,-1,-1,-1],"split_conditions":[1.757E2,8.69E1,7.349E2,2.37E1,1.0571613E1,8.620834E0,7.948E2,3.5E0,2.4E0,1.37E2,2E0,5.4669995E0,1.3E2,1.1775002E1,8.310155E0,6.1100002E1,3.3295002E0,1.1417E1,9.9E0,5.075333E0,2.156E2,7.760416E0,4.29E2,1.3520836E0,7.21E1,1.16044205E2,3.913E2,2.2387973E2,4.6203518E1,7.948E2,8.026E2,5E-1,1.8971009E0,1.2305394E1,1.15E2,2.7567474E1,-2.1978114E0,1.07E1,-7.729381E0,1.392E2,1.321E2,8.9119965E1,4.817719E0,8.82E1,9.114835E0,-4.7877088E0,-6.507414E-1,4.608667E0,2.9E2,9.537609E1,1.23E2,5.429045E4,3.04E2,1.0068309E2,4.0568653E1,8.022131E0,2.9874496E1,-7.594509E0,-6.425038E0,1.8789943E0,-5.495531E0,5.7044077E-1,1.4647112E1,4.8431215E0,-3.5431275E0,3.6356632E1,1.4375405E1,5.540173E0,-2.5066833E0,1.1186228E1,1.848162E0,-2.1943743E0,-2.3755075E-2,2.2408626E0,1.5668328E1,4.9619278E1,1.5894615E1,6.6391014E1,1.2342685E1,-2.3232691E0,3.246814E1],"split_indices":[0,0,0,0,10,3,0,0,1,8,4,3,8,6,10,12,9,3,11,3,1,5,2,5,2,0,2,0,0,1,0,0,0,0,8,0,0,12,0,0,2,0,0,0,0,0,0,3,0,7,8,7,1,0,0,0,0,0,0,0,0,0,0,0,0,0,0,0,0,0,0,0,0,0,0,0,0,0,0,0,0],"split_type":[0,0,0,0,0,0,0,0,0,0,0,0,0,0,0,0,0,0,0,0,0,0,0,0,0,0,0,0,0,0,0,0,0,0,0,0,0,0,0,0,0,0,0,0,0,0,0,0,0,0,0,0,0,0,0,0,0,0,0,0,0,0,0,0,0,0,0,0,0,0,0,0,0,0,0,0,0,0,0,0,0],"sum_hessian":[9.28E2,8.48E2,8E1,8.06E2,4.2E1,6.1E1,1.9E1,7.6E2,4.6E1,2.8E1,1.4E1,2.4E1,3.7E1,4E0,1.5E1,7.12E2,4.8E1,3E0,4.3E1,2.5E1,3E0,1E1,4E0,7E0,1.7E1,9E0,2.8E1,3E0,1E0,1E1,5E0,7.11E2,1E0,2E0,4.6E1,2E0,1E0,3.7E1,6E0,7E0,1.8E1,2E0,1E0,7E0,3E0,3E0,1E0,5E0,2E0,6E0,1.1E1,1.4E1,1.4E1,8E0,2E0,1E0,4E0,6.63E2,4.8E1,7E0,3.9E1,3.2E1,5E0,5E0,2E0,1.1E1,7E0,1E0,6E0,3E0,2E0,1E0,1E0,1E0,5E0,7E0,4E0,1.1E1,3E0,4E0,1E1],"tree_param":{"num_deleted":"0","num_feature":"14","num_nodes":"81","size_leaf_vector":"1"}},{"base_weights":[2.5791233E0,-1.2858575E1,1.5213545E2,-1.6233358E1,3.4859066E1,1.13192566E2,2.7693448E2,-1.7452705E1,-2.8512404E0,5.4460552E1,6.4545603E0,1.4444048E2,4.9886387E1,5.1504877E2,1.8521538E2,-5.2764864E0,-4.757411E0,2.0048653E1,-4.9195576E0,2.5477295E1,9.7090385E1,2.0649979E1,-5.1600223E0,5.707048E1,1.7448198E2,1.2586259E1,8.613766E1,1.7350679E2,3.9272987E1,2.3087064E2,2.119345E1,-4.6419253E0,3.7516356E0,-8.951346E0,1.6053146E1,3.7421432E1,-2.0228231E1,3.0709219E1,1.2318099E2,3.4717487E1,3.140806E0,-1.4014435E1,5.6964526E0,1.8063507E1,7.239986E1,9.417384E1,1.3187094E2,1.7104433E1,-1.8557434E0,3.1430597E1,4.068189E1,2.798363E2,3.484338E1,4.7697973E0,-3.5098317E0,8.1136055E0,-6.682356E0,4.3292837E0,1.6876194E1,-7.7375093E0,3.0384466E-1,1.2014518E1,3.3400934E0,1.9073902E1,4.7443836E1,2.964607E0,1.1312453E1,-2.528511E0,5.2558317E0,-1.6761532E-1,-5.521967E0,-1.8759776E0,4.8666153E0,9.988486E0,1.7795724E0,1.8629872E0,2.3969204E1,4.772004E1,9.43341E0,-1.1924702E0,6.861339E0,5.3948584E0,-4.3388696E0,-3.7239392E0,1.5435215E1,2.3830528E1,8.99992E1],"categories":[],"categories_nodes":[],"categories_segments":[],"categories_sizes":[],"default_left":[0,0,0,0,0,0,0,0,0,0,0,0,0,0,0,0,0,0,0,0,0,0,0,0,0,0,0,0,0,0,0,0,0,0,0,0,0,0,0,0,0,0,0,0,0,0,0,0,0,0,0,0,0,0,0,0,0,0,0,0,0,0,0,0,0,0,0,0,0,0,0,0,0,0,0,0,0,0,0,0,0,0,0,0,0,0,0],"id":3,"left_children":[1,3,5,7,9,11,13,15,17,19,21,23,25,27,29,-1,31,-1,33,35,37,39,41,43,45,47,49,-1,-1,51,-1,-1,-1,53,55,57,59,61,63,65,67,69,71,73,75,-1,77,79,81,83,-1,85,-1,-1,-1,-1,-1,-1,-1,-1,-1,-1,-1,-1,-1,-1,-1,-1,-1,-1,-1,-1,-1,-1,-1,-1,-1,-1,-1,-1,-1,-1,-1,-1,-1,-1,-1],"loss_changes":[2.1468365E6,1.363198E5,3.91476E5,1.2808406E4,3.0827625E4,1.27311E5,3.4139775E5,1.1590781E3,9.984842E3,3.82996E4,4.0635266E3,1.08154875E5,3.1368098E4,4.588125E4,6.7382125E4,0E0,1.8583463E3,0E0,5.724493E3,1.2221143E4,1.8732227E4,2.6003745E3,1.4256205E3,6.465586E3,1.5466675E5,8.80011E2,2.821321E4,0E0,0E0,2.92925E4,0E0,0E0,0E0,4.0103613E3,5.236783E3,6.5486816E3,6.1699133E2,4.6821338E2,8.700828E3,7.301758E1,1.1457537E3,4.625089E2,9.8188574E2,7.2640625E2,3.970168E3,0E0,6.873997E4,1.3064912E3,1.2605177E3,6.782961E3,0E0,4.45175E3,0E0,0E0,0E0,0E0,0E0,0E0,0E0,0E0,0E0,0E0,0E0,0E0,0E0,0E0,0E0,0E0,0E0,0E0,0E0,0E0,0E0,0E0,0E0,0E0,0E0,0E0,0E0,0E0,0E0,0E0,0E0,0E0,0E0,0E0,0E0],"parents":[2147483647,0,0,1,1,2,2,3,3,4,4,5,5,6,6,7,7,8,8,9,9,10,10,11,11,12,12,13,13,14,14,16,16,18,18,19,19,20,20,21,21,22,22,23,23,24,24,25,25,26,26,29,29,33,33,34,34,35,35,36,36,37,37,38,38,39,39,40,40,41,41,42,42,43,43,44,44,46,46,47,47,48,48,49,49,51,51],"right_children":[2,4,6,8,10,12,14,16,18,20,22,24,26,28,30,-1,32,-1,34,36,38,40,42,44,46,48,50,-1,-1,52,-1,-1,-1,54,56,58,60,62,64,66,68,70,72,74,76,-1,78,80,82,84,-1,86,-1,-1,-1,-1,-1,-1,-1,-1,-1,-1,-1,-1,-1,-1,-1,-1,-1,-1,-1,-1,-1,-1,-1,-1,-1,-1,-1,-1,-1,-1,-1,-1,-1,-1,-1],"split_conditions":[1.576E2,5.66E1,7.349E2,5.3E0,1.0141108E1,4E-1,7.948E2,1.83E1,3.2821429E0,6.9649177E0,5.089583E0,8.620834E0,1.4E1,1.1775002E1,8.310155E0,-5.2764864E0,1.8E0,2.0048653E1,1.4197167E1,2.1E0,1.11E2,1.4538839E1,5.1883367E4,3.8439637E4,1.1417E1,9.43575E0,1.2949951E1,1.7350679E2,3.9272987E1,5.510933E0,2.119345E1,-4.6419253E0,3.7516356E0,6.7E0,1.5323491E1,5.075333E0,7.51E1,1.5121014E1,9.06E1,6.05E1,6.03E1,7.919999E0,1.1081184E1,1.213E2,-4.0083337E0,9.417384E1,5.429045E4,4.696762E0,1.627E2,3.03E2,4.068189E1,6.9649177E0,3.484338E1,4.7697973E0,-3.5098317E0,8.1136055E0,-6.682356E0,4.3292837E0,1.6876194E1,-7.7375093E0,3.0384466E-1,1.2014518E1,3.3400934E0,1.9073902E1,4.7443836E1,2.964607E0,1.1312453E1,-2.528511E0,5.2558317E0,-1.6761532E-1,-5.521967E0,-1.8759776E0,4.8666153E0,9.988486E0,1.7795724E0,1.8629872E0,2.3969204E1,4.772004E1,9.43341E0,-1.1924702E0,6.861339E0,5.3948584E0,-4.3388696E0,-3.7239392E0,1.5435215E1,2.3830528E1,8.99992E1],"split_indices":[0,0,0,0,10,4,0,1,10,3,5,3,12,6,10,0,0,0,6,4,8,10,7,7,3,10,6,0,0,13,0,0,0,0,6,3,0,6,0,0,2,6,6,1,5,0,7,9,0,0,0,3,0,0,0,0,0,0,0,0,0,0,0,0,0,0,0,0,0,0,0,0,0,0,0,0,0,0,0,0,0,0,0,0,0,0,0],"split_type":[0,0,0,0,0,0,0,0,0,0,0,0,0,0,0,0,0,0,0,0,0,0,0,0,0,0,0,0,0,0,0,0,0,0,0,0,0,0,0,0,0,0,0,0,0,0,0,0,0,0,0,0,0,0,0,0,0,0,0,0,0,0,0,0,0,0,0,0,0,0,0,0,0,0,0,0,0,0,0,0,0,0,0,0,0,0,0],"sum_hessian":[9.28E2,8.42E2,8.6E1,7.87E2,5.5E1,6.7E1,1.9E1,7.21E2,6.6E1,3.2E1,2.3E1,4.4E1,2.3E1,4E0,1.5E1,7.13E2,8E0,1E0,6.5E1,2E1,1.2E1,1E1,1.3E1,1.2E1,3.2E1,1.2E1,1.1E1,3E0,1E0,1E1,5E0,5E0,3E0,5.5E1,1E1,1.6E1,4E0,4E0,8E0,5E0,5E0,7E0,6E0,4E0,8E0,6E0,2.6E1,9E0,3E0,6E0,5E0,6E0,4E0,5E0,5E1,8E0,2E0,8E0,8E0,3E0,1E0,2E0,2E0,4E0,4E0,1E0,4E0,3E0,2E0,2E0,5E0,3E0,3E0,1E0,3E0,1E0,7E0,2E1,6E0,2E0,7E0,1E0,2E0,2E0,4E0,1E0,5E0],"tree_param":{"num_deleted":"0","num_feature":"14","num_nodes":"87","size_leaf_vector":"1"}},{"base_weights":[2.6204724E0,-8.850916E0,1.1374415E2,-1.1342319E1,2.636473E1,8.288253E1,2.1298645E2,-1.2151115E1,-5.532019E-1,4.102069E1,5.1142516E0,2.159236E1,9.9821396E1,4.030901E2,1.4026743E2,-1.2465328E1,-8.996994E0,1.5064044E1,-3.3633287E0,1.8489908E1,7.426114E1,-6.583255E0,1.3939846E1,6.9754467E0,1.9109772E1,1.5230608E2,6.847768E1,1.3446777E2,3.3382042E1,1.7601645E2,5.134963E1,-3.7592485E0,-6.928618E0,1.006126E1,-1.0099487E1,6.305891E0,-9.236572E0,2.7442385E1,-1.5646494E1,2.4567371E1,9.3617546E1,3.212212E0,-1.2639552E1,1.0722126E1,7.328049E0,-7.8959866E0,1.7257092E1,6.8536865E1,2.2084467E2,9.8297264E1,3.1121807E1,2.28097E1,2.0400645E2,1.9021465E1,5.4478226E0,4.6137967E0,-3.3348277E0,-3.4921782E0,2.4066663E0,-2.285142E0,5.2148776E0,-4.484419E0,-5.6306773E-1,2.6270738E0,1.2923611E1,-5.996569E0,2.58268E-1,9.611612E0,2.6720743E0,1.4496165E1,3.6057312E1,-1.7051243E0,2.0571418E0,-5.079836E0,-3.8129368E-1,5.2100366E-1,7.0569806E0,-3.4976742E0,1.6377972E0,8.407377E0,1.557502E0,2.2806114E1,1.7779084E-1,2.940993E1,7.784205E1,3.1584854E1,-4.1164665E0,-5.346239E0,1.4265571E1,7.203193E1,3.2363968E1],"categories":[],"categories_nodes":[],"categories_segments":[],"categories_sizes":[],"default_left":[0,0,0,0,0,0,0,0,0,0,0,0,0,0,0,0,0,0,0,0,0,0,0,0,0,0,0,0,0,0,0,0,0,0,0,0,0,0,0,0,0,0,0,0,0,0,0,0,0,0,0,0,0,0,0,0,0,0,0,0,0,0,0,0,0,0,0,0,0,0,0,0,0,0,0,0,0,0,0,0,0,0,0,0,0,0,0,0,0,0,0],"id":4,"left_children":[1,3,5,7,9,11,13,15,17,19,21,23,25,27,29,31,33,-1,35,37,39,41,43,45,-1,47,49,-1,-1,51,53,-1,55,-1,57,59,61,63,65,67,69,71,73,-1,75,77,79,81,83,85,87,-1,89,-1,-1,-1,-1,-1,-1,-1,-1,-1,-1,-1,-1,-1,-1,-1,-1,-1,-1,-1,-1,-1,-1,-1,-1,-1,-1,-1,-1,-1,-1,-1,-1,-1,-1,-1,-1,-1,-1],"loss_changes":[1.1852428E6,7.426078E4,2.4880888E5,6.8695312E3,1.72312E4,6.844128E4,2.1994262E5,6.142969E2,8.157889E3,2.334171E4,2.5694683E3,9.40323E3,7.6758875E4,1.59811875E4,4.182125E4,1.5397656E2,3.621295E3,0E0,3.1248877E3,6.84709E3,1.020468E4,6.931677E2,1.7560659E3,2.123998E3,0E0,9.395103E4,3.5928594E4,0E0,0E0,1.5273E4,1.2493037E3,0E0,1.105097E3,0E0,2.0203784E3,3.3711516E3,1.4011255E3,4.5896875E3,3.7558923E2,2.9965674E2,5.025586E3,2.0109985E2,3.201344E2,0E0,1.0457891E3,3.6518015E2,8.938203E2,5.0395625E3,2.2003688E4,1.6312453E4,1.4517646E4,0E0,1.8586875E3,0E0,0E0,0E0,0E0,0E0,0E0,0E0,0E0,0E0,0E0,0E0,0E0,0E0,0E0,0E0,0E0,0E0,0E0,0E0,0E0,0E0,0E0,0E0,0E0,0E0,0E0,0E0,0E0,0E0,0E0,0E0,0E0,0E0,0E0,0E0,0E0,0E0,0E0],"parents":[2147483647,0,0,1,1,2,2,3,3,4,4,5,5,6,6,7,7,8,8,9,9,10,10,11,11,12,12,13,13,14,14,15,15,16,16,18,18,19,19,20,20,21,21,22,22,23,23,25,25,26,26,29,29,30,30,32,32,34,34,35,35,36,36,37,37,38,38,39,39,40,40,41,41,42,42,44,44,45,45,46,46,47,47,48,48,49,49,50,50,52,52],"right_children":[2,4,6,8,10,12,14,16,18,20,22,24,26,28,30,32,34,-1,36,38,40,42,44,46,-1,48,50,-1,-1,52,54,-1,56,-1,58,60,62,64,66,68,70,72,74,-1,76,78,80,82,84,86,88,-1,90,-1,-1,-1,-1,-1,-1,-1,-1,-1,-1,-1,-1,-1,-1,-1,-1,-1,-1,-1,-1,-1,-1,-1,-1,-1,-1,-1,-1,-1,-1,-1,-1,-1,-1,-1,-1,-1,-1],"split_conditions":[1.576E2,5.66E1,7.349E2,9.4E0,1.0141108E1,6.287834E0,7.948E2,5E-1,3.6708333E0,6.9649177E0,5.1883367E4,3.825E2,1.3E2,1.1775002E1,7.948E2,1.3E0,2.2050953E0,1.5064044E1,1.46E2,2.1E0,1.11E2,1E-1,1.3816666E1,1.17E2,1.9109772E1,8.156583E0,3.913E2,1.3446777E2,3.3382042E1,7.9711666E0,6.21163E0,-3.7592485E0,1E-1,1.006126E1,2.3199999E1,5.5635777E0,5.5053793E4,-2.5399454E0,7.51E1,1.5121014E1,9.06E1,2.77E1,1.576E2,1.0722126E1,1.5608185E1,3.787E2,9.25E1,4.972E2,1E-1,5.1999993E0,3.04E2,2.28097E1,1.31E2,1.9021465E1,5.4478226E0,4.6137967E0,-3.3348277E0,-3.4921782E0,2.4066663E0,-2.285142E0,5.2148776E0,-4.484419E0,-5.6306773E-1,2.6270738E0,1.2923611E1,-5.996569E0,2.58268E-1,9.611612E0,2.6720743E0,1.4496165E1,3.6057312E1,-1.7051243E0,2.0571418E0,-5.079836E0,-3.8129368E-1,5.2100366E-1,7.0569806E0,-3.4976742E0,1.6377972E0,8.407377E0,1.557502E0,2.2806114E1,1.7779084E-1,2.940993E1,7.784205E1,3.1584854E1,-4.1164665E0,-5.346239E0,1.4265571E1,7.203193E1,3.2363968E1],"split_indices":[0,0,0,0,10,3,0,0,10,3,7,0,8,6,1,1,9,0,8,4,8,11,3,8,0,3,2,0,0,3,5,0,2,0,11,10,7,5,0,6,0,1,1,0,10,0,1,0,11,4,1,0,8,0,0,0,0,0,0,0,0,0,0,0,0,0,0,0,0,0,0,0,0,0,0,0,0,0,0,0,0,0,0,0,0,0,0,0,0,0,0],"split_type":[0,0,0,0,0,0,0,0,0,0,0,0,0,0,0,0,0,0,0,0,0,0,0,0,0,0,0,0,0,0,0,0,0,0,0,0,0,0,0,0,0,0,0,0,0,0,0,0,0,0,0,0,0,0,0,0,0,0,0,0,0,0,0,0,0,0,0,0,0,0,0,0,0,0,0,0,0,0,0,0,0,0,0,0,0,0,0,0,0,0,0],"sum_hessian":[9.28E2,8.42E2,8.6E1,7.87E2,5.5E1,6.7E1,1.9E1,7.32E2,5.5E1,3.2E1,2.3E1,1.5E1,5.2E1,4E0,1.5E1,6.63E2,6.9E1,2E0,5.3E1,2E1,1.2E1,1E1,1.3E1,1.2E1,3E0,1.8E1,3.4E1,3E0,1E0,1E1,5E0,6.54E2,9E0,1E0,6.8E1,2E1,3.3E1,1.6E1,4E0,4E0,8E0,4E0,6E0,2E0,1.1E1,5E0,7E0,9E0,9E0,1.8E1,1.6E1,3E0,7E0,3E0,2E0,1E0,8E0,6.3E1,5E0,9E0,1.1E1,1.8E1,1.5E1,8E0,8E0,3E0,1E0,2E0,2E0,4E0,4E0,1E0,3E0,4E0,2E0,9E0,2E0,4E0,1E0,3E0,4E0,8E0,1E0,3E0,6E0,1.7E1,1E0,4E0,1.2E1,4E0,3E0],"tree_param":{"num_deleted":"0","num_feature":"14","num_nodes":"91","size_leaf_vector":"1"}},{"base_weights":[2.5002575E0,-6.0707507E0,8.552163E1,-7.5783076E0,2.697436E1,6.0868336E1,1.6506676E2,-8.34788E0,3.9931645E0,4.2624523E1,1.1791549E0,2.434913E1,7.780471E1,1.18992615E2,1.15946815E2,-8.441355E0,4.7588058E0,3.918331E1,9.7746146E-1,6.489524E0,5.4996315E1,6.383425E0,-7.691155E0,-1.6420176E0,3.8320545E1,1.428417E2,5.0649258E1,6.257845E1,8.716585E1,-8.341204E0,-1.9503159E1,-2.18129E0,1.2591434E1,1.6339254E1,-9.9889386E-1,-1.7468166E0,2.4755617E1,1.8320095E1,-1.5391271E1,7.2570366E1,1.0682164E1,-2.1591678E0,1.0352989E1,-2.0408816E0,-3.7983406E0,-6.403578E0,3.0046887E0,8.321323E0,4.5126907E1,4.1390587E1,1.6913797E2,1.04467926E2,3.5385685E1,1.07467674E2,3.8801834E1,-2.5773764E0,-6.86618E-1,-2.185964E0,-7.136949E0,8.324427E-1,4.4816117E0,-3.8672621E0,7.0755047E-1,-8.1210715E-1,9.689411E0,2.0085812E0,9.72291E0,-7.8460926E-1,-6.141463E0,1.3012051E1,2.8361494E1,7.750932E-1,5.375841E0,-1.371369E0,7.615529E-1,-1.9304048E-1,4.46408E0,-1.0379251E0,3.3235875E-1,-2.534071E0,8.7845653E-1,4.8725587E-1,4.2619104E0,5.0565033E0,1.7146795E1,1.6455488E1,1.5112153E-1,1.7910847E1,5.6710175E1,7.2711477E0,3.951384E1,1.6670326E0,2.0812864E1,1.0223465E1,3.6466583E1,1.4192131E1,4.3582597E0],"categories":[],"categories_nodes":[],"categories_segments":[],"categories_sizes":[],"default_left":[0,0,0,0,0,0,0,0,0,0,0,0,0,0,0,0,0,0,0,0,0,0,0,0,0,0,0,0,0,0,0,0,0,0,0,0,0,0,0,0,0,0,0,0,0,0,0,0,0,0,0,0,0,0,0,0,0,0,0,0,0,0,0,0,0,0,0,0,0,0,0,0,0,0,0,0,0,0,0,0,0,0,0,0,0,0,0,0,0,0,0,0,0,0,0,0,0],"id":5,"left_children":[1,3,5,7,9,11,13,15,17,19,21,23,25,27,-1,29,31,33,35,37,39,41,43,45,47,49,51,-1,53,55,57,-1,59,-1,-1,61,63,65,67,69,71,73,75,77,-1,79,-1,81,83,85,87,89,91,93,95,-1,-1,-1,-1,-1,-1,-1,-1,-1,-1,-1,-1,-1,-1,-1,-1,-1,-1,-1,-1,-1,-1,-1,-1,-1,-1,-1,-1,-1,-1,-1,-1,-1,-1,-1,-1,-1,-1,-1,-1,-1,-1],"loss_changes":[6.615741E5,4.2200473E4,1.6056394E5,7.219742E3,1.4886607E4,4.016375E4,1.5804781E5,9.6760156E2,5.3739746E3,9.925355E3,7.4154834E2,8.414984E3,7.400622E4,3.314914E4,0E0,6.7041406E2,6.5690027E2,2.7798857E3,3.1526023E3,2.0940059E3,1.2464035E4,3.6145746E2,1.4265057E2,5.6371313E2,2.6872676E3,2.76805E4,2.423314E4,0E0,1.0558227E4,1.1108594E3,1.4086572E2,0E0,5.071704E1,0E0,0E0,2.0433984E3,1.123105E3,6.019542E2,1.4117468E2,3.5962852E3,3.0537115E2,5.692847E1,3.580631E2,2.1703547E1,0E0,1.5820895E2,0E0,1.34578E2,3.1176523E3,2.1738867E3,1.0487281E4,1.2108797E4,2.8003703E4,6.196414E3,5.51501E2,0E0,0E0,0E0,0E0,0E0,0E0,0E0,0E0,0E0,0E0,0E0,0E0,0E0,0E0,0E0,0E0,0E0,0E0,0E0,0E0,0E0,0E0,0E0,0E0,0E0,0E0,0E0,0E0,0E0,0E0,0E0,0E0,0E0,0E0,0E0,0E0,0E0,0E0,0E0,0E0,0E0,0E0],"parents":[2147483647,0,0,1,1,2,2,3,3,4,4,5,5,6,6,7,7,8,8,9,9,10,10,11,11,12,12,13,13,15,15,16,16,17,17,18,18,19,19,20,20,21,21,22,22,23,23,24,24,25,25,26,26,28,28,29,29,30,30,32,32,35,35,36,36,37,37,38,38,39,39,40,40,41,41,42,42,43,43,45,45,47,47,48,48,49,49,50,50,51,51,52,52,53,53,54,54],"right_children":[2,4,6,8,10,12,14,16,18,20,22,24,26,28,-1,30,32,34,36,38,40,42,44,46,48,50,52,-1,54,56,58,-1,60,-1,-1,62,64,66,68,70,72,74,76,78,-1,80,-1,82,84,86,88,90,92,94,96,-1,-1,-1,-1,-1,-1,-1,-1,-1,-1,-1,-1,-1,-1,-1,-1,-1,-1,-1,-1,-1,-1,-1,-1,-1,-1,-1,-1,-1,-1,-1,-1,-1,-1,-1,-1,-1,-1,-1,-1,-1,-1],"split_conditions":[1.576E2,8.69E1,7.349E2,2.18E1,9.891666E0,7.6812496E0,1.4556582E1,1.32E2,2.4E0,-2.5399454E0,1E-1,3.8701406E3,1.3E2,1.015E2,1.15946815E2,5.03E1,2E-1,1.1417E1,1.5621761E1,8.49E0,7E-1,9.708333E-1,1.191E2,3.787E2,5.4669995E0,1.1025E1,1.199E2,6.257845E1,8.310155E0,5.3E0,9E-1,-2.18129E0,2.37E1,1.6339254E1,-9.9889386E-1,8.985E0,2.28E1,1.334E2,1.32E2,4.210069E4,2.9200102E4,6.03E1,9.525001E0,1.161E2,-3.7983406E0,4.781E2,3.0046887E0,2.316E2,7.21E1,2.915E2,1E-1,8.565604E0,3.445E2,2.025E2,8.343E2,-2.5773764E0,-6.86618E-1,-2.185964E0,-7.136949E0,8.324427E-1,4.4816117E0,-3.8672621E0,7.0755047E-1,-8.1210715E-1,9.689411E0,2.0085812E0,9.72291E0,-7.8460926E-1,-6.141463E0,1.3012051E1,2.8361494E1,7.750932E-1,5.375841E0,-1.371369E0,7.615529E-1,-1.9304048E-1,4.46408E0,-1.0379251E0,3.3235875E-1,-2.534071E0,8.7845653E-1,4.8725587E-1,4.2619104E0,5.0565033E0,1.7146795E1,1.6455488E1,1.5112153E-1,1.7910847E1,5.6710175E1,7.2711477E0,3.951384E1,1.6670326E0,2.0812864E1,1.0223465E1,3.6466583E1,1.4192131E1,4.3582597E0],"split_indices":[0,0,0,0,10,3,3,2,1,5,4,7,8,2,0,1,0,3,10,6,4,5,0,0,3,6,2,0,10,0,0,0,1,0,0,6,0,0,0,7,7,2,6,0,0,1,0,0,2,1,11,6,0,2,1,0,0,0,0,0,0,0,0,0,0,0,0,0,0,0,0,0,0,0,0,0,0,0,0,0,0,0,0,0,0,0,0,0,0,0,0,0,0,0,0,0,0],"split_type":[0,0,0,0,0,0,0,0,0,0,0,0,0,0,0,0,0,0,0,0,0,0,0,0,0,0,0,0,0,0,0,0,0,0,0,0,0,0,0,0,0,0,0,0,0,0,0,0,0,0,0,0,0,0,0,0,0,0,0,0,0,0,0,0,0,0,0,0,0,0,0,0,0,0,0,0,0,0,0,0,0,0,0,0,0,0,0,0,0,0,0,0,0,0,0,0,0],"sum_hessian":[9.28E2,8.42E2,8.6E1,8.06E2,3.6E1,6.7E1,1.9E1,7.56E2,5E1,2.2E1,1.4E1,2.2E1,4.5E1,1.7E1,2E0,7.51E2,5E0,3E0,4.7E1,6E0,1.6E1,9E0,5E0,8E0,1.4E1,1.2E1,3.3E1,3E0,1.4E1,7.46E2,5E0,2E0,3E0,2E0,1E0,4.3E1,4E0,4E0,2E0,1.1E1,5E0,3E0,6E0,3E0,2E0,6E0,2E0,3E0,1.1E1,3E0,9E0,6E0,2.7E1,9E0,5E0,7.16E2,3E1,2E0,3E0,1E0,2E0,1.1E1,3.2E1,1E0,3E0,3E0,1E0,1E0,1E0,6E0,5E0,3E0,2E0,2E0,1E0,2E0,4E0,2E0,1E0,5E0,1E0,2E0,1E0,4E0,7E0,2E0,1E0,2E0,7E0,2E0,4E0,1.5E1,1.2E1,2E0,7E0,3E0,2E0],"tree_param":{"num_deleted":"0","num_feature":"14","num_nodes":"97","size_leaf_vector":"1"}},{"base_weights":[2.283712E0,-4.174684E0,6.483709E1,-5.2904363E0,2.0273598E1,4.5384216E1,1.27735016E2,-5.856005E0,3.208117E0,3.2112377E1,7.6922876E-1,6.628406E1,2.7140026E1,9.651227E1,1.08145096E2,-5.925686E0,3.8532908E0,3.1263409E1,8.033402E-1,8.1132965E0,4.6960835E1,4.834519E0,-6.13446E0,8.053828E1,-6.531572E0,5.666855E0,4.831494E1,1.18799576E2,2.842317E1,-5.8362627E0,-1.4609087E1,-1.745032E0,1.0142516E1,1.3071404E1,-8.490598E-1,4.3696704E0,-1.1589741E1,2.1064375E1,-4.031485E0,2.6106281E1,2.7771196E1,7.9606347E0,-1.8448129E0,-1.6050086E0,-3.0386727E0,2.005812E1,1.1708474E2,2.6619776E1,-2.976219E1,-1.118393E1,2.3636032E1,8.572888E1,2.8829327E1,1.3111355E1,1.3530692E2,1.4095148E1,4.594282E0,-1.8052417E0,-3.9324543E-1,-2.1401777E0,-5.529593E0,7.075762E-1,3.585289E0,1.865179E-1,8.694528E0,-5.939481E-1,-5.039486E0,7.739823E0,2.7923653E0,6.367626E-1,-5.2202435E0,1.0777843E1,2.1411645E0,1.6355133E-1,3.2453358E0,1.1767892E0,-1.5224513E0,-8.303401E-1,2.8250486E-1,2.5771666E0,1.4332435E1,5.3153282E1,2.4686697E1,2.195739E0,9.783161E0,-1.306707E0,-1.1033738E1,-5.8931055E0,2.559469E0,1.0835136E1,2.7887368E0,5.2186227E0,2.877495E1,1.08290205E1,-2.9550195E0,5.071494E1,2.3703867E1],"categories":[],"categories_nodes":[],"categories_segments":[],"categories_sizes":[],"default_left":[0,0,0,0,0,0,0,0,0,0,0,0,0,0,0,0,0,0,0,0,0,0,0,0,0,0,0,0,0,0,0,0,0,0,0,0,0,0,0,0,0,0,0,0,0,0,0,0,0,0,0,0,0,0,0,0,0,0,0,0,0,0,0,0,0,0,0,0,0,0,0,0,0,0,0,0,0,0,0,0,0,0,0,0,0,0,0,0,0,0,0,0,0,0,0,0,0],"id":6,"left_children":[1,3,5,7,9,11,13,15,17,19,21,23,25,27,-1,29,31,33,35,37,39,41,43,45,47,49,51,53,55,57,59,-1,61,-1,-1,63,65,67,69,71,-1,73,75,77,-1,79,81,83,85,87,89,91,93,-1,95,-1,-1,-1,-1,-1,-1,-1,-1,-1,-1,-1,-1,-1,-1,-1,-1,-1,-1,-1,-1,-1,-1,-1,-1,-1,-1,-1,-1,-1,-1,-1,-1,-1,-1,-1,-1,-1,-1,-1,-1,-1,-1],"loss_changes":[3.7558153E5,2.3102791E4,1.0065131E5,3.8976465E3,8.51889E3,2.4129516E4,1.1054994E5,5.3498047E2,3.4156873E3,7.8150293E3,4.5063962E2,3.270186E4,1.7004527E4,2.5456281E4,0E0,4.9866406E2,4.2389996E2,1.8018032E3,2.1721387E3,1.657801E3,1.0899736E4,2.234895E2,9.2298935E1,5.5120234E4,5.4130205E3,6.3202383E3,1.1380133E4,1.1441156E4,7.4033545E2,6.038711E2,6.85448E1,0E0,2.8119873E1,0E0,0E0,3.4872808E3,5.173329E2,3.819873E1,5.305851E2,1.7925977E3,0E0,1.424122E2,9.442264E1,1.4451471E1,0E0,3.0858574E3,1.887586E4,1.081958E2,5.529043E2,2.0022617E3,1.4540815E3,2.508418E3,4.2909375E3,0E0,7.5376406E3,0E0,0E0,0E0,0E0,0E0,0E0,0E0,0E0,0E0,0E0,0E0,0E0,0E0,0E0,0E0,0E0,0E0,0E0,0E0,0E0,0E0,0E0,0E0,0E0,0E0,0E0,0E0,0E0,0E0,0E0,0E0,0E0,0E0,0E0,0E0,0E0,0E0,0E0,0E0,0E0,0E0,0E0],"parents":[2147483647,0,0,1,1,2,2,3,3,4,4,5,5,6,6,7,7,8,8,9,9,10,10,11,11,12,12,13,13,15,15,16,16,17,17,18,18,19,19,20,20,21,21,22,22,23,23,24,24,25,25,26,26,27,27,28,28,29,29,30,30,32,32,35,35,36,36,37,37,38,38,39,39,41,41,42,42,43,43,45,45,46,46,47,47,48,48,49,49,50,50,51,51,52,52,54,54],"right_children":[2,4,6,8,10,12,14,16,18,20,22,24,26,28,-1,30,32,34,36,38,40,42,44,46,48,50,52,54,56,58,60,-1,62,-1,-1,64,66,68,70,72,-1,74,76,78,-1,80,82,84,86,88,90,92,94,-1,96,-1,-1,-1,-1,-1,-1,-1,-1,-1,-1,-1,-1,-1,-1,-1,-1,-1,-1,-1,-1,-1,-1,-1,-1,-1,-1,-1,-1,-1,-1,-1,-1,-1,-1,-1,-1,-1,-1,-1,-1,-1,-1],"split_conditions":[1.576E2,8.69E1,7.349E2,2.18E1,9.891666E0,6.2E0,1.5075E1,1.32E2,2.4E0,-2.1194444E0,1E-1,1.1501934E1,1.4E1,7.948E2,1.08145096E2,4.34E1,2E-1,1.1417E1,6.9999995E0,3.2E0,4.210069E4,1.47E2,1.191E2,8.156583E0,2.303E2,2.723E2,6.670869E0,7.9711666E0,7.0708337E0,5.3E0,7.2E0,-1.745032E0,2.37E1,1.3071404E1,-8.490598E-1,5.2999997E0,3.02E1,1.037E2,1.334E2,3E-1,2.7771196E1,9.708333E-1,5.5E0,1.161E2,-3.0386727E0,4.5048445E4,4.7768453E4,1.627E2,4.765E2,1.1588691E1,9.245571E0,8.71E1,1.2399999E1,1.3111355E1,6.101E2,1.4095148E1,4.594282E0,-1.8052417E0,-3.9324543E-1,-2.1401777E0,-5.529593E0,7.075762E-1,3.585289E0,1.865179E-1,8.694528E0,-5.939481E-1,-5.039486E0,7.739823E0,2.7923653E0,6.367626E-1,-5.2202435E0,1.0777843E1,2.1411645E0,1.6355133E-1,3.2453358E0,1.1767892E0,-1.5224513E0,-8.303401E-1,2.8250486E-1,2.5771666E0,1.4332435E1,5.3153282E1,2.4686697E1,2.195739E0,9.783161E0,-1.306707E0,-1.1033738E1,-5.8931055E0,2.559469E0,1.0835136E1,2.7887368E0,5.2186227E0,2.877495E1,1.08290205E1,-2.9550195E0,5.071494E1,2.3703867E1],"split_indices":[0,0,0,0,10,12,3,2,1,13,4,10,12,1,0,1,0,3,11,12,7,8,0,3,0,0,10,3,3,0,0,0,1,0,0,11,1,0,0,4,0,5,1,0,0,7,7,0,2,9,9,1,11,0,1,0,0,0,0,0,0,0,0,0,0,0,0,0,0,0,0,0,0,0,0,0,0,0,0,0,0,0,0,0,0,0,0,0,0,0,0,0,0,0,0,0,0],"split_type":[0,0,0,0,0,0,0,0,0,0,0,0,0,0,0,0,0,0,0,0,0,0,0,0,0,0,0,0,0,0,0,0,0,0,0,0,0,0,0,0,0,0,0,0,0,0,0,0,0,0,0,0,0,0,0,0,0,0,0,0,0,0,0,0,0,0,0,0,0,0,0,0,0,0,0,0,0,0,0,0,0,0,0,0,0,0,0,0,0,0,0,0,0,0,0,0,0],"sum_hessian":[9.28E2,8.42E2,8.6E1,8.06E2,3.6E1,6.7E1,1.9E1,7.56E2,5E1,2.2E1,1.4E1,3E1,3.7E1,1.8E1,1E0,7.51E2,5E0,3E0,4.7E1,9E0,1.3E1,9E0,5E0,2.5E1,5E0,1.9E1,1.8E1,1.3E1,5E0,7.45E2,6E0,2E0,3E0,2E0,1E0,3.7E1,1E1,4E0,5E0,1E1,3E0,6E0,3E0,3E0,2E0,1E1,1.5E1,2E0,3E0,1E1,9E0,5E0,1.3E1,3E0,1E1,1E0,4E0,7.16E2,2.9E1,3E0,3E0,1E0,2E0,3.3E1,4E0,4E0,6E0,2E0,2E0,4E0,1E0,6E0,4E0,2E0,4E0,1E0,2E0,2E0,1E0,8E0,2E0,4E0,1.1E1,1E0,1E0,1E0,2E0,7E0,3E0,4E0,5E0,1E0,4E0,1.1E1,2E0,5E0,5E0],"tree_param":{"num_deleted":"0","num_feature":"14","num_nodes":"97","size_leaf_vector":"1"}},{"base_weights":[2.0455039E0,-1.3992933E0,6.974773E1,-3.6932068E0,2.2051182E1,1.007127E2,3.845701E1,-4.093226E0,2.8622787E0,3.27501E1,4.428661E0,7.632654E1,9.1923325E1,5.7477764E1,3.693339E-1,-4.3549066E0,-2.278438E0,8.890447E0,1.0138363E0,1.9529617E1,7.188578E1,8.931952E0,-5.921448E0,2.6477692E1,8.649817E1,1.03816124E2,2.6977043E1,2.5605497E1,-3.7577244E1,-4.4020877E0,-8.290566E-1,2.8018383E1,-3.8657327E0,-1.2843269E0,7.4673276E0,3.5847065E1,4.6132503E0,4.4460435E0,9.8566086E1,-3.06158E0,1.9181696E1,2.699617E0,-1.000185E1,1.0389314E0,9.409669E0,2.9964685E1,4.5313583E1,3.5864113E1,3.7742295E0,4.655929E1,2.8986206E0,1.1185042E1,3.1336923E0,-2.2468507E0,-1.3532997E1,-1.3367285E0,-1.099057E0,4.57912E0,-1.2939345E0,1.3319284E1,6.8990797E-1,-4.377339E-1,-2.7628698E0,-1.688171E0,2.65097E0,1.33427E0,1.5352857E1,4.5209103E0,-3.3009284E0,3.4130997E1,-1.1791902E0,-4.576392E0,-9.504295E-2,-7.390472E-1,7.127125E0,-1.6440526E-1,1.8663781E0,-5.09671E-1,-3.3307574E0,1.532819E1,2.4617524E0,2.3273284E0,1.9206184E1,5.1171436E0,-1.003354E0],"categories":[],"categories_nodes":[],"categories_segments":[],"categories_sizes":[],"default_left":[0,0,0,0,0,0,0,0,0,0,0,0,0,0,0,0,0,0,0,0,0,0,0,0,0,0,0,0,0,0,0,0,0,0,0,0,0,0,0,0,0,0,0,0,0,0,0,0,0,0,0,0,0,0,0,0,0,0,0,0,0,0,0,0,0,0,0,0,0,0,0,0,0,0,0,0,0,0,0,0,0,0,0,0,0],"id":7,"left_children":[1,3,5,7,9,11,13,15,17,19,21,23,-1,25,27,29,31,-1,33,35,37,39,41,43,45,47,49,51,53,55,57,59,61,63,-1,65,67,-1,69,71,73,75,77,-1,-1,-1,79,-1,-1,81,83,-1,-1,-1,-1,-1,-1,-1,-1,-1,-1,-1,-1,-1,-1,-1,-1,-1,-1,-1,-1,-1,-1,-1,-1,-1,-1,-1,-1,-1,-1,-1,-1,-1,-1],"loss_changes":[2.1675936E5,4.7688566E4,3.9728125E4,2.1279277E3,1.474977E4,8.696897E4,1.7365723E4,3.5147168E2,2.295868E3,2.394834E4,1.4977864E3,8.357664E3,0E0,1.9813E4,9.580817E3,1.0680957E2,4.8211294E3,0E0,2.5012905E3,9.083717E3,1.6809566E4,2.7632002E3,3.7877533E2,4.538396E2,4.844711E3,7.1073086E3,5.0516484E3,6.7276904E2,5.6872217E2,9.640625E0,6.2651636E2,2.0041604E3,1.195456E3,1.8957986E3,0E0,8.436271E3,3.5949355E3,0E0,1.2913992E4,3.6330582E2,1.2469463E3,4.9157402E1,4.510968E1,0E0,0E0,0E0,8.677129E2,0E0,0E0,3.568501E3,5.874092E2,0E0,0E0,0E0,0E0,0E0,0E0,0E0,0E0,0E0,0E0,0E0,0E0,0E0,0E0,0E0,0E0,0E0,0E0,0E0,0E0,0E0,0E0,0E0,0E0,0E0,0E0,0E0,0E0,0E0,0E0,0E0,0E0,0E0,0E0],"parents":[2147483647,0,0,1,1,2,2,3,3,4,4,5,5,6,6,7,7,8,8,9,9,10,10,11,11,13,13,14,14,15,15,16,16,18,18,19,19,20,20,21,21,22,22,23,23,24,24,25,25,26,26,27,27,28,28,29,29,30,30,31,31,32,32,33,33,35,35,36,36,38,38,39,39,40,40,41,41,42,42,46,46,49,49,50,50],"right_children":[2,4,6,8,10,12,14,16,18,20,22,24,-1,26,28,30,32,-1,34,36,38,40,42,44,46,48,50,52,54,56,58,60,62,64,-1,66,68,-1,70,72,74,76,78,-1,-1,-1,80,-1,-1,82,84,-1,-1,-1,-1,-1,-1,-1,-1,-1,-1,-1,-1,-1,-1,-1,-1,-1,-1,-1,-1,-1,-1,-1,-1,-1,-1,-1,-1,-1,-1,-1,-1,-1,-1],"split_conditions":[3.825E2,8.69E1,8.310155E0,2.37E1,4E-1,1.5075E1,4.775E2,5E-1,2E-1,3.375E0,9.43575E0,6.669084E0,9.1923325E1,6E0,1.2197915E1,1.3E0,3.3295002E0,8.890447E0,1.5608185E1,7.522173E0,8.620834E0,5.4669995E0,4.793218E2,4.206E2,5.510933E0,7.355E2,4.51E2,7.355E2,4.765E2,1E-1,1E-1,1E-1,8E-1,1.14E1,7.4673276E0,-2.2528183E0,2.303E2,4.4460435E0,8.343E2,3.0229168E0,3.9331846E0,1.191E2,9.34E1,1.0389314E0,9.409669E0,2.9964685E1,7.948E2,3.5864113E1,3.7742295E0,3.925E2,9.06E1,1.1185042E1,3.1336923E0,-2.2468507E0,-1.3532997E1,-1.3367285E0,-1.099057E0,4.57912E0,-1.2939345E0,1.3319284E1,6.8990797E-1,-4.377339E-1,-2.7628698E0,-1.688171E0,2.65097E0,1.33427E0,1.5352857E1,4.5209103E0,-3.3009284E0,3.4130997E1,-1.1791902E0,-4.576392E0,-9.504295E-2,-7.390472E-1,7.127125E0,-1.6440526E-1,1.8663781E0,-5.09671E-1,-3.3307574E0,1.532819E1,2.4617524E0,2.3273284E0,1.9206184E1,5.1171436E0,-1.003354E0],"split_indices":[0,0,10,0,4,3,1,0,2,11,10,3,0,12,3,1,9,0,10,10,3,3,7,0,13,0,0,1,0,1,2,4,4,12,0,13,0,0,2,3,10,0,0,0,0,0,1,0,0,1,2,0,0,0,0,0,0,0,0,0,0,0,0,0,0,0,0,0,0,0,0,0,0,0,0,0,0,0,0,0,0,0,0,0,0],"split_type":[0,0,0,0,0,0,0,0,0,0,0,0,0,0,0,0,0,0,0,0,0,0,0,0,0,0,0,0,0,0,0,0,0,0,0,0,0,0,0,0,0,0,0,0,0,0,0,0,0,0,0,0,0,0,0,0,0,0,0,0,0,0,0,0,0,0,0,0,0,0,0,0,0,0,0,0,0,0,0,0,0,0,0,0,0],"sum_hessian":[9.28E2,8.84E2,4.4E1,8.06E2,7.8E1,2.1E1,2.3E1,7.6E2,4.6E1,4.8E1,3E1,2E1,1E0,1.5E1,8E0,6.63E2,9.7E1,2E0,4.4E1,3.7E1,1.1E1,2.1E1,9E0,4E0,1.6E1,5E0,1E1,5E0,3E0,6.54E2,9E0,4E0,9.3E1,4.1E1,3E0,1.7E1,2E1,4E0,7E0,1E1,1.1E1,3E0,6E0,1E0,3E0,1.1E1,5E0,4E0,1E0,5E0,5E0,2E0,3E0,1E0,2E0,6.05E2,4.9E1,1E0,8E0,2E0,2E0,6.5E1,2.8E1,2.9E1,1.2E1,6E0,1.1E1,1.2E1,8E0,6E0,1E0,1E0,9E0,2E0,9E0,2E0,1E0,1E0,5E0,4E0,1E0,2E0,3E0,1E0,4E0],"tree_param":{"num_deleted":"0","num_feature":"14","num_nodes":"85","size_leaf_vector":"1"}},{"base_weights":[1.7524266E0,-2.0204792E0,3.829044E1,-2.7613366E0,7.522338E0,2.6013603E1,7.8117165E1,-2.668871E0,-1.2630544E1,3.7010418E1,5.3589816E0,3.4149403E1,9.675082E0,5.4812866E1,7.813483E1,-2.7481332E0,8.8258095E0,-1.5724753E0,-4.3613434E0,1.7880653E1,9.612443E0,7.305829E0,-1.2731335E1,7.689456E1,2.425175E1,5.162897E-1,2.4882372E1,1.0472113E2,3.4522587E1,-1.0139396E0,-3.1316094E0,-1.9266702E-2,4.3448663E0,1.0271746E1,-6.474786E0,-4.3665162E-1,-4.4086204E0,-1.0162766E0,8.884739E1,3.4389767E1,-5.7976913E-1,-4.3686285E0,9.385924E0,2.3461845E0,1.2732626E1,3.5904484E1,6.731882E0,3.9729076E1,3.0817418E0,-9.165464E-1,1.7462507E0,-8.7153614E-1,-2.9852679E0,5.2477665E0,1.3799801E0,-3.6670928E0,-6.7942667E-1,3.1430689E1,-1.0023103E0,1.3874603E1,1.6599623E0,1.9343624E0,-7.1435976E0,-3.1043167E0,1.4627486E0,-6.964493E-3,4.2288895E0,-8.5223925E-1,1.3059388E0,1.4291201E1,5.7390156E0],"categories":[],"categories_nodes":[],"categories_segments":[],"categories_sizes":[],"default_left":[0,0,0,0,0,0,0,0,0,0,0,0,0,0,0,0,0,0,0,0,0,0,0,0,0,0,0,0,0,0,0,0,0,0,0,0,0,0,0,0,0,0,0,0,0,0,0,0,0,0,0,0,0,0,0,0,0,0,0,0,0,0,0,0,0,0,0,0,0,0,0],"id":8,"left_children":[1,3,5,7,9,11,13,15,17,19,21,23,25,27,-1,29,-1,-1,-1,-1,31,33,35,37,39,41,43,45,47,49,51,-1,-1,53,55,-1,-1,-1,57,59,61,63,65,67,-1,-1,-1,69,-1,-1,-1,-1,-1,-1,-1,-1,-1,-1,-1,-1,-1,-1,-1,-1,-1,-1,-1,-1,-1,-1,-1],"loss_changes":[1.2814417E5,5.980669E3,4.050621E4,6.8082715E2,3.6930486E3,8.708633E3,7.07065E4,2.057062E3,2.2447876E1,1.9029507E3,2.13572E3,1.7173625E4,3.3298828E3,1.562516E4,0E0,5.1288135E2,0E0,0E0,0E0,0E0,1.4231909E2,2.232731E3,1.1148956E2,7.9777617E3,9.586148E3,7.342427E2,3.4619834E3,3.469246E3,1.4857559E3,1.9988605E3,9.518447E2,0E0,0E0,1.7215586E3,2.1434497E2,0E0,0E0,0E0,1.0624535E4,8.983693E3,2.11275E3,6.584619E2,2.662506E2,6.441629E1,0E0,0E0,0E0,1.0435234E3,0E0,0E0,0E0,0E0,0E0,0E0,0E0,0E0,0E0,0E0,0E0,0E0,0E0,0E0,0E0,0E0,0E0,0E0,0E0,0E0,0E0,0E0,0E0],"parents":[2147483647,0,0,1,1,2,2,3,3,4,4,5,5,6,6,7,7,8,8,9,9,10,10,11,11,12,12,13,13,15,15,20,20,21,21,22,22,23,23,24,24,25,25,26,26,27,27,28,28,29,29,30,30,33,33,34,34,38,38,39,39,40,40,41,41,42,42,43,43,47,47],"right_children":[2,4,6,8,10,12,14,16,18,20,22,24,26,28,-1,30,-1,-1,-1,-1,32,34,36,38,40,42,44,46,48,50,52,-1,-1,54,56,-1,-1,-1,58,60,62,64,66,68,-1,-1,-1,70,-1,-1,-1,-1,-1,-1,-1,-1,-1,-1,-1,-1,-1,-1,-1,-1,-1,-1,-1,-1,-1,-1,-1],"split_conditions":[1.576E2,5.14E1,7.349E2,1.199E2,7.1249995E0,4E-1,1.5075E1,1.191E2,7.2E0,9.6E1,1.5E2,2.185E2,1.3679999E1,8.091168E0,7.813483E1,1.2000002E0,8.8258095E0,-1.5724753E0,-4.3613434E0,1.7880653E1,1.334E2,2.275E0,5.66E1,6.287834E0,1.35E2,1.0925E1,1.3799999E1,8.528E2,1.0830952E1,3E-1,1.18E1,-1.9266702E-2,4.3448663E0,4.5048445E4,7.51E1,-4.3665162E-1,-4.4086204E0,-1.0162766E0,8.343E2,4.775E2,1.4439024E1,1.2884998E1,3.04E2,3.58E1,1.2732626E1,3.5904484E1,6.731882E0,7.2E0,3.0817418E0,-9.165464E-1,1.7462507E0,-8.7153614E-1,-2.9852679E0,5.2477665E0,1.3799801E0,-3.6670928E0,-6.7942667E-1,3.1430689E1,-1.0023103E0,1.3874603E1,1.6599623E0,1.9343624E0,-7.1435976E0,-3.1043167E0,1.4627486E0,-6.964493E-3,4.2288895E0,-8.5223925E-1,1.3059388E0,1.4291201E1,5.7390156E0],"split_indices":[0,0,0,1,6,4,3,1,0,0,8,0,6,6,0,12,0,0,0,0,0,4,0,3,8,3,12,0,9,0,0,0,0,7,0,0,0,0,2,1,9,6,1,1,0,0,0,12,0,0,0,0,0,0,0,0,0,0,0,0,0,0,0,0,0,0,0,0,0,0,0],"split_type":[0,0,0,0,0,0,0,0,0,0,0,0,0,0,0,0,0,0,0,0,0,0,0,0,0,0,0,0,0,0,0,0,0,0,0,0,0,0,0,0,0,0,0,0,0,0,0,0,0,0,0,0,0,0,0,0,0,0,0,0,0,0,0,0,0,0,0,0,0,0,0],"sum_hessian":[9.28E2,8.42E2,8.6E1,7.82E2,6E1,6.7E1,1.9E1,7.76E2,6E0,3E0,5.7E1,4.4E1,2.3E1,1.8E1,1E0,7.75E2,1E0,2E0,4E0,1E0,2E0,5.2E1,5E0,7E0,3.7E1,1.5E1,8E0,4E0,1.4E1,1.41E2,6.34E2,1E0,1E0,4.3E1,9E0,1E0,4E0,1E0,6E0,2.6E1,1.1E1,1E1,5E0,4E0,4E0,3E0,1E0,1.1E1,3E0,1.09E2,3.2E1,6.15E2,1.9E1,1.8E1,2.5E1,3E0,6E0,5E0,1E0,1.8E1,8E0,9E0,2E0,6E0,4E0,2E0,3E0,1E0,3E0,7E0,4E0],"tree_param":{"num_deleted":"0","num_feature":"14","num_nodes":"71","size_leaf_vector":"1"}},{"base_weights":[1.4623221E0,-1.5120578E-1,5.5371704E1,-1.7921419E0,1.3502265E1,3.7834732E1,1.2496745E2,-2.0331738E0,1.8206694E0,2.2713984E1,6.6394095E0,7.925702E1,2.1925371E1,1.36555E1,6.641459E1,-1.9279644E0,-6.499468E0,2.1356634E1,1.5474169E-1,1.6297861E1,6.56505E1,-2.408523E0,1.7519964E1,2.6243689E1,5.722101E0,3.1810799E1,-3.1472805E0,-2.0587876E0,1.2083876E1,5.1161685E0,-9.037421E0,8.990358E0,-6.7155623E-1,-1.5136914E0,1.48060055E1,1.2972717E1,2.040046E1,-7.2440416E-1,2.498114E1,-5.6849723E0,6.596288E0,7.9401493E0,3.808203E1,3.7359376E0,3.6372787E1,4.6467285E0,-6.317599E0,-5.8205074E-1,-3.4235313E0,5.9803905E0,-1.5086044E0,-3.958099E0,-1.3016481E0,8.9142656E-1,-2.4471803E0,1.0872418E0,6.315761E0,4.7295575E0,-6.8998704E0,-5.664997E-1,-9.489603E0,3.121218E0,-2.2933216E-1,3.907329E-1,5.7399035E0,-1.9296609E0,1.6197643E1,2.7458315E0,1.1514078E1,4.132004E-1,1.5359231E0],"categories":[],"categories_nodes":[],"categories_segments":[],"categories_sizes":[],"default_left":[0,0,0,0,0,0,0,0,0,0,0,0,0,0,0,0,0,0,0,0,0,0,0,0,0,0,0,0,0,0,0,0,0,0,0,0,0,0,0,0,0,0,0,0,0,0,0,0,0,0,0,0,0,0,0,0,0,0,0,0,0,0,0,0,0,0,0,0,0,0,0],"id":9,"left_children":[1,3,5,7,9,11,13,15,17,19,21,23,25,-1,-1,27,29,31,33,35,37,39,41,-1,-1,43,45,47,49,-1,51,-1,-1,53,55,57,-1,-1,-1,59,61,63,65,-1,67,69,-1,-1,-1,-1,-1,-1,-1,-1,-1,-1,-1,-1,-1,-1,-1,-1,-1,-1,-1,-1,-1,-1,-1,-1,-1],"loss_changes":[8.081678E4,2.0255438E4,2.8225367E4,7.0643994E2,5.9814062E3,1.3419309E4,2.8223297E4,3.4318042E2,1.6565161E3,1.0224963E4,5.65365E3,1.3003945E3,4.5614863E3,0E0,0E0,1.3831843E3,1.1703381E3,8.7981665E2,1.1957551E3,5.478954E3,6.1976016E3,9.8162146E2,4.819123E3,0E0,0E0,6.9506934E2,9.354627E2,7.932949E2,1.0406709E3,0E0,2.5521082E2,0E0,0E0,1.335315E3,2.7294202E2,3.978853E3,0E0,0E0,0E0,2.3045457E3,2.60205E2,1.386684E3,6.0130986E3,0E0,1.9514844E2,6.807556E-1,0E0,0E0,0E0,0E0,0E0,0E0,0E0,0E0,0E0,0E0,0E0,0E0,0E0,0E0,0E0,0E0,0E0,0E0,0E0,0E0,0E0,0E0,0E0,0E0,0E0],"parents":[2147483647,0,0,1,1,2,2,3,3,4,4,5,5,6,6,7,7,8,8,9,9,10,10,11,11,12,12,15,15,16,16,17,17,18,18,19,19,20,20,21,21,22,22,25,25,26,26,27,27,28,28,30,30,33,33,34,34,35,35,39,39,40,40,41,41,42,42,44,44,45,45],"right_children":[2,4,6,8,10,12,14,16,18,20,22,24,26,-1,-1,28,30,32,34,36,38,40,42,-1,-1,44,46,48,50,-1,52,-1,-1,54,56,58,-1,-1,-1,60,62,64,66,-1,68,70,-1,-1,-1,-1,-1,-1,-1,-1,-1,-1,-1,-1,-1,-1,-1,-1,-1,-1,-1,-1,-1,-1,-1,-1,-1],"split_conditions":[5.544E2,8.69E1,5.337484E4,2.18E1,6.2E0,8.091168E0,7.355E2,1.23E1,2.4E0,1.5323491E1,1.3799999E1,8.528E2,5.4926963E0,1.36555E1,6.641459E1,1E1,1E-1,1.1417E1,1.5621761E1,5.5999994E0,3.58E1,2.723E2,1.2052417E1,2.6243689E1,5.722101E0,8.240214E0,1.3419083E1,6.7E0,5.933333E0,5.1161685E0,1.5935119E1,8.990358E0,-6.7155623E-1,1.44E2,1.3905E1,4.972E2,2.040046E1,-7.2440416E-1,2.498114E1,2.308E2,2.748E2,1.3679999E1,7.33E1,3.7359376E0,2.185E2,5.821E2,-6.317599E0,-5.8205074E-1,-3.4235313E0,5.9803905E0,-1.5086044E0,-3.958099E0,-1.3016481E0,8.9142656E-1,-2.4471803E0,1.0872418E0,6.315761E0,4.7295575E0,-6.8998704E0,-5.664997E-1,-9.489603E0,3.121218E0,-2.2933216E-1,3.907329E-1,5.7399035E0,-1.9296609E0,1.6197643E1,2.7458315E0,1.1514078E1,4.132004E-1,1.5359231E0],"split_indices":[0,0,7,0,12,6,1,0,1,6,12,0,5,0,0,0,2,3,10,11,1,0,3,0,0,9,3,0,5,0,9,0,0,8,6,0,0,0,0,0,1,6,1,0,1,0,0,0,0,0,0,0,0,0,0,0,0,0,0,0,0,0,0,0,0,0,0,0,0,0,0],"split_type":[0,0,0,0,0,0,0,0,0,0,0,0,0,0,0,0,0,0,0,0,0,0,0,0,0,0,0,0,0,0,0,0,0,0,0,0,0,0,0,0,0,0,0,0,0,0,0,0,0,0,0,0,0,0,0,0,0,0,0,0,0,0,0,0,0,0,0,0,0,0,0],"sum_hessian":[9.28E2,9.02E2,2.6E1,8.06E2,9.6E1,2.2E1,4E0,7.56E2,5E1,4E1,5.6E1,5E0,1.7E1,3E0,1E0,7.4E2,1.6E1,3E0,4.7E1,3.6E1,4E0,3.1E1,2.5E1,4E0,1E0,1.2E1,5E0,7.34E2,6E0,1E0,1.5E1,2E0,1E0,4.3E1,4E0,3.5E1,1E0,1E0,3E0,2.3E1,8E0,1.8E1,7E0,3E0,9E0,4E0,1E0,7.26E2,8E0,4E0,2E0,7E0,8E0,2.6E1,1.7E1,2E0,2E0,3.3E1,2E0,2.1E1,2E0,5E0,3E0,1.2E1,6E0,2E0,5E0,1E0,8E0,1E0,3E0],"tree_param":{"num_deleted":"0","num_feature":"14","num_nodes":"71","size_leaf_vector":"1"}},{"base_weights":[1.2344686E0,-2.8091988E-2,4.3414383E1,-9.671422E-1,1.2949735E1,2.8466618E1,1.03491234E2,-1.4227954E0,3.008681E0,1.4693756E1,-7.6997805E0,6.0807537E1,1.6104832E1,1.5844244E2,4.212885E0,-7.9343766E-1,-1.9258909E0,8.091141E0,-2.6294577E0,2.2685902E0,2.1500595E1,2.192114E1,7.2563357E0,2.3651848E1,-2.9311752E0,1.4846696E1,5.6452408E1,-1.5714637E0,5.5783815E0,-1.6837817E0,-6.9470496E0,5.5565157E0,1.277058E1,-5.3611684E0,6.6481333E0,-6.1887426E0,6.6279287E0,4.492966E1,1.0291359E1,8.556091E0,2.7324966E1,3.6425354E0,-5.3699594E0,-4.1952282E-1,-4.234324E0,4.0075107E0,-5.1075786E-1,-5.1471823E-1,5.771237E-1,-2.4093232E0,4.5343766E-1,6.732729E0,1.7196344E-1,-3.700597E-1,-2.3947368E0,5.299673E0,-1.7918465E-1,-3.310611E0,-3.221077E-1,-4.7431642E-1,3.682877E0,4.7809756E-1,1.7759377E1,1.0418761E1,1.7368736E0,2.9749389E0,6.7124635E-1,2.3339586E0,8.589665E0,4.4550323E-1,1.3757646E0],"categories":[],"categories_nodes":[],"categories_segments":[],"categories_sizes":[],"default_left":[0,0,0,0,0,0,0,0,0,0,0,0,0,0,0,0,0,0,0,0,0,0,0,0,0,0,0,0,0,0,0,0,0,0,0,0,0,0,0,0,0,0,0,0,0,0,0,0,0,0,0,0,0,0,0,0,0,0,0,0,0,0,0,0,0,0,0,0,0,0,0],"id":10,"left_children":[1,3,5,7,9,11,13,15,17,19,-1,21,23,25,-1,27,29,31,33,35,37,-1,-1,39,41,-1,-1,43,45,47,49,51,-1,53,55,57,59,61,63,65,67,69,-1,-1,-1,-1,-1,-1,-1,-1,-1,-1,-1,-1,-1,-1,-1,-1,-1,-1,-1,-1,-1,-1,-1,-1,-1,-1,-1,-1,-1],"loss_changes":[4.9474836E4,1.1017232E4,2.1300348E4,1.5314568E3,4.4852695E3,8.215906E3,2.2351453E4,2.3815857E2,2.514314E3,4.941215E3,0E0,9.2698047E2,2.6552988E3,4.0571875E2,0E0,1.6843813E3,4.9888342E2,3.783289E3,1.1000769E3,8.5212286E2,9.517244E3,0E0,0E0,4.8703564E2,6.555999E2,0E0,0E0,6.3578705E2,2.1186216E3,4.962915E1,1.8635468E2,3.6896318E3,0E0,3.4720416E2,8.0881085E2,1.8647736E2,7.14915E2,7.3256133E3,2.7693052E3,1.2194641E1,3.2749023E1,3.3663788E0,0E0,0E0,0E0,0E0,0E0,0E0,0E0,0E0,0E0,0E0,0E0,0E0,0E0,0E0,0E0,0E0,0E0,0E0,0E0,0E0,0E0,0E0,0E0,0E0,0E0,0E0,0E0,0E0,0E0],"parents":[2147483647,0,0,1,1,2,2,3,3,4,4,5,5,6,6,7,7,8,8,9,9,11,11,12,12,13,13,15,15,16,16,17,17,18,18,19,19,20,20,23,23,24,24,27,27,28,28,29,29,30,30,31,31,33,33,34,34,35,35,36,36,37,37,38,38,39,39,40,40,41,41],"right_children":[2,4,6,8,10,12,14,16,18,20,-1,22,24,26,-1,28,30,32,34,36,38,-1,-1,40,42,-1,-1,44,46,48,50,52,-1,54,56,58,60,62,64,66,68,70,-1,-1,-1,-1,-1,-1,-1,-1,-1,-1,-1,-1,-1,-1,-1,-1,-1,-1,-1,-1,-1,-1,-1,-1,-1,-1,-1,-1,-1],"split_conditions":[5.544E2,1.576E2,5.337484E4,2.18E1,5.292E2,8.091168E0,7.948E2,1.57E2,1.0733482E1,7.6812496E0,-7.6997805E0,2.915E2,5.4926963E0,5.646E2,4.212885E0,1.12E2,4.6E0,1.0994642E1,1.4234998E1,3.3916409E3,2.2590432E0,2.192114E1,7.2563357E0,1.24E2,1.3419083E1,1.4846696E1,5.6452408E1,6.7E0,7.19375E0,1.32E1,1.43E1,2E0,1.277058E1,1.44E2,4.03E1,1.2194998E1,1E-1,1.1215699E1,7.33E1,9.527E2,2.185E2,8.026E2,-5.3699594E0,-4.1952282E-1,-4.234324E0,4.0075107E0,-5.1075786E-1,-5.1471823E-1,5.771237E-1,-2.4093232E0,4.5343766E-1,6.732729E0,1.7196344E-1,-3.700597E-1,-2.3947368E0,5.299673E0,-1.7918465E-1,-3.310611E0,-3.221077E-1,-4.7431642E-1,3.682877E0,4.7809756E-1,1.7759377E1,1.0418761E1,1.7368736E0,2.9749389E0,6.7124635E-1,2.3339586E0,8.589665E0,4.4550323E-1,1.3757646E0],"split_indices":[0,0,7,0,0,6,0,8,10,3,0,2,5,0,0,8,0,9,6,7,5,0,0,8,3,0,0,0,13,1,11,12,0,8,0,6,4,6,2,0,1,0,0,0,0,0,0,0,0,0,0,0,0,0,0,0,0,0,0,0,0,0,0,0,0,0,0,0,0,0,0],"split_type":[0,0,0,0,0,0,0,0,0,0,0,0,0,0,0,0,0,0,0,0,0,0,0,0,0,0,0,0,0,0,0,0,0,0,0,0,0,0,0,0,0,0,0,0,0,0,0,0,0,0,0,0,0,0,0,0,0,0,0,0,0,0,0,0,0,0,0,0,0,0,0],"sum_hessian":[9.28E2,9.02E2,2.6E1,8.42E2,6E1,2.2E1,4E0,7.56E2,8.6E1,5.8E1,2E0,5E0,1.7E1,2E0,2E0,3.37E2,4.19E2,4.5E1,4.1E1,2.1E1,3.7E1,3E0,2E0,1.2E1,5E0,1E0,1E0,3.01E2,3.6E1,4.01E2,1.8E1,4.3E1,2E0,3.2E1,9E0,7E0,1.4E1,1.1E1,2.6E1,3E0,9E0,4E0,1E0,2.98E2,3E0,1.7E1,1.9E1,3.98E2,3E0,1.6E1,2E0,9E0,3.4E1,1.3E1,1.9E1,3E0,6E0,3E0,4E0,6E0,8E0,3E0,8E0,3E0,2.3E1,2E0,1E0,1E0,8E0,2E0,2E0],"tree_param":{"num_deleted":"0","num_feature":"14","num_nodes":"71","size_leaf_vector":"1"}},{"base_weights":[1.0330838E0,-2.1604227E-1,2.880031E1,-8.633938E-1,6.0057282E0,1.9369257E1,7.049395E1,-9.0247506E-1,4.5954175E0,8.93732E0,-4.493785E0,3.5693542E1,1.2064773E1,2.8926783E1,4.7984547E1,-8.159743E-1,-3.6899748E0,6.670172E0,3.526248E1,-7.516409E0,1.4132347E1,8.4577E0,5.244116E1,2.2626064E1,-3.4337852E0,1.5537236E1,-1.1200816E1,-1.0903394E0,1.6703705E0,1.2807244E1,-1.2393874E0,1.658463E1,1.0466118E0,-4.3085637E0,-5.0594296E0,-1.7876817E-2,6.3774333E0,-2.0667802E-1,3.2749765E0,2.1428408E1,2.8934846E0,1.687552E0,2.480888E1,-6.1842604E0,5.5856457E0,-4.759026E-1,-4.5644646E0,-3.179322E-1,-2.418781E0,3.0904934E0,-3.0049163E-1,1.5586984E0,9.394991E0,5.4376274E-1,-4.692232E0,1.09465934E-1,-2.3577788E0,2.8558502E0,8.533124E0,-7.8292847E-1,2.6257224E0],"categories":[],"categories_nodes":[],"categories_segments":[],"categories_sizes":[],"default_left":[0,0,0,0,0,0,0,0,0,0,0,0,0,0,0,0,0,0,0,0,0,0,0,0,0,0,0,0,0,0,0,0,0,0,0,0,0,0,0,0,0,0,0,0,0,0,0,0,0,0,0,0,0,0,0,0,0,0,0,0,0],"id":11,"left_children":[1,3,5,7,9,11,13,15,-1,17,19,21,23,25,-1,27,-1,29,31,33,35,37,39,41,43,-1,45,47,49,51,53,-1,-1,55,-1,-1,-1,-1,-1,-1,-1,-1,57,-1,59,-1,-1,-1,-1,-1,-1,-1,-1,-1,-1,-1,-1,-1,-1,-1,-1],"loss_changes":[3.222837E4,3.589814E3,1.4363184E4,5.2416437E2,2.625706E3,3.623543E3,2.1401805E4,7.8458875E2,0E0,3.703872E3,1.1759207E3,4.1178223E3,4.1698125E3,6.084965E3,0E0,5.482365E2,0E0,3.0254485E3,2.9876313E3,4.3713446E2,3.0465186E2,1.1997342E2,4.1864766E3,4.1709326E2,1.8196768E3,0E0,9.164337E1,1.4532123E2,1.8553461E3,4.768291E3,1.2590061E3,0E0,0E0,2.351839E2,0E0,0E0,0E0,0E0,0E0,0E0,0E0,0E0,4.5170215E2,0E0,2.3046498E2,0E0,0E0,0E0,0E0,0E0,0E0,0E0,0E0,0E0,0E0,0E0,0E0,0E0,0E0,0E0,0E0],"parents":[2147483647,0,0,1,1,2,2,3,3,4,4,5,5,6,6,7,7,9,9,10,10,11,11,12,12,13,13,15,15,17,17,18,18,19,19,20,20,21,21,22,22,23,23,24,24,26,26,27,27,28,28,29,29,30,30,33,33,42,42,44,44],"right_children":[2,4,6,8,10,12,14,16,-1,18,20,22,24,26,-1,28,-1,30,32,34,36,38,40,42,44,-1,46,48,50,52,54,-1,-1,56,-1,-1,-1,-1,-1,-1,-1,-1,58,-1,60,-1,-1,-1,-1,-1,-1,-1,-1,-1,-1,-1,-1,-1,-1,-1,-1],"split_conditions":[4.206E2,8.69E1,1.5481251E1,4.206E2,1.1015625E1,1.938E2,7.349E2,1.66E2,4.5954175E0,1.2028309E1,4.879E2,1E-1,8.310155E0,1.35E2,4.7984547E1,5.3E0,-3.6899748E0,1.402E2,2E-1,2.038E2,1.627E2,4.972E2,3.449E2,2.166E2,9.584857E0,1.5537236E1,5.29E2,4.6E0,6E0,8.414583E0,4.048282E0,1.658463E1,1.0466118E0,1.45E2,-5.0594296E0,-1.7876817E-2,6.3774333E0,-2.0667802E-1,3.2749765E0,2.1428408E1,2.8934846E0,1.687552E0,-2.432668E0,-6.1842604E0,3.2000003E0,-4.759026E-1,-4.5644646E0,-3.179322E-1,-2.418781E0,3.0904934E0,-3.0049163E-1,1.5586984E0,9.394991E0,5.4376274E-1,-4.692232E0,1.09465934E-1,-2.3577788E0,2.8558502E0,8.533124E0,-7.8292847E-1,2.6257224E0],"split_indices":[0,0,3,2,10,2,0,1,0,9,1,11,10,8,0,0,0,2,4,0,0,0,1,2,9,0,0,0,1,3,13,0,0,8,0,0,0,0,0,0,0,0,5,0,11,0,0,0,0,0,0,0,0,0,0,0,0,0,0,0,0],"split_type":[0,0,0,0,0,0,0,0,0,0,0,0,0,0,0,0,0,0,0,0,0,0,0,0,0,0,0,0,0,0,0,0,0,0,0,0,0,0,0,0,0,0,0,0,0,0,0,0,0,0,0,0,0,0,0,0,0,0,0,0,0],"sum_hessian":[9.28E2,8.89E2,3.9E1,8.06E2,8.3E1,3.3E1,6E0,8.05E2,1E0,6.5E1,1.8E1,9E0,2.4E1,5E0,1E0,8E2,5E0,6.1E1,4E0,1.6E1,2E0,4E0,5E0,1.4E1,1E1,3E0,2E0,7.21E2,7.9E1,3.4E1,2.7E1,2E0,2E0,1.3E1,3E0,1E0,1E0,1E0,3E0,3E0,2E0,2E0,1.2E1,3E0,7E0,1E0,1E0,7.19E2,2E0,1.8E1,6.1E1,2.5E1,9E0,2.3E1,4E0,6E0,7E0,3E0,9E0,2E0,5E0],"tree_param":{"num_deleted":"0","num_feature":"14","num_nodes":"61","size_leaf_vector":"1"}},{"base_weights":[8.513111E-1,-1.23761155E-1,2.2525385E1,-2.1503864E-1,2.6935629E1,1.4620987E1,5.7700264E1,-7.404434E-1,2.7997072E0,1.1535919E1,5.851135E-1,2.7724497E1,8.794744E0,2.199823E1,4.0786873E1,-6.1881596E-1,-3.7723737E0,-8.463446E0,3.9965513E0,6.5340576E0,4.0762447E1,1.6710014E1,-2.7983286E0,1.204136E1,-9.520691E0,-7.0207536E-1,8.069093E0,1.7378281E0,-4.695449E0,-1.035287E1,-3.3697937E0,7.597743E0,-8.588098E-1,-1.7567597E-1,2.5381098E0,1.6607012E1,2.3147857E0,5.8228226E0,1.8946577E1,-1.2224698E1,7.094429E0,-4.045166E-1,-3.8797944E0,-1.8410474E-1,-1.3708742E0,6.940541E0,5.10669E-1,-3.352595E0,-1.0259482E0,-3.502476E0,3.35289E-2,-1.9100076E-1,-1.1681724E0,1.5258642E0,1.1618422E1,1.3593408E-1,-3.9844542E0,2.117511E0,3.1742707E-1,2.2132874E0,6.594948E0,-1.4096088E0,-5.455341E0,3.4360902E0,6.154255E-1],"categories":[],"categories_nodes":[],"categories_segments":[],"categories_sizes":[],"default_left":[0,0,0,0,0,0,0,0,0,0,0,0,0,0,0,0,0,0,0,0,0,0,0,0,0,0,0,0,0,0,0,0,0,0,0,0,0,0,0,0,0,0,0,0,0,0,0,0,0,0,0,0,0,0,0,0,0,0,0,0,0,0,0,0,0],"id":12,"left_children":[1,3,5,7,9,11,13,15,17,-1,-1,19,21,23,-1,25,27,29,31,33,35,37,39,-1,41,43,45,-1,47,49,51,53,55,-1,-1,-1,-1,57,59,61,63,-1,-1,-1,-1,-1,-1,-1,-1,-1,-1,-1,-1,-1,-1,-1,-1,-1,-1,-1,-1,-1,-1,-1,-1],"loss_changes":[1.9636076E4,2.2040146E3,1.0277816E4,1.4086312E3,7.8830005E2,2.351875E3,1.6566482E4,2.7682144E2,1.8132161E3,0E0,0E0,2.496454E3,2.3408179E3,3.81259E3,0E0,5.329873E2,2.8325037E2,9.022589E1,2.104735E3,7.352739E1,2.4666045E3,2.5492578E2,1.1125079E3,0E0,6.621237E1,2.4436041E2,6.3208264E2,0E0,1.8496057E2,1.2581769E2,4.6832085E0,5.1977656E3,8.534951E2,0E0,0E0,0E0,0E0,1.6079819E1,2.5937695E2,1.8367621E2,1.0840491E2,0E0,0E0,0E0,0E0,0E0,0E0,0E0,0E0,0E0,0E0,0E0,0E0,0E0,0E0,0E0,0E0,0E0,0E0,0E0,0E0,0E0,0E0,0E0,0E0],"parents":[2147483647,0,0,1,1,2,2,3,3,4,4,5,5,6,6,7,7,8,8,11,11,12,12,13,13,15,15,16,16,17,17,18,18,19,19,20,20,21,21,22,22,24,24,25,25,26,26,28,28,29,29,30,30,31,31,32,32,37,37,38,38,39,39,40,40],"right_children":[2,4,6,8,10,12,14,16,18,-1,-1,20,22,24,-1,26,28,30,32,34,36,38,40,-1,42,44,46,-1,48,50,52,54,56,-1,-1,-1,-1,58,60,62,64,-1,-1,-1,-1,-1,-1,-1,-1,-1,-1,-1,-1,-1,-1,-1,-1,-1,-1,-1,-1,-1,-1,-1,-1],"split_conditions":[4.206E2,1.097E3,1.5481251E1,2.18E1,2.185E2,1.938E2,7.349E2,1.83E1,3.8169997E0,1.1535919E1,5.851135E-1,1E-1,8.310155E0,1.35E2,4.0786873E1,1.45E1,3.7689347E0,1.18E2,1.0571613E1,4.972E2,3.449E2,2.911E2,4.176E2,1.204136E1,5.29E2,6.7E0,3.7211666E0,1.7378281E0,3.1058075E2,2.9E2,1.02E1,1.38E2,2.303E2,-1.7567597E-1,2.5381098E0,1.6607012E1,2.3147857E0,7.519E2,-2.432668E0,4.024E2,4.293E2,-4.045166E-1,-3.8797944E0,-1.8410474E-1,-1.3708742E0,6.940541E0,5.10669E-1,-3.352595E0,-1.0259482E0,-3.502476E0,3.35289E-2,-1.9100076E-1,-1.1681724E0,1.5258642E0,1.1618422E1,1.3593408E-1,-3.9844542E0,2.117511E0,3.1742707E-1,2.2132874E0,6.594948E0,-1.4096088E0,-5.455341E0,3.4360902E0,6.154255E-1],"split_indices":[0,1,3,0,0,2,0,2,3,0,0,11,10,8,0,2,10,8,10,0,1,2,2,0,0,0,3,0,7,0,1,8,0,0,0,0,0,1,5,1,1,0,0,0,0,0,0,0,0,0,0,0,0,0,0,0,0,0,0,0,0,0,0,0,0],"split_type":[0,0,0,0,0,0,0,0,0,0,0,0,0,0,0,0,0,0,0,0,0,0,0,0,0,0,0,0,0,0,0,0,0,0,0,0,0,0,0,0,0,0,0,0,0,0,0,0,0,0,0,0,0,0,0,0,0,0,0,0,0,0,0,0,0],"sum_hessian":[9.28E2,8.89E2,3.9E1,8.87E2,2E0,3.3E1,6E0,7.56E2,1.31E2,1E0,1E0,9E0,2.4E1,5E0,1E0,7.28E2,2.8E1,1.2E1,1.19E2,4E0,5E0,1.4E1,1E1,3E0,2E0,7.22E2,6E0,2E0,2.6E1,8E0,4E0,6.8E1,5.1E1,1E0,3E0,3E0,2E0,3E0,1.1E1,5E0,5E0,1E0,1E0,7.07E2,1.5E1,1E0,5E0,3E0,2.3E1,7E0,1E0,1E0,3E0,6.4E1,4E0,4.7E1,4E0,2E0,1E0,3E0,8E0,3E0,2E0,2E0,3E0],"tree_param":{"num_deleted":"0","num_feature":"14","num_nodes":"65","size_leaf_vector":"1"}},{"base_weights":[7.015169E-1,7.467915E-2,2.1639774E1,-3.4241325E-1,5.837535E0,1.1848291E1,6.2352642E1,-2.891137E-1,-7.729512E0,1.4536526E1,1.2395755E0,1.2571473E1,8.577313E0,2.01594E1,3.4668842E1,-4.338496E-1,3.492684E0,1.9522935E0,-1.1878472E1,2.635844E1,-1.1034235E0,-1.4421962E1,4.336467E0,1.2280203E1,-1.1117641E0,8.482902E0,2.408493E0,-3.733775E-1,-1.0070995E1,8.823925E0,-4.5677986E0,-1.3974494E0,-4.541787E0,7.698471E-1,3.9056503E1,-6.9641795E0,2.4032118E0,-6.7546844E0,-6.718032E0,5.8830633E0,-1.4121587E1,7.0052147E0,1.5604614E1,2.3671925E0,-3.2978258E0,-2.4183123E-1,1.7166868E-1,-8.100396E-1,-3.3716035E0,3.577431E-1,6.520817E0,-2.0706775E0,1.6433656E-1,3.3155825E0,-1.3690985E0,1.3548678E1,-5.525665E-1,-2.7619483E0,-3.5585403E-2,2.6218338E0,-5.6375134E-1,5.987549E-3,-2.5360005E0,8.359669E-3,3.8722332E0,-1.1911492E0,-5.163565E0,2.324698E0,2.698151E-1,2.4200099E0,6.006482E0,1.0900726E0,2.476822E-1],"categories":[],"categories_nodes":[],"categories_segments":[],"categories_sizes":[],"default_left":[0,0,0,0,0,0,0,0,0,0,0,0,0,0,0,0,0,0,0,0,0,0,0,0,0,0,0,0,0,0,0,0,0,0,0,0,0,0,0,0,0,0,0,0,0,0,0,0,0,0,0,0,0,0,0,0,0,0,0,0,0,0,0,0,0,0,0,0,0,0,0,0,0],"id":13,"left_children":[1,3,5,7,9,11,13,15,17,19,21,-1,23,25,-1,27,29,-1,31,33,35,37,39,41,43,-1,-1,45,47,49,51,-1,-1,53,55,57,59,61,-1,63,65,67,69,71,-1,-1,-1,-1,-1,-1,-1,-1,-1,-1,-1,-1,-1,-1,-1,-1,-1,-1,-1,-1,-1,-1,-1,-1,-1,-1,-1,-1,-1],"loss_changes":[1.2191408E4,2.172489E3,1.0024492E4,3.2967877E2,2.4218352E3,1.901803E3,8.895867E3,4.6020456E2,4.3171722E2,3.9118613E3,2.0511255E3,0E0,8.0295935E2,1.6685791E2,0E0,4.6712482E2,1.3724496E3,0E0,4.719922E1,3.86904E3,2.2225175E2,2.7657593E2,1.0822291E3,1.7126611E2,2.6665067E2,0E0,0E0,3.2944922E2,1.2688232E1,1.8463073E3,1.5902872E2,0E0,0E0,3.246355E2,2.0809082E3,6.0307556E1,2.0636217E2,5.770746E1,0E0,1.3569015E3,2.5769958E1,2.9361725E1,1.38146E2,8.713516E0,0E0,0E0,0E0,0E0,0E0,0E0,0E0,0E0,0E0,0E0,0E0,0E0,0E0,0E0,0E0,0E0,0E0,0E0,0E0,0E0,0E0,0E0,0E0,0E0,0E0,0E0,0E0,0E0,0E0],"parents":[2147483647,0,0,1,1,2,2,3,3,4,4,5,5,6,6,7,7,8,8,9,9,10,10,12,12,13,13,15,15,16,16,18,18,19,19,20,20,21,21,22,22,23,23,24,24,27,27,28,28,29,29,30,30,33,33,34,34,35,35,36,36,37,37,39,39,40,40,41,41,42,42,43,43],"right_children":[2,4,6,8,10,12,14,16,18,20,22,-1,24,26,-1,28,30,-1,32,34,36,38,40,42,44,-1,-1,46,48,50,52,-1,-1,54,56,58,60,62,-1,64,66,68,70,72,-1,-1,-1,-1,-1,-1,-1,-1,-1,-1,-1,-1,-1,-1,-1,-1,-1,-1,-1,-1,-1,-1,-1,-1,-1,-1,-1,-1,-1],"split_conditions":[5.544E2,1.576E2,5.337484E4,1.386E2,2.315E2,3.2E1,7.355E2,1.32E2,2.27E1,4E-1,2.723E2,1.2571473E1,8.310155E0,5.646E2,3.4668842E1,1.191E2,1.0536643E1,1.9522935E0,1.386E2,7.6812496E0,1.66E2,2.526E2,5.292E2,5.04E4,1.3419083E1,8.482902E0,2.408493E0,4.1910156E4,6E-1,7.2497025E0,9.675E0,-1.3974494E0,-4.541787E0,1.938E2,8.343E2,2.606E2,1.4000002E0,4.608667E0,-6.718032E0,3.925E2,5.51E2,4.9683348E4,4.6242104E0,9.816666E0,-3.2978258E0,-2.4183123E-1,1.7166868E-1,-8.100396E-1,-3.3716035E0,3.577431E-1,6.520817E0,-2.0706775E0,1.6433656E-1,3.3155825E0,-1.3690985E0,1.3548678E1,-5.525665E-1,-2.7619483E0,-3.5585403E-2,2.6218338E0,-5.6375134E-1,5.987549E-3,-2.5360005E0,8.359669E-3,3.8722332E0,-1.1911492E0,-5.163565E0,2.324698E0,2.698151E-1,2.4200099E0,6.006482E0,1.0900726E0,2.476822E-1],"split_indices":[0,0,7,0,0,2,1,2,2,4,0,0,10,0,0,2,10,0,2,3,0,0,0,7,3,0,0,7,0,9,6,0,0,0,2,1,4,3,0,0,0,7,5,3,0,0,0,0,0,0,0,0,0,0,0,0,0,0,0,0,0,0,0,0,0,0,0,0,0,0,0,0,0],"split_type":[0,0,0,0,0,0,0,0,0,0,0,0,0,0,0,0,0,0,0,0,0,0,0,0,0,0,0,0,0,0,0,0,0,0,0,0,0,0,0,0,0,0,0,0,0,0,0,0,0,0,0,0,0,0,0,0,0,0,0,0,0,0,0,0,0,0,0,0,0,0,0,0,0],"sum_hessian":[9.28E2,9.02E2,2.6E1,8.42E2,6E1,2.2E1,4E0,8.37E2,5E0,2E1,4E1,1E0,2.1E1,3E0,1E0,8.07E2,3E1,1E0,4E0,1.1E1,9E0,6E0,3.4E1,1.5E1,6E0,1E0,2E0,8.03E2,4E0,1.8E1,1.2E1,2E0,2E0,4E0,7E0,3E0,6E0,4E0,2E0,3.2E1,2E0,7E0,8E0,5E0,1E0,5.51E2,2.52E2,1E0,3E0,1.2E1,6E0,8E0,4E0,1E0,3E0,6E0,1E0,2E0,1E0,2E0,4E0,1E0,3E0,1.8E1,1.4E1,1E0,1E0,6E0,1E0,4E0,4E0,2E0,3E0],"tree_param":{"num_deleted":"0","num_feature":"14","num_nodes":"73","size_leaf_vector":"1"}},{"base_weights":[5.625442E-1,1.2177754E-1,2.05893E1,-2.435641E-1,4.6491485E0,1.1333117E1,2.946852E1,3.697052E-1,-7.955104E-1,9.492161E0,3.7740452E0,9.607655E0,7.014863E0,-6.388437E-1,2.9688206E0,-5.363292E-1,-3.905156E0,2.0167754E0,1.2536803E1,3.57735E0,4.5869365E0,-9.838501E-1,5.7288637E0,7.168083E0,8.853794E-1,-6.282798E-1,5.5745115E0,-2.8532913E0,-3.3242452E0,3.282018E0,-6.55548E0,-5.742531E-1,2.8384922E1,5.2275405E0,2.127228E-1,-1.2529705E-1,-2.2428267E0,-4.245929E-1,3.194671E0,9.5518357E-1,4.888706E0,1.5782831E0,-3.7058514E-1,-1.3755131E-1,-4.2567396E-1,-3.7151185E-1,-1.7030784E0,5.242755E-1,4.6565876E0,-9.71527E-1,2.311615E0,-4.6968156E-1,1.0879187E1,7.8290504E-1,1.9051942E0],"categories":[],"categories_nodes":[],"categories_segments":[],"categories_sizes":[],"default_left":[0,0,0,0,0,0,0,0,0,0,0,0,0,0,0,0,0,0,0,0,0,0,0,0,0,0,0,0,0,0,0,0,0,0,0,0,0,0,0,0,0,0,0,0,0,0,0,0,0,0,0,0,0,0,0],"id":14,"left_children":[1,3,5,7,9,11,-1,13,15,-1,17,-1,19,21,23,25,27,29,31,-1,33,35,37,39,41,43,-1,45,-1,47,-1,49,51,53,-1,-1,-1,-1,-1,-1,-1,-1,-1,-1,-1,-1,-1,-1,-1,-1,-1,-1,-1,-1,-1],"loss_changes":[8.197893E3,1.5063062E3,1.3259602E4,2.8564264E2,1.486764E3,1.4730906E3,0E0,1.0504307E3,3.5575253E2,0E0,1.0064177E3,0E0,1.4794714E2,6.405405E2,9.7353217E2,7.3417737E2,2.2500916E2,1.7930765E3,2.3019414E3,0E0,2.8587524E1,1.0077395E3,5.4231555E2,1.2936438E3,7.117101E2,5.438376E1,0E0,1.3432805E2,0E0,1.00584924E3,0E0,1.793618E2,1.2366809E3,1.576828E1,0E0,0E0,0E0,0E0,0E0,0E0,0E0,0E0,0E0,0E0,0E0,0E0,0E0,0E0,0E0,0E0,0E0,0E0,0E0,0E0,0E0],"parents":[2147483647,0,0,1,1,2,2,3,3,4,4,5,5,7,7,8,8,10,10,12,12,13,13,14,14,15,15,16,16,17,17,18,18,20,20,21,21,22,22,23,23,24,24,25,25,27,27,29,29,31,31,32,32,33,33],"right_children":[2,4,6,8,10,12,-1,14,16,-1,18,-1,20,22,24,26,28,30,32,-1,34,36,38,40,42,44,-1,46,-1,48,-1,50,52,54,-1,-1,-1,-1,-1,-1,-1,-1,-1,-1,-1,-1,-1,-1,-1,-1,-1,-1,-1,-1,-1],"split_conditions":[7.349E2,1.576E2,1.5075E1,1.52E2,1.582E2,7.519E2,2.946852E1,3.8439637E4,5.5E0,9.492161E0,1.5254997E1,9.607655E0,8.418002E0,9.579167E0,1.2000002E0,5.3E0,3.47E1,1.473E1,2.752E2,3.57735E0,6.21163E0,3.8E0,8.299999E0,3E-1,4.2888586E4,5.4428734E4,5.5745115E0,1.63E2,-3.3242452E0,8.157079E0,-6.55548E0,5.7624707E0,2.014E2,1.27E2,2.127228E-1,-1.2529705E-1,-2.2428267E0,-4.245929E-1,3.194671E0,9.5518357E-1,4.888706E0,1.5782831E0,-3.7058514E-1,-1.3755131E-1,-4.2567396E-1,-3.7151185E-1,-1.7030784E0,5.242755E-1,4.6565876E0,-9.71527E-1,2.311615E0,-4.6968156E-1,1.0879187E1,7.8290504E-1,1.9051942E0],"split_indices":[0,0,3,8,0,0,0,7,0,0,6,0,6,3,12,0,12,6,1,0,5,0,12,12,7,7,0,8,0,5,0,5,0,8,0,0,0,0,0,0,0,0,0,0,0,0,0,0,0,0,0,0,0,0,0],"split_type":[0,0,0,0,0,0,0,0,0,0,0,0,0,0,0,0,0,0,0,0,0,0,0,0,0,0,0,0,0,0,0,0,0,0,0,0,0,0,0,0,0,0,0,0,0,0,0,0,0,0,0,0,0,0,0],"sum_hessian":[9.28E2,9.09E2,1.9E1,8.42E2,6.7E1,1.8E1,1E0,3.99E2,4.43E2,1E0,6.6E1,2E0,1.6E1,2.88E2,1.11E2,4.1E2,3.3E1,5.6E1,1E1,4E0,1.2E1,2.74E2,1.4E1,3.6E1,7.5E1,4.09E2,1E0,3E1,3E0,5.4E1,2E0,6E0,4E0,1E1,2E0,2.53E2,2.1E1,6E0,8E0,2.6E1,1E1,2.4E1,5.1E1,3.38E2,7.1E1,2E1,1E1,4.9E1,5E0,5E0,1E0,1E0,3E0,4E0,6E0],"tree_param":{"num_deleted":"0","num_feature":"14","num_nodes":"55","size_leaf_vector":"1"}},{"base_weights":[4.7180822E-1,5.3055644E-2,1.4459282E1,-2.797533E-1,2.2912402E0,7.047021E0,4.5663826E1,-1.2020551E-1,-2.5798903E0,4.354752E0,-1.7898891E0,9.244593E0,4.5659485E0,2.1453377E1,1.378537E0,-3.6645287E-1,4.982099E0,-9.2507105E0,-1.1236746E0,4.8024166E-1,1.0537961E1,-3.4303145E0,5.2006025E0,5.69823E0,-2.881794E0,-3.1356123E-1,-1.6810489E0,1.6009235E1,9.733946E-1,-2.7125914E0,-5.0235634E0,-5.220217E0,1.0339742E0,-1.0469346E0,1.7922709E1,1.6046215E1,-2.0831673E0,-8.617834E0,-2.417628E0,-2.2940507E0,3.9806306E0,7.0012913E0,1.2736944E0,-1.0686608E-1,2.8210368E0,-7.1419054E-1,1.4127556E0,6.584926E-1,7.9864945E0,-2.3033056E-1,4.373471E0,-4.532097E-2,-1.1866754E0,-2.8958076E-1,-2.003916E0,-1.2217352E0,1.0606464E0,-1.0784031E0,1.5099716E0,7.135048E-1,6.6934137E0,-2.003262E0,5.254884E0,6.0680896E-1,-3.7013247E0,-3.0065572E0,-4.5026094E-1,-1.4276832E0,3.8874456E-1,1.9937257E0,-1.8571318E0,2.5045946E0,7.1021307E-1,5.555729E-1,2.345276E-2],"categories":[],"categories_nodes":[],"categories_segments":[],"categories_sizes":[],"default_left":[0,0,0,0,0,0,0,0,0,0,0,0,0,0,0,0,0,0,0,0,0,0,0,0,0,0,0,0,0,0,0,0,0,0,0,0,0,0,0,0,0,0,0,0,0,0,0,0,0,0,0,0,0,0,0,0,0,0,0,0,0,0,0,0,0,0,0,0,0,0,0,0,0,0,0],"id":15,"left_children":[1,3,5,7,9,11,13,15,17,19,21,-1,23,-1,-1,25,27,29,31,33,35,37,39,41,-1,43,45,47,49,51,-1,53,55,57,59,61,63,65,67,69,-1,71,73,-1,-1,-1,-1,-1,-1,-1,-1,-1,-1,-1,-1,-1,-1,-1,-1,-1,-1,-1,-1,-1,-1,-1,-1,-1,-1,-1,-1,-1,-1,-1,-1],"loss_changes":[5.440656E3,6.7327466E2,5.923203E3,2.8850455E2,9.931053E2,1.2156283E3,4.978999E3,9.27814E2,4.8502698E2,1.8635779E3,4.7653494E2,0E0,4.077625E2,0E0,0E0,4.842283E1,1.4873708E3,3.9557654E2,3.8547028E2,1.3240122E3,2.119038E3,1.5252515E2,5.141841E2,1.1215668E2,0E0,2.8439313E2,1.3191489E2,1.2609897E3,6.2708704E2,1.8506157E1,0E0,8.670383E1,3.8483807E2,7.306657E2,2.1981213E2,8.18479E2,4.4599463E2,3.492044E1,2.5830267E2,2.1530486E2,0E0,8.01322E1,4.0028276E0,0E0,0E0,0E0,0E0,0E0,0E0,0E0,0E0,0E0,0E0,0E0,0E0,0E0,0E0,0E0,0E0,0E0,0E0,0E0,0E0,0E0,0E0,0E0,0E0,0E0,0E0,0E0,0E0,0E0,0E0,0E0,0E0],"parents":[2147483647,0,0,1,1,2,2,3,3,4,4,5,5,6,6,7,7,8,8,9,9,10,10,12,12,15,15,16,16,17,17,18,18,19,19,20,20,21,21,22,22,23,23,25,25,26,26,27,27,28,28,29,29,31,31,32,32,33,33,34,34,35,35,36,36,37,37,38,38,39,39,41,41,42,42],"right_children":[2,4,6,8,10,12,14,16,18,20,22,-1,24,-1,-1,26,28,30,32,34,36,38,40,42,-1,44,46,48,50,52,-1,54,56,58,60,62,64,66,68,70,-1,72,74,-1,-1,-1,-1,-1,-1,-1,-1,-1,-1,-1,-1,-1,-1,-1,-1,-1,-1,-1,-1,-1,-1,-1,-1,-1,-1,-1,-1,-1,-1,-1,-1],"split_conditions":[5.544E2,5.58E1,5.337484E4,1.95E1,4E-1,3.2E1,7.948E2,4E0,-1.7395834E0,5E-1,3.03E2,9.244593E0,1.5075E1,2.1453377E1,1.378537E0,1.6E0,3.3505874E0,4.8E0,4.34E1,1.5783029E1,2.185E2,6E-1,1.9034762E4,8.310155E0,-2.881794E0,1.3E0,1.44E1,1.1E2,3.47E1,-1.8333338E-1,-5.0235634E0,2.7E0,8.73E0,1.5481251E1,2.94E1,1.9E0,2.762E2,1.576E2,2.014E2,3.164E2,3.9806306E0,9.313E2,1.0925E1,-1.0686608E-1,2.8210368E0,-7.1419054E-1,1.4127556E0,6.584926E-1,7.9864945E0,-2.3033056E-1,4.373471E0,-4.532097E-2,-1.1866754E0,-2.8958076E-1,-2.003916E0,-1.2217352E0,1.0606464E0,-1.0784031E0,1.5099716E0,7.135048E-1,6.6934137E0,-2.003262E0,5.254884E0,6.0680896E-1,-3.7013247E0,-3.0065572E0,-4.5026094E-1,-1.4276832E0,3.8874456E-1,1.9937257E0,-1.8571318E0,2.5045946E0,7.1021307E-1,5.555729E-1,2.345276E-2],"split_indices":[0,0,7,2,4,2,0,0,5,11,0,0,3,0,0,1,13,0,2,6,0,4,7,10,0,1,2,8,12,3,0,0,6,3,1,2,2,1,2,0,0,0,3,0,0,0,0,0,0,0,0,0,0,0,0,0,0,0,0,0,0,0,0,0,0,0,0,0,0,0,0,0,0,0,0],"split_type":[0,0,0,0,0,0,0,0,0,0,0,0,0,0,0,0,0,0,0,0,0,0,0,0,0,0,0,0,0,0,0,0,0,0,0,0,0,0,0,0,0,0,0,0,0,0,0,0,0,0,0,0,0,0,0,0,0,0,0,0,0,0,0,0,0,0,0,0,0,0,0,0,0,0,0],"sum_hessian":[9.28E2,9.02E2,2.6E1,7.86E2,1.16E2,2.2E1,4E0,7.36E2,5E1,7.7E1,3.9E1,1E0,2.1E1,2E0,2E0,7.03E2,3.3E1,8E0,4.2E1,4.8E1,2.9E1,3.2E1,7E0,2E1,1E0,6.77E2,2.6E1,8E0,2.5E1,5E0,3E0,1.4E1,2.8E1,4.5E1,3E0,2E1,9E0,4E0,2.8E1,4E0,3E0,1.5E1,5E0,6.75E2,2E0,2.4E1,2E0,4E0,4E0,2.3E1,2E0,2E0,3E0,4E0,1E1,9E0,1.9E1,3.2E1,1.3E1,1E0,2E0,1E0,1.9E1,7E0,2E0,3E0,1E0,1.7E1,1.1E1,1E0,3E0,1.1E1,4E0,3E0,2E0],"tree_param":{"num_deleted":"0","num_feature":"14","num_nodes":"75","size_leaf_vector":"1"}},{"base_weights":[3.8203794E-1,8.4205545E-2,1.39143095E1,-1.3163456E-1,2.7587497E0,6.9869094E0,2.1830238E1,-1.00800194E-1,-5.2793136E0,7.2801E0,2.075537E0,7.857898E0,4.464739E0,-2.7919364E-1,8.923009E-1,1.6779329E0,-9.395697E0,4.8531976E0,-7.631686E-1,6.1929708E0,1.5303268E0,-2.1960232E-1,-1.4986758E0,3.2167437E0,-1.9685223E0,-4.196993E0,-9.602837E-1,-1.0024346E0,1.9006958E1,1.2919965E0,-1.2941525E1,7.5511036E0,5.425008E-2,1.8978628E0,2.851461E-1,-7.6061E-2,2.2568295E0,1.6197528E0,-5.648874E-1,2.0975955E0,-7.4758476E-1,-4.4212213E0,-3.7479687E-1,-1.1929007E0,1.7442439E0,7.8977027E0,1.9269325E0,-2.2919703E-1,2.8929825E0,-4.766411E0,-1.7043519E0,6.411499E-1,2.63779E0,-1.6964722E-1,1.9405976E-1,7.331818E-1,1.6114198E-1,1.22937016E-1,5.378723E-3],"categories":[],"categories_nodes":[],"categories_segments":[],"categories_sizes":[],"default_left":[0,0,0,0,0,0,0,0,0,0,0,0,0,0,0,0,0,0,0,0,0,0,0,0,0,0,0,0,0,0,0,0,0,0,0,0,0,0,0,0,0,0,0,0,0,0,0,0,0,0,0,0,0,0,0,0,0,0,0],"id":16,"left_children":[1,3,5,7,9,11,-1,13,15,-1,17,-1,19,21,23,-1,25,27,29,31,33,35,37,39,41,-1,-1,43,45,47,49,51,53,55,57,-1,-1,-1,-1,-1,-1,-1,-1,-1,-1,-1,-1,-1,-1,-1,-1,-1,-1,-1,-1,-1,-1,-1,-1],"loss_changes":[3.7430222E3,5.2568243E2,7.6455664E3,1.3327336E2,9.4887305E2,8.0343463E2,0E0,1.4888866E2,2.7632642E2,0E0,5.319961E2,0E0,8.180698E1,5.1412342E1,8.575092E2,0E0,6.906052E1,2.8369465E3,8.6769055E2,9.129953E1,3.12002E0,1.8056526E2,9.76402E1,1.5475938E3,5.1422375E2,0E0,0E0,5.2991486E2,7.518838E2,5.224708E2,1.6700806E1,4.170276E1,1.4676012E0,3.1456165E0,9.257379E-2,0E0,0E0,0E0,0E0,0E0,0E0,0E0,0E0,0E0,0E0,0E0,0E0,0E0,0E0,0E0,0E0,0E0,0E0,0E0,0E0,0E0,0E0,0E0,0E0],"parents":[2147483647,0,0,1,1,2,2,3,3,4,4,5,5,7,7,8,8,10,10,12,12,13,13,14,14,16,16,17,17,18,18,19,19,20,20,21,21,22,22,23,23,24,24,27,27,28,28,29,29,30,30,31,31,32,32,33,33,34,34],"right_children":[2,4,6,8,10,12,-1,14,16,-1,18,-1,20,22,24,-1,26,28,30,32,34,36,38,40,42,-1,-1,44,46,48,50,52,54,56,58,-1,-1,-1,-1,-1,-1,-1,-1,-1,-1,-1,-1,-1,-1,-1,-1,-1,-1,-1,-1,-1,-1,-1,-1],"split_conditions":[7.349E2,1.576E2,1.5075E1,1.392E2,1.582E2,7.355E2,2.1830238E1,3.4E0,2.27E1,7.2801E0,1.3E2,7.857898E0,7.355E2,1.6E0,1.1489465E1,1.6779329E0,1.402E2,8.156583E0,1.473E1,1.6619999E1,1.2299999E1,1.3E0,5.4900007E0,1.4894082E1,1.1564999E1,-4.196993E0,-9.602837E-1,1.3679999E1,8.343E2,1.7364582E1,3.7750673E0,7.1753335E0,7.918E2,1.266246E1,8.026E2,-7.6061E-2,2.2568295E0,1.6197528E0,-5.648874E-1,2.0975955E0,-7.4758476E-1,-4.4212213E0,-3.7479687E-1,-1.1929007E0,1.7442439E0,7.8977027E0,1.9269325E0,-2.2919703E-1,2.8929825E0,-4.766411E0,-1.7043519E0,6.411499E-1,2.63779E0,-1.6964722E-1,1.9405976E-1,7.331818E-1,1.6114198E-1,1.22937016E-1,5.378723E-3],"split_indices":[0,0,3,0,0,0,0,0,2,0,8,0,1,1,6,0,0,3,6,6,12,1,6,3,6,0,0,6,2,3,5,3,0,6,0,0,0,0,0,0,0,0,0,0,0,0,0,0,0,0,0,0,0,0,0,0,0,0,0],"split_type":[0,0,0,0,0,0,0,0,0,0,0,0,0,0,0,0,0,0,0,0,0,0,0,0,0,0,0,0,0,0,0,0,0,0,0,0,0,0,0,0,0,0,0,0,0,0,0,0,0,0,0,0,0,0,0,0,0,0,0],"sum_hessian":[9.28E2,9.09E2,1.9E1,8.42E2,6.7E1,1.8E1,1E0,8.38E2,4E0,1E0,6.6E1,1E0,1.7E1,7.11E2,1.27E2,1E0,3E0,3.3E1,3.3E1,1E1,7E0,6.79E2,3.2E1,7E1,5.7E1,1E0,2E0,2.4E1,9E0,2.9E1,4E0,8E0,2E0,5E0,2E0,6.77E2,2E0,1E0,3.1E1,4.2E1,2.8E1,2E0,5.5E1,1.7E1,7E0,5E0,4E0,2.4E1,5E0,2E0,2E0,2E0,6E0,1E0,1E0,3E0,2E0,1E0,1E0],"tree_param":{"num_deleted":"0","num_feature":"14","num_nodes":"59","size_leaf_vector":"1"}},{"base_weights":[3.149759E-1,7.010787E-2,1.14407215E1,3.5151854E-2,1.062676E1,5.5320907E0,1.8555708E1,-6.9892906E-2,3.6012814E0,4.1684513E0,6.13591E-1,6.6792116E0,3.3656473E0,1.09187715E-1,-3.3307552E0,-4.686835E0,5.3212495E0,5.134008E0,1.4375579E0,-2.35814E-2,7.925283E0,-6.1298947E0,-2.650984E-1,1.8710785E0,-2.9047408E0,5.1159973E0,3.2953758E0,2.4108949E0,2.3434677E0,7.279968E-1,1.1735413E0,-4.318265E-2,9.855233E-1,4.4913626E0,2.3083156E-1,-2.2637055E0,1.888759E0,3.7654235E0,-6.2502146E-1,-3.8967362E-1,1.2316589E0,-5.4866564E-1,2.9284713E0,1.0449601E-1,8.0185E-1,3.8424686E-1,8.87146E-3],"categories":[],"categories_nodes":[],"categories_segments":[],"categories_sizes":[],"default_left":[0,0,0,0,0,0,0,0,0,0,0,0,0,0,0,0,0,0,0,0,0,0,0,0,0,0,0,0,0,0,0,0,0,0,0,0,0,0,0,0,0,0,0,0,0,0,0],"id":17,"left_children":[1,3,5,7,9,11,-1,13,15,-1,-1,-1,17,19,21,23,25,27,29,31,33,35,37,39,-1,-1,41,-1,43,45,-1,-1,-1,-1,-1,-1,-1,-1,-1,-1,-1,-1,-1,-1,-1,-1,-1],"loss_changes":[2.530109E3,3.3543332E2,5.615102E3,3.4039142E2,5.5715424E1,6.137947E2,0E0,5.159979E2,3.9557748E2,0E0,0E0,0E0,5.3991608E1,8.6980975E2,3.9311032E2,1.8192136E2,4.6669226E2,5.4058212E1,1.4708508E1,3.2901483E2,6.9435406E2,4.6972095E2,5.621495E2,2.658229E1,0E0,0E0,6.8054236E2,0E0,3.011795E0,3.4370928E0,0E0,0E0,0E0,0E0,0E0,0E0,0E0,0E0,0E0,0E0,0E0,0E0,0E0,0E0,0E0,0E0,0E0],"parents":[2147483647,0,0,1,1,2,2,3,3,4,4,5,5,7,7,8,8,12,12,13,13,14,14,15,15,16,16,17,17,18,18,19,19,20,20,21,21,22,22,23,23,26,26,28,28,29,29],"right_children":[2,4,6,8,10,12,-1,14,16,-1,-1,-1,18,20,22,24,26,28,30,32,34,36,38,40,-1,-1,42,-1,44,46,-1,-1,-1,-1,-1,-1,-1,-1,-1,-1,-1,-1,-1,-1,-1,-1,-1],"split_conditions":[7.349E2,1.097E3,1.5075E1,3.825E2,2.185E2,7.355E2,1.8555708E1,1.752E2,3.44836E4,4.1684513E0,6.13591E-1,6.6792116E0,1.1215699E1,1.32E2,2E-1,5.922917E0,3.6370766E4,1.27E2,6.617E2,1.161E2,1.1652814E1,7.2673616E0,3E-1,4.206E2,-2.9047408E0,5.1159973E0,1.07863455E1,2.4108949E0,8.026E2,9.816666E0,1.1735413E0,-4.318265E-2,9.855233E-1,4.4913626E0,2.3083156E-1,-2.2637055E0,1.888759E0,3.7654235E0,-6.2502146E-1,-3.8967362E-1,1.2316589E0,-5.4866564E-1,2.9284713E0,1.0449601E-1,8.0185E-1,3.8424686E-1,8.87146E-3],"split_indices":[0,1,3,0,0,0,0,2,7,0,0,0,6,2,4,3,7,8,2,0,6,13,4,0,0,0,9,0,0,3,0,0,0,0,0,0,0,0,0,0,0,0,0,0,0,0,0],"split_type":[0,0,0,0,0,0,0,0,0,0,0,0,0,0,0,0,0,0,0,0,0,0,0,0,0,0,0,0,0,0,0,0,0,0,0,0,0,0,0,0,0,0,0,0,0,0,0],"sum_hessian":[9.28E2,9.09E2,1.9E1,9.07E2,2E0,1.8E1,1E0,8.82E2,2.5E1,1E0,1E0,1E0,1.7E1,8.37E2,4.5E1,4E0,2.1E1,8E0,9E0,8.24E2,1.3E1,2.3E1,2.2E1,2E0,2E0,2E0,1.9E1,3E0,5E0,8E0,1E0,7.96E2,2.8E1,6E0,7E0,2.1E1,2E0,2E0,2E1,1E0,1E0,1.1E1,8E0,1E0,4E0,4E0,4E0],"tree_param":{"num_deleted":"0","num_feature":"14","num_nodes":"47","size_leaf_vector":"1"}},{"base_weights":[2.7297392E-1,6.956466E-2,9.514447E0,3.9874017E-2,9.032745E0,4.481047E0,1.5772358E1,9.957518E-1,-1.8969539E-1,3.5431826E0,5.2155304E-1,5.677332E0,2.6272786E0,-3.4058595E-1,3.1748772E0,-2.1503907E-1,1.8146851E0,4.044586E0,1.088974E0,-1.0201835E-1,-9.733656E-1,2.1369919E1,1.6804314E0,-8.381127E-2,-2.1673703E0,2.6759848E-1,5.0854974E0,1.3917516E0,5.0784606E-1,-3.305295E-2,8.259505E-2,-6.983523E-1,-2.000334E-2,7.846288E0,3.348633E-1,-6.337815E-2,2.9213183E0,-5.9686903E-2,1.9200251E0,-1.868129E0,1.9945495E-1,-1.4552307E-1,2.659424E-1,1.7788438E0,3.240967E-3,8.882218E-2,4.6550173E-1,1.8045503E-1,1.9974519E-2],"categories":[],"categories_nodes":[],"categories_segments":[],"categories_sizes":[],"default_left":[0,0,0,0,0,0,0,0,0,0,0,0,0,0,0,0,0,0,0,0,0,0,0,0,0,0,0,0,0,0,0,0,0,0,0,0,0,0,0,0,0,0,0,0,0,0,0,0,0],"id":18,"left_children":[1,3,5,7,9,11,-1,13,15,-1,-1,-1,17,19,21,23,-1,25,27,29,31,33,35,37,39,41,43,45,47,-1,-1,-1,-1,-1,-1,-1,-1,-1,-1,-1,-1,-1,-1,-1,-1,-1,-1,-1,-1],"loss_changes":[1.7456733E3,2.4181142E2,4.0991826E3,1.9944067E2,4.0254288E1,4.589995E2,0E0,5.136017E2,1.1719564E2,0E0,0E0,0E0,3.4840057E1,1.6506376E1,1.7859204E3,1.8710068E2,0E0,3.402272E1,1.0527296E0,2.796803E-1,3.668737E1,4.55313E2,9.6229816E2,5.134331E2,5.330498E2,1.8274469E0,2.991658E1,5.919199E-1,1.6661763E-1,0E0,0E0,0E0,0E0,0E0,0E0,0E0,0E0,0E0,0E0,0E0,0E0,0E0,0E0,0E0,0E0,0E0,0E0,0E0,0E0],"parents":[2147483647,0,0,1,1,2,2,3,3,4,4,5,5,7,7,8,8,12,12,13,13,14,14,15,15,17,17,18,18,19,19,20,20,21,21,22,22,23,23,24,24,25,25,26,26,27,27,28,28],"right_children":[2,4,6,8,10,12,-1,14,16,-1,-1,-1,18,20,22,24,-1,26,28,30,32,34,36,38,40,42,44,46,48,-1,-1,-1,-1,-1,-1,-1,-1,-1,-1,-1,-1,-1,-1,-1,-1,-1,-1,-1,-1],"split_conditions":[7.349E2,1.097E3,1.5075E1,1.2000002E0,2.185E2,7.355E2,1.5772358E1,3E-1,6.101E2,3.5431826E0,5.2155304E-1,5.677332E0,2.3999999E0,3.7248777E4,1E-1,1.752E2,1.8146851E0,5.7030547E-1,1.266246E1,1E-1,9.035416E0,1E-1,1E-1,1.321E2,4.7E0,7.918E2,7.355E2,8.026E2,8.343E2,-3.305295E-2,8.259505E-2,-6.983523E-1,-2.000334E-2,7.846288E0,3.348633E-1,-6.337815E-2,2.9213183E0,-5.9686903E-2,1.9200251E0,-1.868129E0,1.9945495E-1,-1.4552307E-1,2.659424E-1,1.7788438E0,3.240967E-3,8.882218E-2,4.6550173E-1,1.8045503E-1,1.9974519E-2],"split_indices":[0,1,3,12,0,0,0,0,0,0,0,0,11,7,1,2,0,13,6,0,3,4,11,2,11,0,1,0,1,0,0,0,0,0,0,0,0,0,0,0,0,0,0,0,0,0,0,0,0],"split_type":[0,0,0,0,0,0,0,0,0,0,0,0,0,0,0,0,0,0,0,0,0,0,0,0,0,0,0,0,0,0,0,0,0,0,0,0,0,0,0,0,0,0,0,0,0,0,0,0,0],"sum_hessian":[9.28E2,9.09E2,1.9E1,9.07E2,2E0,1.8E1,1E0,1.75E2,7.32E2,1E0,1E0,1E0,1.7E1,1.09E2,6.6E1,7.3E2,2E0,8E0,9E0,8E1,2.9E1,4E0,6.2E1,6.85E2,4.5E1,2E0,6E0,5E0,4E0,7.9E1,1E0,1.1E1,1.8E1,3E0,1E0,5.1E1,1.1E1,6.74E2,1.1E1,1.8E1,2.7E1,1E0,1E0,5E0,1E0,1E0,4E0,3E0,1E0],"tree_param":{"num_deleted":"0","num_feature":"14","num_nodes":"49","size_leaf_vector":"1"}},{"base_weights":[2.3472874E-1,-6.7447103E-3,5.601645E0,8.749569E-2,-2.9111276E0,2.773525E0,1.8537992E1,-6.0917754E-2,6.041069E0,-7.821825E-2,-7.28215E0,-1.4840063E0,4.8742576E0,3.1010168E1,-2.5284898E0,1.0645181E-2,-3.7604923E0,1.3784567E1,2.1548843E-1,-2.2509012E0,8.088898E0,-8.254744E0,3.66568E-1,1.3876724E0,-5.781891E0,1.1362676E1,2.4406595E0,4.92556E0,1.3406507E1,-3.3545136E-2,1.2174164E1,-2.236493E0,-2.8856974E0,1.879262E1,-2.4957473E0,-3.8594763E0,7.507327E0,-3.8343875E0,3.0622826E0,2.9400115E0,4.4332126E-1,-3.07947E0,-1.2574823E0,9.9794316E-1,-4.4090575E-1,-2.3358605E0,3.3530274E-1,5.7808166E0,2.5919724E0,-2.1965942E-1,3.2164404E0,-1.8940425E-2,1.0312376E0,5.197916E0,2.804581E-1,4.5276776E-1,-1.0185766E0,1.5442796E0,6.0626574E0,-1.2029546E0,7.986832E-2,-2.4131662E-1,-1.3852339E0,1.7570496E-1,3.5779588E0,-1.8636043E0,2.2100784E-1,7.853699E-3,1.8255891E0,-2.783661E-1,2.2605287E-1,9.832916E-1,8.024597E-2,-4.5214692E-1,1.4370118E-1,1.466317E0,4.056038E-1],"categories":[],"categories_nodes":[],"categories_segments":[],"categories_sizes":[],"default_left":[0,0,0,0,0,0,0,0,0,0,0,0,0,0,0,0,0,0,0,0,0,0,0,0,0,0,0,0,0,0,0,0,0,0,0,0,0,0,0,0,0,0,0,0,0,0,0,0,0,0,0,0,0,0,0,0,0,0,0,0,0,0,0,0,0,0,0,0,0,0,0,0,0,0,0,0,0],"id":19,"left_children":[1,3,5,7,9,11,13,15,17,19,21,23,25,27,-1,29,31,33,35,37,39,41,-1,43,45,47,49,-1,-1,51,53,55,-1,57,59,61,63,65,67,-1,-1,-1,-1,-1,69,-1,-1,-1,71,73,75,-1,-1,-1,-1,-1,-1,-1,-1,-1,-1,-1,-1,-1,-1,-1,-1,-1,-1,-1,-1,-1,-1,-1,-1,-1,-1],"loss_changes":[1.2039918E3,2.4385681E2,1.4120061E3,7.629065E2,3.4614624E2,3.1132718E2,2.6156616E3,2.232263E2,9.443472E2,3.3760928E2,1.0106714E2,1.5612909E2,3.3544226E2,2.6421826E2,0E0,4.454664E2,1.213407E2,7.806958E2,4.1525613E2,1.3794226E2,3.0768616E1,3.8648987E1,0E0,2.9828709E1,7.784683E1,3.6613898E2,3.7855377E1,0E0,0E0,8.505188E1,1.5752444E2,6.588978E1,0E0,3.1245117E1,1.3613264E1,1.712674E1,1.4595557E2,1.3499623E2,3.655342E1,0E0,0E0,0E0,0E0,0E0,3.6074607E0,0E0,0E0,0E0,5.498562E0,5.2195683E0,3.701555E1,0E0,0E0,0E0,0E0,0E0,0E0,0E0,0E0,0E0,0E0,0E0,0E0,0E0,0E0,0E0,0E0,0E0,0E0,0E0,0E0,0E0,0E0,0E0,0E0,0E0,0E0],"parents":[2147483647,0,0,1,1,2,2,3,3,4,4,5,5,6,6,7,7,8,8,9,9,10,10,11,11,12,12,13,13,15,15,16,16,17,17,18,18,19,19,20,20,21,21,23,23,24,24,25,25,26,26,29,29,30,30,31,31,33,33,34,34,35,35,36,36,37,37,38,38,44,44,48,48,49,49,50,50],"right_children":[2,4,6,8,10,12,14,16,18,20,22,24,26,28,-1,30,32,34,36,38,40,42,-1,44,46,48,50,-1,-1,52,54,56,-1,58,60,62,64,66,68,-1,-1,-1,-1,-1,70,-1,-1,-1,72,74,76,-1,-1,-1,-1,-1,-1,-1,-1,-1,-1,-1,-1,-1,-1,-1,-1,-1,-1,-1,-1,-1,-1,-1,-1,-1,-1],"split_conditions":[4.206E2,2.315E2,1.5481251E1,1.576E2,3.0208898E0,1E-1,1.35E2,1.214E2,2.526E2,2.5282876E0,8.006249E0,5.2795074E4,1.938E2,5.646E2,-2.5284898E0,1.199E2,5.1210902E4,2.858E2,1.1698547E1,1.37699995E1,6.584E2,1.04E1,3.66568E-1,1.0410514E1,5.544E2,1.7580422E0,2.911E2,4.92556E0,1.3406507E1,4.29E2,1.213E2,1.0767354E1,-2.8856974E0,6.635416E0,1.591E2,4.7937503E0,1.752E2,9.09375E0,2.038E2,2.9400115E0,4.4332126E-1,-3.07947E0,-1.2574823E0,9.9794316E-1,7.918E2,-2.3358605E0,3.3530274E-1,5.7808166E0,1.015E2,5.821E2,7.519E2,-1.8940425E-2,1.0312376E0,5.197916E0,2.804581E-1,4.5276776E-1,-1.0185766E0,1.5442796E0,6.0626574E0,-1.2029546E0,7.986832E-2,-2.4131662E-1,-1.3852339E0,1.7570496E-1,3.5779588E0,-1.8636043E0,2.2100784E-1,7.853699E-3,1.8255891E0,-2.783661E-1,2.2605287E-1,9.832916E-1,8.024597E-2,-4.5214692E-1,1.4370118E-1,1.466317E0,4.056038E-1],"split_indices":[0,0,3,0,13,11,8,0,1,5,5,7,2,0,0,0,7,2,9,6,1,12,0,6,0,5,2,0,0,2,0,6,0,3,0,3,0,10,1,0,0,0,0,0,0,0,0,0,2,0,0,0,0,0,0,0,0,0,0,0,0,0,0,0,0,0,0,0,0,0,0,0,0,0,0,0,0],"split_type":[0,0,0,0,0,0,0,0,0,0,0,0,0,0,0,0,0,0,0,0,0,0,0,0,0,0,0,0,0,0,0,0,0,0,0,0,0,0,0,0,0,0,0,0,0,0,0,0,0,0,0,0,0,0,0,0,0,0,0,0,0,0,0,0,0,0,0,0,0,0,0,0,0,0,0,0,0],"sum_hessian":[9.28E2,8.89E2,3.9E1,8.62E2,2.7E1,3.3E1,6E0,8.42E2,2E1,1.7E1,1E1,1.1E1,2.2E1,4E0,2E0,8.27E2,1.5E1,8E0,1.2E1,1.4E1,3E0,9E0,1E0,7E0,4E0,5E0,1.7E1,3E0,1E0,8.25E2,2E0,1.3E1,2E0,6E0,2E0,8E0,4E0,1.1E1,3E0,2E0,1E0,5E0,4E0,3E0,4E0,3E0,1E0,2E0,3E0,4E0,1.3E1,8.19E2,6E0,1E0,1E0,3E0,1E1,1E0,5E0,1E0,1E0,2E0,6E0,2E0,2E0,7E0,4E0,2E0,1E0,3E0,1E0,2E0,1E0,1E0,3E0,6E0,7E0],"tree_param":{"num_deleted":"0","num_feature":"14","num_nodes":"77","size_leaf_vector":"1"}},{"base_weights":[2.0135076E-1,6.1553802E-2,6.552045E0,-1.8108632E-2,1.9960837E0,2.8984568E0,1.1395533E1,9.995086E-2,-2.6946979E0,-3.054464E0,4.0560813E0,3.9586122E0,1.5933295E0,-2.6002306E-2,3.383698E0,-4.465873E0,-5.770205E-1,2.9783754E0,-5.3454943E0,4.948451E0,-4.4349008E0,2.567071E0,5.576294E-1,1.0250652E-1,-1.9380062E0,-5.1523943E0,4.8391337E0,-7.021789E0,-1.7363237E0,2.739391E-1,-1.4769394E0,5.9294635E-1,-6.9042225E0,7.540207E0,2.1754107E0,-4.050522E-1,-1.5906533E0,2.4489339E-1,3.1955655E0,7.722626E-1,1.885437E-1,-2.0692792E-2,1.3264539E0,1.5385041E0,-6.9932663E-1,-2.0879385E0,3.1158143E-1,2.2145846E0,1.4082238E-1,-9.630272E-1,-3.057441E0,3.4319595E-1,-1.0636926E0,1.5477036E0,-3.7506977E-1,-1.8110047E-1,4.4792634E-1,-3.5296023E-1,-2.585209E0,3.4137633E-1,3.179733E0,1.9023713E0,-1.14195E-1,-8.19397E-2,1.9214173E-1,1.2356544E0,1.7747192E-1,1.4657593E-2,2.721515E-1,9.263535E-2,-4.3862917E-2],"categories":[],"categories_nodes":[],"categories_segments":[],"categories_sizes":[],"default_left":[0,0,0,0,0,0,0,0,0,0,0,0,0,0,0,0,0,0,0,0,0,0,0,0,0,0,0,0,0,0,0,0,0,0,0,0,0,0,0,0,0,0,0,0,0,0,0,0,0,0,0,0,0,0,0,0,0,0,0,0,0,0,0,0,0,0,0,0,0,0,0],"id":20,"left_children":[1,3,5,7,9,11,-1,13,15,17,19,-1,21,23,25,27,29,-1,31,33,35,37,39,41,43,45,47,49,51,53,-1,55,57,59,61,-1,-1,63,65,67,69,-1,-1,-1,-1,-1,-1,-1,-1,-1,-1,-1,-1,-1,-1,-1,-1,-1,-1,-1,-1,-1,-1,-1,-1,-1,-1,-1,-1,-1,-1],"loss_changes":[8.2437E2,1.4027565E2,2.186771E3,2.7676648E2,3.8693744E2,2.343124E2,0E0,3.47097E2,1.3620184E2,3.8024292E2,2.1895029E2,0E0,1.67216E1,1.9897752E2,4.1006885E2,1.2733789E2,6.791921E1,0E0,9.665799E1,1.5608606E2,8.6706924E-1,1.2352711E1,6.465752E-1,5.624461E2,1.5361533E2,6.317656E1,2.9654266E2,8.810309E1,6.1381542E1,1.2558098E2,0E0,4.1326966E0,6.836008E1,2.2294666E2,1.4083917E2,0E0,0E0,7.89694E-1,1.4392937E1,5.412395E-1,2.4640235E-1,0E0,0E0,0E0,0E0,0E0,0E0,0E0,0E0,0E0,0E0,0E0,0E0,0E0,0E0,0E0,0E0,0E0,0E0,0E0,0E0,0E0,0E0,0E0,0E0,0E0,0E0,0E0,0E0,0E0,0E0],"parents":[2147483647,0,0,1,1,2,2,3,3,4,4,5,5,7,7,8,8,9,9,10,10,12,12,13,13,14,14,15,15,16,16,18,18,19,19,20,20,21,21,22,22,23,23,24,24,25,25,26,26,27,27,28,28,29,29,31,31,32,32,33,33,34,34,37,37,38,38,39,39,40,40],"right_children":[2,4,6,8,10,12,-1,14,16,18,20,-1,22,24,26,28,30,-1,32,34,36,38,40,42,44,46,48,50,52,54,-1,56,58,60,62,-1,-1,64,66,68,70,-1,-1,-1,-1,-1,-1,-1,-1,-1,-1,-1,-1,-1,-1,-1,-1,-1,-1,-1,-1,-1,-1,-1,-1,-1,-1,-1,-1,-1,-1],"split_conditions":[7.349E2,3.164E2,1.5075E1,1.752E2,2.748E2,7.355E2,1.1395533E1,8.85E1,5.2999997E0,3.449E2,1.4935749E1,3.9586122E0,2.3999999E0,2.28E1,1.18E2,2.014E2,1.440866E1,2.9783754E0,1.213E2,6.2E0,1.627E2,5.7030547E-1,1.266246E1,9.2E0,4.0111966E0,3.32E1,1.2943155E1,9.62E1,4.6242104E0,2.1108332E0,-1.4769394E0,2.187E2,4.8920007E0,2.0747375E0,1.23E2,-4.050522E-1,-1.5906533E0,7.918E2,8.528E2,8.026E2,8.343E2,-2.0692792E-2,1.3264539E0,1.5385041E0,-6.9932663E-1,-2.0879385E0,3.1158143E-1,2.2145846E0,1.4082238E-1,-9.630272E-1,-3.057441E0,3.4319595E-1,-1.0636926E0,1.5477036E0,-3.7506977E-1,-1.8110047E-1,4.4792634E-1,-3.5296023E-1,-2.585209E0,3.4137633E-1,3.179733E0,1.9023713E0,-1.14195E-1,-8.19397E-2,1.9214173E-1,1.2356544E0,1.7747192E-1,1.4657593E-2,2.721515E-1,9.263535E-2,-4.3862917E-2],"split_indices":[0,1,3,2,2,0,0,2,11,1,9,0,11,2,8,1,6,0,2,12,0,13,6,2,10,0,9,1,5,5,0,0,3,5,8,0,0,0,0,0,1,0,0,0,0,0,0,0,0,0,0,0,0,0,0,0,0,0,0,0,0,0,0,0,0,0,0,0,0,0,0],"split_type":[0,0,0,0,0,0,0,0,0,0,0,0,0,0,0,0,0,0,0,0,0,0,0,0,0,0,0,0,0,0,0,0,0,0,0,0,0,0,0,0,0,0,0,0,0,0,0,0,0,0,0,0,0,0,0,0,0,0,0,0,0,0,0,0,0,0,0,0,0,0,0],"sum_hessian":[9.28E2,9.09E2,1.9E1,8.74E2,3.5E1,1.8E1,1E0,8.38E2,3.6E1,1E1,2.5E1,1E0,1.7E1,8.08E2,3E1,1.9E1,1.7E1,1E0,9E0,2.3E1,2E0,8E0,9E0,7.58E2,5E1,4E0,2.6E1,9E0,1E1,1.5E1,2E0,2E0,7E0,1.1E1,1.2E1,1E0,1E0,2E0,6E0,5E0,4E0,7.3E2,2.8E1,2E0,4.8E1,3E0,1E0,1.6E1,1E1,5E0,4E0,4E0,6E0,3E0,1.2E1,1E0,1E0,2E0,5E0,4E0,7E0,4E0,8E0,1E0,1E0,4E0,2E0,1E0,4E0,3E0,1E0],"tree_param":{"num_deleted":"0","num_feature":"14","num_nodes":"71","size_leaf_vector":"1"}},{"base_weights":[1.6087262E-1,4.4515256E-2,5.447089E0,2.3642683E-1,-5.807506E-1,2.3351095E0,9.686207E0,-5.6271773E-2,1.3319405E0,-7.018449E-2,-2.609509E0,3.3648195E0,1.2186084E0,1.0837246E-2,-1.0770423E0,5.673929E0,8.3432543E-1,2.6828923E0,-1.1835535E-1,-2.8210208E0,-1.4681177E0,1.9662204E0,4.238968E-1,-3.509006E-2,3.5632885E0,-1.4144154E0,8.641854E-1,7.6694694E0,5.332809E-1,1.12082325E-2,1.1960933E0,-1.9916323E0,-7.2777726E-2,2.0292652E-1,-3.3361073E0,2.8288696E0,7.1032715E-1,5.8838147E-1,1.4173584E-1,-3.4908347E-2,6.303577E-1,-1.112936E0,-2.8620386E-1,4.510025E0,-1.4116852E0,-6.846796E-2,8.6751235E-1,-7.627751E-1,-5.081676E-2,-3.2066725E-2,5.482818E-1,-1.7834042E-1,2.4226227E0,-1.3813962E0,-9.4713215E-3,9.316315E-1,2.583893E-1,-7.671509E-2,4.318787E-1,1.24580385E-2,2.0683412E-1,8.730774E-2,-1.643982E-2],"categories":[],"categories_nodes":[],"categories_segments":[],"categories_sizes":[],"default_left":[0,0,0,0,0,0,0,0,0,0,0,0,0,0,0,0,0,0,0,0,0,0,0,0,0,0,0,0,0,0,0,0,0,0,0,0,0,0,0,0,0,0,0,0,0,0,0,0,0,0,0,0,0,0,0,0,0,0,0,0,0,0,0],"id":21,"left_children":[1,3,5,7,9,11,-1,13,15,17,19,-1,21,23,25,-1,27,29,31,-1,33,35,37,39,-1,41,-1,43,45,-1,-1,47,49,51,53,55,57,59,61,-1,-1,-1,-1,-1,-1,-1,-1,-1,-1,-1,-1,-1,-1,-1,-1,-1,-1,-1,-1,-1,-1,-1,-1],"loss_changes":[5.711764E2,1.0933344E2,1.5951327E3,2.2357172E2,2.2148134E2,1.7472833E2,0E0,3.775678E1,1.2702716E3,2.3127842E1,3.1963782E2,0E0,9.860973E0,2.827318E2,4.947146E1,0E0,2.922163E2,1.020104E1,1.4369571E1,0E0,1.1929372E2,7.7411385E0,3.8071668E-1,9.000498E1,0E0,3.0278236E1,0E0,6.1751843E2,2.5029836E2,0E0,0E0,3.5851812E0,1.1021067E1,1.3662753E2,7.530989E1,4.6131134E-2,3.8906565E0,3.0297852E-1,1.6265172E-1,0E0,0E0,0E0,0E0,0E0,0E0,0E0,0E0,0E0,0E0,0E0,0E0,0E0,0E0,0E0,0E0,0E0,0E0,0E0,0E0,0E0,0E0,0E0,0E0],"parents":[2147483647,0,0,1,1,2,2,3,3,4,4,5,5,7,7,8,8,9,9,10,10,12,12,13,13,14,14,16,16,17,17,18,18,20,20,21,21,22,22,23,23,25,25,27,27,28,28,31,31,32,32,33,33,34,34,35,35,36,36,37,37,38,38],"right_children":[2,4,6,8,10,12,-1,14,16,18,20,-1,22,24,26,-1,28,30,32,-1,34,36,38,40,-1,42,-1,44,46,-1,-1,48,50,52,54,56,58,60,62,-1,-1,-1,-1,-1,-1,-1,-1,-1,-1,-1,-1,-1,-1,-1,-1,-1,-1,-1,-1,-1,-1,-1,-1],"split_conditions":[7.349E2,1.7E0,1.5075E1,5.3E0,4.1E0,7.355E2,9.686207E0,1.6E0,6.7E0,5.4900007E0,9.4E0,3.3648195E0,2.3999999E0,1.3E0,1.3900002E1,5.673929E0,4.0715775E0,4E-1,6.025269E0,-2.8210208E0,5.4999995E0,1.1215699E1,1.266246E1,4E-1,3.5632885E0,8.000001E-1,8.641854E-1,4E-1,3.8999999E0,1.12082325E-2,1.1960933E0,1.798575E1,3.9E0,5.2E0,2.038E2,8.528E2,2.025E2,8.026E2,8.297E2,-3.4908347E-2,6.303577E-1,-1.112936E0,-2.8620386E-1,4.510025E0,-1.4116852E0,-6.846796E-2,8.6751235E-1,-7.627751E-1,-5.081676E-2,-3.2066725E-2,5.482818E-1,-1.7834042E-1,2.4226227E0,-1.3813962E0,-9.4713215E-3,9.316315E-1,2.583893E-1,-7.671509E-2,4.318787E-1,1.24580385E-2,2.0683412E-1,8.730774E-2,-1.643982E-2],"split_indices":[0,4,3,0,0,0,0,1,0,6,0,0,11,1,11,0,10,0,6,0,4,6,6,0,0,12,0,4,11,0,0,3,0,4,2,0,2,0,0,0,0,0,0,0,0,0,0,0,0,0,0,0,0,0,0,0,0,0,0,0,0,0,0],"split_type":[0,0,0,0,0,0,0,0,0,0,0,0,0,0,0,0,0,0,0,0,0,0,0,0,0,0,0,0,0,0,0,0,0,0,0,0,0,0,0,0,0,0,0,0,0,0,0,0,0,0,0,0,0,0,0,0,0,0,0,0,0,0,0],"sum_hessian":[9.28E2,9.09E2,1.9E1,6.96E2,2.13E2,1.8E1,1E0,5.5E2,1.46E2,1.71E2,4.2E1,1E0,1.7E1,5.17E2,3.3E1,3E0,1.43E2,2E0,1.69E2,5E0,3.7E1,8E0,9E0,5.16E2,1E0,3.1E1,2E0,5E0,1.38E2,1E0,1E0,3E0,1.66E2,2E1,1.7E1,4E0,4E0,5E0,4E0,4.98E2,1.8E1,4E0,2.7E1,3E0,2E0,1.05E2,3.3E1,2E0,1E0,1.64E2,2E0,1.9E1,1E0,1.2E1,5E0,3E0,1E0,2E0,2E0,1E0,4E0,2E0,2E0],"tree_param":{"num_deleted":"0","num_feature":"14","num_nodes":"63","size_leaf_vector":"1"}},{"base_weights":[1.4170024E-1,4.4498865E-2,4.5572777E0,2.483269E-1,-3.965753E-1,1.9082633E0,8.233283E0,-1.7412756E-1,1.5140984E0,-2.4091063E-1,-3.956787E0,2.8600893E0,9.5498574E-1,1.14184245E-1,-2.2550106E0,3.2407641E0,-2.0987643E-1,1.9865605E0,-2.8976804E-1,-6.806462E0,-9.489534E-1,1.548038E0,3.2574004E-1,-1.889199E-1,3.4895456E0,-8.332748E0,-1.5103676E0,8.006972E0,2.073047E0,2.3552836E-1,-4.82483E0,-3.488302E0,-1.688875E-1,-2.323309E0,-3.175438E-1,-2.2665527E0,1.0434964E0,8.976237E-2,1.9518651E0,4.0184212E-1,1.4221191E-2,-3.3613008E-2,-1.2775059E0,1.4541274E-1,4.5031157E0,-3.4772952E0,-1.1417656E0,-7.8395915E-1,5.0090504E-1,3.229868E0,-6.817589E-1,1.7065985E0,3.6459097E-1,-7.946853E-2,5.3379494E-1,-1.8270336E0,-3.3232498E-1,-1.4435906E0,-8.994293E-2,1.996447E0,-7.364992E-2,-7.946493E-1,-5.3274233E-2,-5.8145143E-2,9.853821E-2,6.9445646E-1,-3.3911135E-2,1.5217744E-1,1.7118836E-2,4.1217044E-2,-3.4817506E-2],"categories":[],"categories_nodes":[],"categories_segments":[],"categories_sizes":[],"default_left":[0,0,0,0,0,0,0,0,0,0,0,0,0,0,0,0,0,0,0,0,0,0,0,0,0,0,0,0,0,0,0,0,0,0,0,0,0,0,0,0,0,0,0,0,0,0,0,0,0,0,0,0,0,0,0,0,0,0,0,0,0,0,0,0,0,0,0,0,0,0,0],"id":22,"left_children":[1,3,5,7,9,11,-1,13,15,17,19,-1,21,23,25,27,29,-1,31,33,35,37,39,41,43,45,47,49,51,53,55,57,59,-1,-1,61,-1,63,65,67,69,-1,-1,-1,-1,-1,-1,-1,-1,-1,-1,-1,-1,-1,-1,-1,-1,-1,-1,-1,-1,-1,-1,-1,-1,-1,-1,-1,-1,-1,-1],"loss_changes":[3.9852417E2,8.191047E1,1.1601887E3,3.3340097E2,1.5865616E2,1.2900826E2,0E0,2.8103088E2,4.6504974E2,9.479625E1,9.639717E1,0E0,6.212902E0,4.221707E2,2.4538193E2,4.1751666E2,1.6352266E2,0E0,1.0612366E2,2.4148956E1,4.871741E1,5.124815E0,2.313577E-1,1.1809074E2,1.1697444E3,4.4383545E1,1.8673E2,4.499228E2,1.915679E2,5.6867317E1,2.6175766E1,4.0762344E1,1.4121594E2,0E0,0E0,4.3210278E0,0E0,2.6673117E-1,5.508436E0,2.618165E-1,6.4084455E-2,0E0,0E0,0E0,0E0,0E0,0E0,0E0,0E0,0E0,0E0,0E0,0E0,0E0,0E0,0E0,0E0,0E0,0E0,0E0,0E0,0E0,0E0,0E0,0E0,0E0,0E0,0E0,0E0,0E0,0E0],"parents":[2147483647,0,0,1,1,2,2,3,3,4,4,5,5,7,7,8,8,9,9,10,10,12,12,13,13,14,14,15,15,16,16,18,18,19,19,20,20,21,21,22,22,23,23,24,24,25,25,26,26,27,27,28,28,29,29,30,30,31,31,32,32,35,35,37,37,38,38,39,39,40,40],"right_children":[2,4,6,8,10,12,-1,14,16,18,20,-1,22,24,26,28,30,-1,32,34,36,38,40,42,44,46,48,50,52,54,56,58,60,-1,-1,62,-1,64,66,68,70,-1,-1,-1,-1,-1,-1,-1,-1,-1,-1,-1,-1,-1,-1,-1,-1,-1,-1,-1,-1,-1,-1,-1,-1,-1,-1,-1,-1,-1,-1],"split_conditions":[7.349E2,1.5647917E1,1.5075E1,8.620834E0,6.46E1,7.355E2,8.233283E0,3.32E1,1.52E2,-3.5208336E-1,1.6752678E1,2.8600893E0,2.3999999E0,4.1910156E4,5.78E1,1.5000001E0,5.66E1,1.9865605E0,4.641667E0,5.646E2,5.5053793E4,5.7030547E-1,1.4789999E1,6.7E0,1.14E2,5.58E1,1.4E1,5.29E2,9.677417E0,4.7642766E4,2.023E2,3.297406E0,4.9520307E0,-2.323309E0,-3.175438E-1,1.9731583E1,1.0434964E0,7.918E2,7.355E2,1.1921429E1,8E2,-3.3613008E-2,-1.2775059E0,1.4541274E-1,4.5031157E0,-3.4772952E0,-1.1417656E0,-7.8395915E-1,5.0090504E-1,3.229868E0,-6.817589E-1,1.7065985E0,3.6459097E-1,-7.946853E-2,5.3379494E-1,-1.8270336E0,-3.3232498E-1,-1.4435906E0,-8.994293E-2,1.996447E0,-7.364992E-2,-7.946493E-1,-5.3274233E-2,-5.8145143E-2,9.853821E-2,6.9445646E-1,-3.3911135E-2,1.5217744E-1,1.7118836E-2,4.1217044E-2,-3.4817506E-2],"split_indices":[0,9,3,3,2,0,0,1,8,5,9,0,11,7,1,12,0,0,5,1,7,13,6,0,8,0,12,1,3,7,2,13,13,0,0,3,0,0,1,9,0,0,0,0,0,0,0,0,0,0,0,0,0,0,0,0,0,0,0,0,0,0,0,0,0,0,0,0,0,0,0],"split_type":[0,0,0,0,0,0,0,0,0,0,0,0,0,0,0,0,0,0,0,0,0,0,0,0,0,0,0,0,0,0,0,0,0,0,0,0,0,0,0,0,0,0,0,0,0,0,0,0,0,0,0,0,0,0,0,0,0,0,0,0,0,0,0,0,0,0,0,0,0,0,0],"sum_hessian":[9.28E2,9.09E2,1.9E1,6.22E2,2.87E2,1.8E1,1E0,4.67E2,1.55E2,2.76E2,1.1E1,1E0,1.7E1,4.11E2,5.6E1,7.7E1,7.8E1,1E0,2.75E2,5E0,6E0,8E0,9E0,3.78E2,3.3E1,5E0,5.1E1,1.4E1,6.3E1,7.2E1,6E0,9E0,2.66E2,4E0,1E0,5E0,1E0,2E0,6E0,7E0,2E0,3.72E2,6E0,2.7E1,6E0,2E0,3E0,3.8E1,1.3E1,1.1E1,3E0,1.1E1,5.2E1,5.5E1,1.7E1,4E0,2E0,6E0,3E0,2E0,2.64E2,4E0,1E0,1E0,1E0,5E0,1E0,5E0,2E0,1E0,1E0],"tree_param":{"num_deleted":"0","num_feature":"14","num_nodes":"71","size_leaf_vector":"1"}},{"base_weights":[1.1345337E-1,4.033119E-2,4.2834673E0,8.956896E-3,2.05661E0,1.4586803E0,6.9982915E0,4.1775268E-2,-2.9193375E0,2.4310732E0,9.681068E-1,3.577301E0,-3.5121155E-1,-3.0557755E-3,4.4405384E0,2.5035248E0,-5.6010675E0,1.3307228E0,9.698029E-2,1.2732605E0,1.8674806E0,-2.1047134E0,8.7632495E-1,5.0764356E-2,-1.854346E0,1.130366E0,2.4886987E0,3.1559244E-1,1.3600984E0,-1.3861185E0,-2.1029472E0,2.4967194E-1,5.788257E-1,4.863892E-1,1.502411E-1,-8.226685E-1,-2.882538E-2,5.3182983E-1,-1.5087128E-2,-7.2676274E-3,1.0679897E0,3.4386426E-1,-1.2881404E0,-6.8819964E-1,1.5958191E0,-4.1857913E-2,1.8387452E-1,-5.12883E-1,-1.1087037E-1,-4.9420167E-2,1.3281555E-1,1.3694764E-2,-2.9594423E-2],"categories":[],"categories_nodes":[],"categories_segments":[],"categories_sizes":[],"default_left":[0,0,0,0,0,0,0,0,0,0,0,0,0,0,0,0,0,0,0,0,0,0,0,0,0,0,0,0,0,0,0,0,0,0,0,0,0,0,0,0,0,0,0,0,0,0,0,0,0,0,0,0,0],"id":23,"left_children":[1,3,5,7,9,11,-1,13,15,-1,17,19,21,23,25,27,29,31,-1,33,-1,35,37,39,41,43,-1,45,-1,47,-1,49,-1,-1,-1,-1,-1,-1,51,-1,-1,-1,-1,-1,-1,-1,-1,-1,-1,-1,-1,-1,-1],"loss_changes":[2.830984E2,5.78006E1,8.267041E2,8.6709724E1,8.4304886E1,5.8773506E1,0E0,1.7591696E2,1.5944894E2,0E0,2.6095972E0,3.4775826E1,2.12168E1,8.8172966E1,1.0547298E2,1.6336414E1,3.1848404E1,4.696045E0,0E0,5.3226566E-1,0E0,4.858637E0,4.8213377E0,2.2639886E2,1.8791493E2,9.827131E1,0E0,4.9146906E-1,0E0,3.5471964E-1,0E0,3.9292926E-1,0E0,0E0,0E0,0E0,0E0,0E0,2.480395E-2,0E0,0E0,0E0,0E0,0E0,0E0,0E0,0E0,0E0,0E0,0E0,0E0,0E0,0E0],"parents":[2147483647,0,0,1,1,2,2,3,3,4,4,5,5,7,7,8,8,10,10,11,11,12,12,13,13,14,14,15,15,16,16,17,17,19,19,21,21,22,22,23,23,24,24,25,25,27,27,29,29,31,31,38,38],"right_children":[2,4,6,8,10,12,-1,14,16,-1,18,20,22,24,26,28,30,32,-1,34,-1,36,38,40,42,44,-1,46,-1,48,-1,50,-1,-1,-1,-1,-1,-1,52,-1,-1,-1,-1,-1,-1,-1,-1,-1,-1,-1,-1,-1,-1],"split_conditions":[7.948E2,7.349E2,1.2364917E1,5.017E2,7.355E2,2.2590432E0,6.9982915E0,4.206E2,9.767959E0,2.4310732E0,2.3999999E0,7.519E2,2E-1,2.315E2,2.748E2,2.748E2,2.915E2,2.389605E0,9.698029E-2,1.25E2,1.8674806E0,2.915E2,3.04E2,1.576E2,2.0030675E0,1E-1,2.4886987E0,5.292E2,1.3600984E0,5.821E2,-2.1029472E0,7.918E2,5.788257E-1,4.863892E-1,1.502411E-1,-8.226685E-1,-2.882538E-2,5.3182983E-1,1.0925E1,-7.2676274E-3,1.0679897E0,3.4386426E-1,-1.2881404E0,-6.8819964E-1,1.5958191E0,-4.1857913E-2,1.8387452E-1,-5.12883E-1,-1.1087037E-1,-4.9420167E-2,1.3281555E-1,1.3694764E-2,-2.9594423E-2],"split_indices":[1,0,3,0,0,5,0,0,6,0,11,2,4,0,2,1,1,5,0,8,0,0,0,0,13,11,0,0,0,0,0,0,0,0,0,0,0,0,3,0,0,0,0,0,0,0,0,0,0,0,0,0,0],"split_type":[0,0,0,0,0,0,0,0,0,0,0,0,0,0,0,0,0,0,0,0,0,0,0,0,0,0,0,0,0,0,0,0,0,0,0,0,0,0,0,0,0,0,0,0,0,0,0,0,0,0,0,0,0],"sum_hessian":[9.28E2,9.13E2,1.5E1,9E2,1.3E1,1.4E1,1E0,8.91E2,9E0,1E0,1.2E1,6E0,8E0,8.83E2,8E0,3E0,6E0,7E0,5E0,4E0,2E0,3E0,5E0,8.59E2,2.4E1,5E0,3E0,2E0,1E0,2E0,4E0,3E0,4E0,2E0,2E0,2E0,1E0,2E0,3E0,8.42E2,1.7E1,1.1E1,1.3E1,3E0,2E0,1E0,1E0,1E0,1E0,1E0,2E0,2E0,1E0],"tree_param":{"num_deleted":"0","num_feature":"14","num_nodes":"53","size_leaf_vector":"1"}},{"base_weights":[9.5181875E-2,3.422573E-2,3.571353E0,1.7289832E-1,-4.1469267E-1,1.1656443E0,5.9485474E0,1.3755324E-1,5.0512857E0,5.2605975E-2,-1.8175628E0,2.8618338E0,-2.8313023E-1,-2.9904524E-2,7.566702E-1,1.5491383E0,2.8589814E0,-2.8264327E-2,3.2742665E0,-7.4881735E0,-1.2141505E0,1.0186036E0,1.4939821E0,-1.6861649E0,6.9941455E-1,6.0813706E-2,-8.1242144E-1,3.5862482E0,5.2140206E-1,2.0105697E-2,6.062516E-1,1.5396067E-2,-1.7348688E0,1.9532245E-1,1.1794918E0,-6.825942E-1,-2.466768E0,9.921095E-1,-2.2815702E0,3.4999695E-1,6.395874E-2,-6.581329E-1,-2.4499513E-2,4.2546389E-1,-1.4537811E-2,6.9823065E-3,2.7738955E0,-3.3411837E-1,4.4966117E-1,8.38128E-1,-1.2694319E-1,1.7045978E-2,-7.241356E-2,-8.089828E-1,1.725529E-1,-2.3444021E-1,1.3121735E0,-1.1412591E0,-3.8343862E-1,1.0954285E-2,-2.5154116E-2],"categories":[],"categories_nodes":[],"categories_segments":[],"categories_sizes":[],"default_left":[0,0,0,0,0,0,0,0,0,0,0,0,0,0,0,0,0,0,0,0,0,0,0,0,0,0,0,0,0,0,0,0,0,0,0,0,0,0,0,0,0,0,0,0,0,0,0,0,0,0,0,0,0,0,0,0,0,0,0,0,0],"id":24,"left_children":[1,3,5,7,9,11,-1,13,15,17,19,21,23,25,27,29,-1,31,33,35,37,39,-1,41,43,45,47,-1,49,-1,-1,51,53,-1,-1,-1,-1,55,57,-1,-1,-1,-1,-1,59,-1,-1,-1,-1,-1,-1,-1,-1,-1,-1,-1,-1,-1,-1,-1,-1],"loss_changes":[1.9672731E2,5.6970654E1,6.0264606E2,1.1983167E2,1.4169641E2,3.767122E1,0E0,7.20774E1,6.36613E1,4.256002E1,1.7568092E2,2.2256516E1,1.3586227E1,3.895113E1,3.8366003E2,2.6610298E0,0E0,1.1948473E1,4.337864E0,4.3234253E-1,1.20013855E2,3.474884E-1,0E0,3.0786963E0,3.0997443E0,1.694352E2,4.1364525E1,0E0,3.145487E2,0E0,0E0,1.6836601E0,1.0437681E1,0E0,0E0,0E0,0E0,1.05382126E2,4.7085205E1,0E0,0E0,0E0,0E0,0E0,1.721514E-2,0E0,0E0,0E0,0E0,0E0,0E0,0E0,0E0,0E0,0E0,0E0,0E0,0E0,0E0,0E0,0E0],"parents":[2147483647,0,0,1,1,2,2,3,3,4,4,5,5,7,7,8,8,9,9,10,10,11,11,12,12,13,13,14,14,15,15,17,17,18,18,19,19,20,20,21,21,23,23,24,24,25,25,26,26,28,28,31,31,32,32,37,37,38,38,44,44],"right_children":[2,4,6,8,10,12,-1,14,16,18,20,22,24,26,28,30,-1,32,34,36,38,40,-1,42,44,46,48,-1,50,-1,-1,52,54,-1,-1,-1,-1,56,58,-1,-1,-1,-1,-1,60,-1,-1,-1,-1,-1,-1,-1,-1,-1,-1,-1,-1,-1,-1,-1,-1],"split_conditions":[7.948E2,1.7E0,1.2364917E1,2.3600002E1,1.2E0,2.2590432E0,5.9485474E0,5.3E0,3.8E0,5E-1,9.8E1,7.519E2,2E-1,4E-1,6.7E0,1E-1,2.8589814E0,4E-1,3.456583E0,1.6E0,6E0,6.584E2,1.4939821E0,2.915E2,3.04E2,9E-1,2.1794083E1,3.5862482E0,4.4202594E4,2.0105697E-2,6.062516E-1,4.126284E4,3E-1,1.9532245E-1,1.1794918E0,-6.825942E-1,-2.466768E0,1.07E1,9.405E0,3.4999695E-1,6.395874E-2,-6.581329E-1,-2.4499513E-2,4.2546389E-1,1.0925E1,6.9823065E-3,2.7738955E0,-3.3411837E-1,4.4966117E-1,8.38128E-1,-1.2694319E-1,1.7045978E-2,-7.241356E-2,-8.089828E-1,1.725529E-1,-2.3444021E-1,1.3121735E0,-1.1412591E0,-3.8343862E-1,1.0954285E-2,-2.5154116E-2],