{"learner":{"attributes":{"scikit_learn":"{\"_estimator_type\": \"regressor\"}"},"feature_names":["olive_pollen_lag1","olive_pollen_lag2","olive_pollen_lag3","weather_temperature_2m_mean","weather_precipitation_sum","weather_dew_point_2m_mean","weather_wind_speed_10m_mean","weather_sunshine_duration","weather_doy","weather_temp_7d_mean","weather_temp_14d_mean","weather_precip_3d_sum","weather_precip_7d_sum","weather_dew_point_3d_mean"],"feature_types":["float","float","float","float","float","float","float","float","int","float","float","float","float","float"],"gradient_booster":{"model":{"gbtree_model_param":{"num_parallel_tree":"1","num_trees":"100"},"iteration_indptr":[0,1,2,3,4,5,6,7,8,9,10,11,12,13,14,15,16,17,18,19,20,21,22,23,24,25,26,27,28,29,30,31,32,33,34,35,36,37,38,39,40,41,42,43,44,45,46,47,48,49,50,51,52,53,54,55,56,57,58,59,60,61,62,63,64,65,66,67,68,69,70,71,72,73,74,75,76,77,78,79,80,81,82,83,84,85,86,87,88,89,90,91,92,93,94,95,96,97,98,99,100],"tree_info":[0,0,0,0,0,0,0,0,0,0,0,0,0,0,0,0,0,0,0,0,0,0,0,0,0,0,0,0,0,0,0,0,0,0,0,0,0,0,0,0,0,0,0,0,0,0,0,0,0,0,0,0,0,0,0,0,0,0,0,0,0,0,0,0,0,0,0,0,0,0,0,0,0,0,0,0,0,0,0,0,0,0,0,0,0,0,0,0,0,0,0,0,0,0,0,0,0,0,0,0],"trees":[{"base_weights":[-5.857375E-11,-1.2545523E-3,3.9811122E-1,-2.0582597E-3,1.4619736E-2,1.4957502E-1,2.9575028E-2,-2.164829E-3,1.43057015E-2,1.9787513E-1,-8.3018135E-4,-2.2700755E-3,7.450158E-3,-6.7995803E-4,1.4575027E-2,1.1957503E-1,-5.6663173E-4,-8.486695E-4,-6.3738046E-4,-7.5550895E-4,1.4575027E-2,1.4291711E-2,-5.78296E-4],"categories":[],"categories_nodes":[],"categories_segments":[],"categories_sizes":[],"default_left":[0,0,0,0,0,0,0,0,0,0,0,0,0,0,0,0,0,0,0,0,0,0,0],"id":0,"left_children":[1,3,5,7,9,-1,-1,11,13,15,-1,17,19,-1,-1,-1,-1,-1,21,-1,-1,-1,-1],"loss_changes":[4.7697595E-1,1.2175979E-2,4.1130632E-2,1.6126831E-3,1.4711566E-1,0E0,0E0,9.2968484E-4,3.518465E-3,1.6112989E-1,0E0,8.1295846E-4,4.2227283E-3,0E0,0E0,0E0,0E0,0E0,1.4356185E-2,0E0,0E0,0E0,0E0],"parents":[2147483647,0,0,1,1,2,2,3,3,4,4,7,7,8,8,9,9,11,11,12,12,18,18],"right_children":[2,4,6,8,10,-1,-1,12,14,16,-1,18,20,-1,-1,-1,-1,-1,22,-1,-1,-1,-1],"split_conditions":[8E-1,3.32E1,1E0,1.6448513E1,3.44E1,1.4957502E-1,2.9575028E-2,1E-1,2.1192001E1,1.219825E1,-8.3018135E-4,6.486192E0,1.734E1,-6.7995803E-4,1.4575027E-2,1.1957503E-1,-5.6663173E-4,-8.486695E-4,4.051786E0,-7.5550895E-4,1.4575027E-2,1.4291711E-2,-5.78296E-4],"split_indices":[0,12,0,13,12,0,0,2,3,3,0,5,6,0,0,0,0,0,10,0,0,0,0],"split_type":[0,0,0,0,0,0,0,0,0,0,0,0,0,0,0,0,0,0,0,0,0,0,0],"sum_hessian":[9.53E2,9.51E2,2E0,9.06E2,4.5E1,1E0,1E0,9.01E2,5E0,3E0,4.2E1,8.92E2,9E0,4E0,1E0,1E0,2E0,6.64E2,2.28E2,8E0,1E0,5E0,2.23E2],"tree_param":{"num_deleted":"0","num_feature":"14","num_nodes":"23","size_leaf_vector":"1"}},{"base_weights":[3.5420092E-4,-7.1142433E-4,3.3839455E-1,-1.3960415E-3,1.2802906E-2,1.2713878E-1,2.5138773E-2,-1.4857968E-3,1.2329835E-2,1.6826469E-1,-5.869189E-4,-1.5746464E-3,6.597062E-3,-5.167682E-4,1.2388773E-2,1.0163877E-1,-4.5330534E-4,-5.9445144E-4,-3.8628234E-4,-5.540399E-4,1.2388773E-2,1.0718782E-2,-4.0558167E-4],"categories":[],"categories_nodes":[],"categories_segments":[],"categories_sizes":[],"default_left":[0,0,0,0,0,0,0,0,0,0,0,0,0,0,0,0,0,0,0,0,0,0,0],"id":1,"left_children":[1,3,5,7,9,-1,-1,11,13,15,-1,17,19,-1,-1,-1,-1,-1,21,-1,-1,-1,-1],"loss_changes":[3.4389475E-1,8.825914E-3,2.971685E-2,1.135716E-3,1.0587654E-1,0E0,0E0,6.58168E-4,2.513391E-3,1.16320156E-1,0E0,4.309963E-4,3.006188E-3,0E0,0E0,0E0,0E0,0E0,8.03473E-3,0E0,0E0,0E0,0E0],"parents":[2147483647,0,0,1,1,2,2,3,3,4,4,7,7,8,8,9,9,11,11,12,12,18,18],"right_children":[2,4,6,8,10,-1,-1,12,14,16,-1,18,20,-1,-1,-1,-1,-1,22,-1,-1,-1,-1],"split_conditions":[8E-1,3.32E1,1E0,1.6448513E1,3.44E1,1.2713878E-1,2.5138773E-2,1E-1,2.1192001E1,1.219825E1,-5.869189E-4,6.486192E0,1.734E1,-5.167682E-4,1.2388773E-2,1.0163877E-1,-4.5330534E-4,-5.9445144E-4,4.051786E0,-5.540399E-4,1.2388773E-2,1.0718782E-2,-4.0558167E-4],"split_indices":[0,12,0,13,12,0,0,2,3,3,0,5,6,0,0,0,0,0,10,0,0,0,0],"split_type":[0,0,0,0,0,0,0,0,0,0,0,0,0,0,0,0,0,0,0,0,0,0,0],"sum_hessian":[9.53E2,9.51E2,2E0,9.06E2,4.5E1,1E0,1E0,9.01E2,5E0,3E0,4.2E1,8.92E2,9E0,4E0,1E0,1E0,2E0,6.64E2,2.28E2,8E0,1E0,5E0,2.23E2],"tree_param":{"num_deleted":"0","num_feature":"14","num_nodes":"23","size_leaf_vector":"1"}},{"base_weights":[5.480472E-4,-3.5721538E-4,2.8763536E-1,-9.4037625E-4,1.114896E-2,1.0806796E-1,2.1367958E-2,-1.0161625E-3,1.0609552E-2,1.4308165E-1,-4.14938E-4,-1.0913692E-3,5.8014165E-3,-3.927438E-4,1.0530457E-2,8.639296E-2,-3.6264426E-4,-1.556901E-3,-4.4416293E-4,-4.0629593E-4,1.0530457E-2,-4.5204925E-4,-1.9208258E-3,-4.032484E-4,9.342921E-4],"categories":[],"categories_nodes":[],"categories_segments":[],"categories_sizes":[],"default_left":[0,0,0,0,0,0,0,0,0,0,0,0,0,0,0,0,0,0,0,0,0,0,0,0,0],"id":2,"left_children":[1,3,5,7,9,-1,-1,11,13,15,-1,17,19,-1,-1,-1,-1,21,23,-1,-1,-1,-1,-1,-1],"loss_changes":[2.4803725E-1,6.3983575E-3,2.1470413E-2,8.0470147E-4,7.6253936E-2,0E0,0E0,4.6881207E-4,1.7974274E-3,8.39759E-2,0E0,2.6836502E-4,2.144177E-3,0E0,0E0,0E0,0E0,1.1627865E-4,1.2051675E-3,0E0,0E0,0E0,0E0,0E0,0E0],"parents":[2147483647,0,0,1,1,2,2,3,3,4,4,7,7,8,8,9,9,11,11,12,12,17,17,18,18],"right_children":[2,4,6,8,10,-1,-1,12,14,16,-1,18,20,-1,-1,-1,-1,22,24,-1,-1,-1,-1,-1,-1],"split_conditions":[8E-1,3.32E1,1E0,1.6448513E1,3.44E1,1.0806796E-1,2.1367958E-2,1E-1,2.1192001E1,1.219825E1,-4.14938E-4,3E-1,1.734E1,-3.927438E-4,1.0530457E-2,8.639296E-2,-3.6264426E-4,3.6E2,1.219825E1,-4.0629593E-4,1.0530457E-2,-4.5204925E-4,-1.9208258E-3,-4.032484E-4,9.342921E-4],"split_indices":[0,12,0,13,12,0,0,2,3,3,0,4,6,0,0,0,0,8,3,0,0,0,0,0,0],"split_type":[0,0,0,0,0,0,0,0,0,0,0,0,0,0,0,0,0,0,0,0,0,0,0,0,0],"sum_hessian":[9.53E2,9.51E2,2E0,9.06E2,4.5E1,1E0,1E0,9.01E2,5E0,3E0,4.2E1,8.92E2,9E0,4E0,1E0,1E0,2E0,5.18E2,3.74E2,8E0,1E0,5.14E2,4E0,2.99E2,7.5E1],"tree_param":{"num_deleted":"0","num_feature":"14","num_nodes":"25","size_leaf_vector":"1"}},{"base_weights":[6.283618E-4,-1.407699E-4,2.4449004E-1,-6.379546E-4,9.665476E-3,9.185776E-2,1.8162763E-2,-7.0213154E-4,9.116305E-3,1.2166473E-1,-2.933515E-4,-2.3086397E-4,-1.6661765E-3,-2.9848528E-4,8.950888E-3,7.343402E-2,-2.9011542E-4,-3.875638E-4,2.3488527E-2,-9.2947646E-4,-2.1631909E-3,-2.5438276E-4,1.1638376E-3,-3.262318E-4,1.45824645E-2,-2.859514E-4,-9.493954E-5,-5.64411E-4,-5.336323E-3],"categories":[],"categories_nodes":[],"categories_segments":[],"categories_sizes":[],"default_left":[0,0,0,0,0,0,0,0,0,0,0,0,0,0,0,0,0,0,0,0,0,0,0,0,0,0,0,0,0],"id":3,"left_children":[1,3,5,7,9,-1,-1,11,13,15,-1,17,19,-1,-1,-1,-1,21,23,25,27,-1,-1,-1,-1,-1,-1,-1,-1],"loss_changes":[1.7896833E-1,4.6476573E-3,1.5512392E-2,5.741816E-4,5.495296E-2,0E0,0E0,4.094148E-4,1.2867162E-3,6.062812E-2,0E0,2.2652159E-3,1.0636996E-4,0E0,0E0,0E0,0E0,1.189815E-3,2.5222206E-3,1.45589E-6,7.415201E-4,0E0,0E0,0E0,0E0,0E0,0E0,0E0,0E0],"parents":[2147483647,0,0,1,1,2,2,3,3,4,4,7,7,8,8,9,9,11,11,12,12,17,17,18,18,19,19,20,20],"right_children":[2,4,6,8,10,-1,-1,12,14,16,-1,18,20,-1,-1,-1,-1,22,24,26,28,-1,-1,-1,-1,-1,-1,-1,-1],"split_conditions":[8E-1,3.32E1,1E0,1.6448513E1,3.44E1,9.185776E-2,1.8162763E-2,1.59E2,2.1192001E1,1.219825E1,-2.933515E-4,1.58E2,6.486192E0,-2.9848528E-4,8.950888E-3,7.343402E-2,-2.9011542E-4,6.486192E0,1.6571167E1,3.64E2,3.03E2,-2.5438276E-4,1.1638376E-3,-3.262318E-4,1.45824645E-2,-2.859514E-4,-9.493954E-5,-5.64411E-4,-5.336323E-3],"split_indices":[0,12,0,13,12,0,0,8,3,3,0,8,5,0,0,0,0,5,3,8,8,0,0,0,0,0,0,0,0],"split_type":[0,0,0,0,0,0,0,0,0,0,0,0,0,0,0,0,0,0,0,0,0,0,0,0,0,0,0,0,0],"sum_hessian":[9.53E2,9.51E2,2E0,9.06E2,4.5E1,1E0,1E0,9.01E2,5E0,3E0,4.2E1,6.06E2,2.95E2,4E0,1E0,1E0,2E0,6.03E2,3E0,1.2E2,1.75E2,5.45E2,5.8E1,2E0,1E0,1.15E2,5E0,1.73E2,2E0],"tree_param":{"num_deleted":"0","num_feature":"14","num_nodes":"29","size_leaf_vector":"1"}},{"base_weights":[6.499241E-4,-3.5945793E-6,2.0781654E-1,-4.2723364E-4,8.349541E-3,7.80791E-2,1.5438349E-2,-4.8164278E-4,7.82348E-3,1.0345129E-1,-2.073927E-4,-5.402155E-4,4.7970694E-3,-2.2684882E-4,7.608255E-3,6.241891E-2,-2.3209234E-4,-2.3262124E-4,-1.4054806E-3,-1.3284747E-3,8.989045E-3,-2.5427403E-4,6.049945E-4,-2.2244928E-4,-9.0464286E-4,-4.9937685E-4,-1.4765524E-4],"categories":[],"categories_nodes":[],"categories_segments":[],"categories_sizes":[],"default_left":[0,0,0,0,0,0,0,0,0,0,0,0,0,0,0,0,0,0,0,0,0,0,0,0,0,0,0],"id":4,"left_children":[1,3,5,7,9,-1,-1,11,13,15,-1,17,19,-1,-1,-1,-1,21,23,25,-1,-1,-1,-1,-1,-1,-1],"loss_changes":[1.2916018E-1,3.3724231E-3,1.12077E-2,4.1093345E-4,3.962234E-2,0E0,0E0,2.8147973E-4,9.2196313E-4,4.3773577E-2,0E0,2.3734549E-4,1.5813856E-3,0E0,0E0,0E0,0E0,9.1462664E-4,2.4791234E-4,1.7105212E-6,0E0,0E0,0E0,0E0,0E0,0E0,0E0],"parents":[2147483647,0,0,1,1,2,2,3,3,4,4,7,7,8,8,9,9,11,11,12,12,17,17,18,18,19,19],"right_children":[2,4,6,8,10,-1,-1,12,14,16,-1,18,20,-1,-1,-1,-1,22,24,26,-1,-1,-1,-1,-1,-1,-1],"split_conditions":[8E-1,3.32E1,1E0,1.6448513E1,3.44E1,7.80791E-2,1.5438349E-2,1E-1,2.1192001E1,1.219825E1,-2.073927E-4,1.2E0,1.734E1,-2.2684882E-4,7.608255E-3,6.241891E-2,-2.3209234E-4,3E-1,6.6735883E0,1.36E2,8.989045E-3,-2.5427403E-4,6.049945E-4,-2.2244928E-4,-9.0464286E-4,-4.9937685E-4,-1.4765524E-4],"split_indices":[0,12,0,13,12,0,0,2,3,3,0,4,6,0,0,0,0,4,5,8,0,0,0,0,0,0,0],"split_type":[0,0,0,0,0,0,0,0,0,0,0,0,0,0,0,0,0,0,0,0,0,0,0,0,0,0,0],"sum_hessian":[9.53E2,9.51E2,2E0,9.06E2,4.5E1,1E0,1E0,9.01E2,5E0,3E0,4.2E1,8.92E2,9E0,4E0,1E0,1E0,2E0,6.59E2,2.33E2,8E0,1E0,5.18E2,1.41E2,1.66E2,6.7E1,5E0,3E0],"tree_param":{"num_deleted":"0","num_feature":"14","num_nodes":"27","size_leaf_vector":"1"}},{"base_weights":[6.3360925E-4,7.828894E-5,1.7664406E-1,-2.8258387E-4,7.192057E-3,6.636723E-2,1.3122597E-2,-3.2876228E-4,6.706671E-3,8.7962605E-2,-1.4662181E-4,-3.7902026E-4,4.1921497E-3,-1.724051E-4,6.467017E-3,5.3056076E-2,-1.8567388E-4,-8.8804234E-5,-9.7000867E-4,-3.0054743E-4,7.640688E-3,-6.6508015E-5,5.93013E-3,-1.8171773E-4,-4.2747188E-4],"categories":[],"categories_nodes":[],"categories_segments":[],"categories_sizes":[],"default_left":[0,0,0,0,0,0,0,0,0,0,0,0,0,0,0,0,0,0,0,0,0,0,0,0,0],"id":5,"left_children":[1,3,5,7,9,-1,-1,11,13,15,-1,17,19,-1,-1,-1,-1,21,23,-1,-1,-1,-1,-1,-1],"loss_changes":[9.323221E-2,2.445974E-3,8.097559E-3,2.9494174E-4,2.8580569E-2,0E0,0E0,2.0653396E-4,6.611592E-4,3.1605847E-2,0E0,1.5307615E-4,1.1306276E-3,0E0,0E0,0E0,0E0,1.5875624E-3,4.785604E-5,0E0,0E0,0E0,0E0,0E0,0E0],"parents":[2147483647,0,0,1,1,2,2,3,3,4,4,7,7,8,8,9,9,11,11,12,12,17,17,18,18],"right_children":[2,4,6,8,10,-1,-1,12,14,16,-1,18,20,-1,-1,-1,-1,22,24,-1,-1,-1,-1,-1,-1],"split_conditions":[8E-1,3.32E1,1E0,1.6448513E1,3.44E1,6.636723E-2,1.3122597E-2,1E-1,2.1192001E1,1.219825E1,-1.4662181E-4,1.59E2,1.734E1,-1.724051E-4,6.467017E-3,5.3056076E-2,-1.8567388E-4,1.58E2,3E-1,-3.0054743E-4,7.640688E-3,-6.6508015E-5,5.93013E-3,-1.8171773E-4,-4.2747188E-4],"split_indices":[0,12,0,13,12,0,0,2,3,3,0,8,6,0,0,0,0,8,4,0,0,0,0,0,0],"split_type":[0,0,0,0,0,0,0,0,0,0,0,0,0,0,0,0,0,0,0,0,0,0,0,0,0],"sum_hessian":[9.53E2,9.51E2,2E0,9.06E2,4.5E1,1E0,1E0,9.01E2,5E0,3E0,4.2E1,8.92E2,9E0,4E0,1E0,1E0,2E0,5.99E2,2.93E2,8E0,1E0,5.96E2,3E0,1.64E2,1.29E2],"tree_param":{"num_deleted":"0","num_feature":"14","num_nodes":"25","size_leaf_vector":"1"}},{"base_weights":[6.019152E-4,1.3002595E-4,1.5014745E-1,-1.7698269E-4,6.1806086E-3,5.641215E-2,1.1154206E-2,-2.1617067E-4,5.7437713E-3,7.4791424E-2,-1.036582E-4,-6.466435E-4,2.433637E-4,-1.3102787E-4,5.496964E-3,4.5097664E-2,-1.485391E-4,-5.0276524E-4,-5.141668E-3,4.774866E-2,-3.0575832E-4,-1.0077408E-4,-2.0424905E-4,-1.6337163E-4,2.4037702E-2,-1.1963105E-4,1.1005556E-3],"categories":[],"categories_nodes":[],"categories_segments":[],"categories_sizes":[],"default_left":[0,0,0,0,0,0,0,0,0,0,0,0,0,0,0,0,0,0,0,0,0,0,0,0,0,0,0],"id":6,"left_children":[1,3,5,7,9,-1,-1,11,13,15,-1,17,19,-1,-1,-1,-1,21,-1,23,25,-1,-1,-1,-1,-1,-1],"loss_changes":[6.730323E-2,1.7695113E-3,5.8504865E-3,2.1168584E-4,2.0622963E-2,0E0,0E0,1.7858837E-4,4.744886E-4,2.2821242E-2,0E0,1.0971435E-3,1.1414271E-2,0E0,0E0,0E0,0E0,1.352722E-5,0E0,7.861587E-3,1.615234E-4,0E0,0E0,0E0,0E0,0E0,0E0],"parents":[2147483647,0,0,1,1,2,2,3,3,4,4,7,7,8,8,9,9,11,11,12,12,17,17,19,19,20,20],"right_children":[2,4,6,8,10,-1,-1,12,14,16,-1,18,20,-1,-1,-1,-1,22,-1,24,26,-1,-1,-1,-1,-1,-1],"split_conditions":[8E-1,3.32E1,1E0,1.6448513E1,3.44E1,5.641215E-2,1.1154206E-2,4.011048E0,2.1192001E1,1.219825E1,-1.036582E-4,6.2999997E0,4.051786E0,-1.3102787E-4,5.496964E-3,4.5097664E-2,-1.485391E-4,3E-1,-5.141668E-3,3.4711666E0,1E-1,-1.0077408E-4,-2.0424905E-4,-1.6337163E-4,2.4037702E-2,-1.1963105E-4,1.1005556E-3],"split_indices":[0,12,0,13,12,0,0,10,3,3,0,5,10,0,0,0,0,4,0,3,2,0,0,0,0,0,0],"split_type":[0,0,0,0,0,0,0,0,0,0,0,0,0,0,0,0,0,0,0,0,0,0,0,0,0,0,0],"sum_hessian":[9.53E2,9.51E2,2E0,9.06E2,4.5E1,1E0,1E0,9.01E2,5E0,3E0,4.2E1,4.65E2,4.36E2,4E0,1E0,1E0,2E0,4.62E2,3E0,4E0,4.32E2,2.4E2,2.22E2,2E0,2E0,4.23E2,9E0],"tree_param":{"num_deleted":"0","num_feature":"14","num_nodes":"27","size_leaf_vector":"1"}},{"base_weights":[5.651418E-4,1.6414838E-4,1.2762533E-1,-9.6573116E-5,5.301328E-3,4.7950327E-2,9.481075E-3,-3.7674492E-4,5.1308924E-4,6.359128E-2,-7.328393E-5,-3.1062617E-4,-7.1131643E-3,2.1822305E-2,4.426284E-6,3.8333014E-2,-1.1883128E-4,-3.550653E-4,2.7309349E-3,-3.8121725E-3,-3.417948E-4,6.3295015E-3,-1.4413797E-4,-6.790942E-5,-1.5255089E-4,-8.340435E-4,7.022936E-3,1.2860626E-3,-1.4881771E-4],"categories":[],"categories_nodes":[],"categories_segments":[],"categories_sizes":[],"default_left":[0,0,0,0,0,0,0,0,0,0,0,0,0,0,0,0,0,0,0,0,0,0,0,0,0,0,0,0,0],"id":7,"left_children":[1,3,5,7,9,-1,-1,11,13,15,-1,17,19,-1,21,-1,-1,23,25,-1,-1,-1,27,-1,-1,-1,-1,-1,-1],"loss_changes":[4.8585635E-2,1.2755953E-3,4.226975E-3,1.5511816E-4,1.4885182E-2,0E0,0E0,2.748315E-4,1.0507224E-2,1.6478842E-2,0E0,8.4366024E-5,1.8603142E-4,0E0,8.9617446E-4,0E0,0E0,1.1911121E-5,1.0907478E-3,0E0,0E0,0E0,4.4498674E-4,0E0,0E0,0E0,0E0,0E0,0E0],"parents":[2147483647,0,0,1,1,2,2,3,3,4,4,7,7,8,8,9,9,11,11,12,12,14,14,17,17,18,18,22,22],"right_children":[2,4,6,8,10,-1,-1,12,14,16,-1,18,20,-1,22,-1,-1,24,26,-1,-1,-1,28,-1,-1,-1,-1,-1,-1],"split_conditions":[8E-1,3.32E1,1E0,1.0479166E1,3.44E1,4.7950327E-2,9.481075E-3,7.8351803E0,4.051786E0,1.219825E1,-7.328393E-5,6.6735883E0,2.7E0,2.1822305E-2,1.0742001E1,3.8333014E-2,-1.1883128E-4,3E-1,1.7925E1,-3.8121725E-3,-3.417948E-4,6.3295015E-3,2.4371598E0,-6.790942E-5,-1.5255089E-4,-8.340435E-4,7.022936E-3,1.2860626E-3,-1.4881771E-4],"split_indices":[0,12,0,3,12,0,0,5,10,3,0,5,4,0,3,0,0,4,6,0,0,0,13,0,0,0,0,0,0],"split_type":[0,0,0,0,0,0,0,0,0,0,0,0,0,0,0,0,0,0,0,0,0,0,0,0,0,0,0,0,0],"sum_hessian":[9.53E2,9.51E2,2E0,9.06E2,4.5E1,1E0,1E0,6.21E2,2.85E2,3E0,4.2E1,6.16E2,5E0,1E0,2.84E2,1E0,2E0,6.08E2,8E0,2E0,3E0,1E0,2.83E2,3.32E2,2.76E2,7E0,1E0,2E1,2.63E2],"tree_param":{"num_deleted":"0","num_feature":"14","num_nodes":"29","size_leaf_vector":"1"}},{"base_weights":[5.283831E-4,1.8763963E-4,1.08481534E-1,-3.3308435E-5,4.5400797E-3,4.0757775E-2,8.058914E-3,-6.7011766E-5,5.0389776E-3,5.4067444E-2,-5.181004E-5,1.1404819E-4,-6.870799E-4,-6.386492E-5,4.694742E-3,3.2583065E-2,-9.506503E-5,4.802864E-6,1.14550935E-2,-1.627475E-3,-4.620047E-4,-7.1008515E-5,1.0298756E-3,-3.9881832E-4,-1.4283936E-3,-3.581322E-5,-3.0186053E-4],"categories":[],"categories_nodes":[],"categories_segments":[],"categories_sizes":[],"default_left":[0,0,0,0,0,0,0,0,0,0,0,0,0,0,0,0,0,0,0,0,0,0,0,0,0,0,0],"id":8,"left_children":[1,3,5,7,9,-1,-1,11,13,15,-1,17,19,-1,-1,-1,-1,21,-1,23,25,-1,-1,-1,-1,-1,-1],"loss_changes":[3.5071902E-2,9.1565464E-4,3.053993E-3,1.5539199E-4,1.0746269E-2,0E0,0E0,1.0134546E-4,3.3766998E-4,1.1899505E-2,0E0,2.9069057E-3,4.2426662E-5,0E0,0E0,0E0,0E0,5.786747E-4,0E0,3.010167E-5,3.08317E-5,0E0,0E0,0E0,0E0,0E0,0E0],"parents":[2147483647,0,0,1,1,2,2,3,3,4,4,7,7,8,8,9,9,11,11,12,12,17,17,19,19,20,20],"right_children":[2,4,6,8,10,-1,-1,12,14,16,-1,18,20,-1,-1,-1,-1,22,-1,24,26,-1,-1,-1,-1,-1,-1],"split_conditions":[8E-1,3.32E1,1E0,1.6448513E1,3.44E1,4.0757775E-2,8.058914E-3,1.3697505E1,2.1192001E1,1.219825E1,-5.181004E-5,1.9181252E1,1.59E2,-6.386492E-5,4.694742E-3,3.2583065E-2,-9.506503E-5,1.219825E1,1.14550935E-2,1.58E2,3E-1,-7.1008515E-5,1.0298756E-3,-3.9881832E-4,-1.4283936E-3,-3.581322E-5,-3.0186053E-4],"split_indices":[0,12,0,13,12,0,0,10,3,3,0,3,8,0,0,0,0,3,0,8,4,0,0,0,0,0,0],"split_type":[0,0,0,0,0,0,0,0,0,0,0,0,0,0,0,0,0,0,0,0,0,0,0,0,0,0,0],"sum_hessian":[9.53E2,9.51E2,2E0,9.06E2,4.5E1,1E0,1E0,9.01E2,5E0,3E0,4.2E1,6.98E2,2.03E2,4E0,1E0,1E0,2E0,6.97E2,1E0,3.8E1,1.65E2,6.52E2,4.5E1,3.6E1,2E0,1.02E2,6.3E1],"tree_param":{"num_deleted":"0","num_feature":"14","num_nodes":"27","size_leaf_vector":"1"}},{"base_weights":[4.7063638E-4,1.8104957E-4,9.22093E-2,-6.9102152E-6,3.8831905E-3,3.4644112E-2,6.850076E-3,1.4579482E-4,-8.9668087E-4,4.596921E-2,-3.662849E-5,2.795276E-5,2.2852866E-2,-1.5857791E-3,-4.055785E-4,2.7695606E-2,-7.605201E-5,-1.9139232E-4,8.423015E-4,-1.5641162E-5,9.151574E-3,-4.4398828E-4,-2.2779445E-3,-7.8106025E-4,-2.469529E-4,-4.1167405E-5,-1.6837108E-3,1.8394478E-2,2.8541595E-5,-2.921848E-5,-2.5504825E-4,-5.056488E-4,-8.3137385E-4,4.7638932E-6,-4.1859376E-4,-2.3698136E-5,-2.4280605E-4],"categories":[],"categories_nodes":[],"categories_segments":[],"categories_sizes":[],"default_left":[0,0,0,0,0,0,0,0,0,0,0,0,0,0,0,0,0,0,0,0,0,0,0,0,0,0,0,0,0,0,0,0,0,0,0,0,0],"id":9,"left_children":[1,3,5,7,9,-1,-1,11,13,15,-1,17,19,21,23,-1,-1,25,27,-1,-1,29,31,33,35,-1,-1,-1,-1,-1,-1,-1,-1,-1,-1,-1,-1],"loss_changes":[2.532756E-2,6.6247955E-4,2.20651E-3,1.2336706E-4,7.7596726E-3,0E0,0E0,2.0731436E-3,4.436641E-5,8.593E-3,0E0,1.3805847E-4,7.027015E-4,4.2455562E-5,4.512437E-6,0E0,0E0,1.7805753E-4,7.404162E-3,0E0,0E0,3.014286E-6,5.2657706E-6,1.1281165E-5,5.320304E-6,0E0,0E0,0E0,0E0,0E0,0E0,0E0,0E0,0E0,0E0,0E0,0E0],"parents":[2147483647,0,0,1,1,2,2,3,3,4,4,7,7,8,8,9,9,11,11,12,12,13,13,14,14,17,17,18,18,21,21,22,22,23,23,24,24],"right_children":[2,4,6,8,10,-1,-1,12,14,16,-1,18,20,22,24,-1,-1,26,28,-1,-1,30,32,34,36,-1,-1,-1,-1,-1,-1,-1,-1,-1,-1,-1,-1],"split_conditions":[8E-1,3.32E1,1E0,4.999926E4,3.44E1,3.4644112E-2,6.850076E-3,4.9811254E4,1.450569E1,1.219825E1,-3.662849E-5,1.0479166E1,6.287834E0,1.2071166E1,1.59E2,2.7695606E-2,-7.605201E-5,7.8351803E0,4.051786E0,-1.5641162E-5,9.151574E-3,1.0479166E1,6.928648E0,4.6928687E0,3E-1,-4.1167405E-5,-1.6837108E-3,1.8394478E-2,2.8541595E-5,-2.921848E-5,-2.5504825E-4,-5.056488E-4,-8.3137385E-4,4.7638932E-6,-4.1859376E-4,-2.3698136E-5,-2.4280605E-4],"split_indices":[0,12,0,7,12,0,0,7,10,3,0,3,3,3,8,0,0,5,10,0,0,3,5,13,4,0,0,0,0,0,0,0,0,0,0,0,0],"split_type":[0,0,0,0,0,0,0,0,0,0,0,0,0,0,0,0,0,0,0,0,0,0,0,0,0,0,0,0,0,0,0,0,0,0,0,0,0],"sum_hessian":[9.53E2,9.51E2,2E0,9.06E2,4.5E1,1E0,1E0,7.74E2,1.32E2,3E0,4.2E1,7.71E2,3E0,5.4E1,7.8E1,1E0,2E0,6.08E2,1.63E2,1E0,2E0,2.1E1,3.3E1,2.2E1,5.6E1,6.03E2,5E0,1E0,1.62E2,1.2E1,9E0,1.7E1,1.6E1,1E1,1.2E1,4.4E1,1.2E1],"tree_param":{"num_deleted":"0","num_feature":"14","num_nodes":"37","size_leaf_vector":"1"}},{"base_weights":[4.2652045E-4,1.8042733E-4,7.8377895E-2,2.1108217E-5,3.3178623E-3,2.944749E-2,5.822564E-3,-1.8072153E-4,4.5997885E-4,3.908334E-2,-2.589549E-5,-2.674189E-4,8.4484825E-5,1.6405508E-2,1.7562555E-4,2.3541266E-2,-6.0841612E-5,-1.2545109E-4,-7.407978E-4,1.6379498E-7,1.14625094E-4,-2.8154287E-3,1.3993389E-2,6.635558E-3,-3.695627E-4,-1.4949751E-5,-2.0125043E-4,-2.4692685E-4,-1.20267025E-4,3.9680826E-6,-2.3511208E-4,-1.19830765E-4,-1.5095111E-3,5.963844E-4,1.5635306E-2,-4.0966857E-4,-1.5716798E-5],"categories":[],"categories_nodes":[],"categories_segments":[],"categories_sizes":[],"default_left":[0,0,0,0,0,0,0,0,0,0,0,0,0,0,0,0,0,0,0,0,0,0,0,0,0,0,0,0,0,0,0,0,0,0,0,0,0],"id":10,"left_children":[1,3,5,7,9,-1,-1,11,13,15,-1,17,19,21,23,-1,-1,25,27,29,-1,31,-1,33,35,-1,-1,-1,-1,-1,-1,-1,-1,-1,-1,-1,-1],"loss_changes":[1.8286724E-2,4.7579044E-4,1.5942026E-3,8.04226E-5,5.603972E-3,0E0,0E0,1.4324045E-5,1.2938896E-3,6.2054535E-3,0E0,3.142601E-5,3.864389E-6,3.0374457E-3,9.956222E-4,0E0,0E0,1.4895864E-5,2.6909584E-6,1.2493839E-6,0E0,1.9408177E-5,0E0,4.5468234E-3,8.237951E-5,0E0,0E0,0E0,0E0,0E0,0E0,0E0,0E0,0E0,0E0,0E0,0E0],"parents":[2147483647,0,0,1,1,2,2,3,3,4,4,7,7,8,8,9,9,11,11,12,12,13,13,14,14,17,17,18,18,19,19,21,21,23,23,24,24],"right_children":[2,4,6,8,10,-1,-1,12,14,16,-1,18,20,22,24,-1,-1,26,28,30,-1,32,-1,34,36,-1,-1,-1,-1,-1,-1,-1,-1,-1,-1,-1,-1],"split_conditions":[8E-1,3.32E1,1E0,4.9417906E0,3.44E1,2.944749E-2,5.822564E-3,1.2E0,2.4371598E0,1.219825E1,-2.589549E-5,3E-1,1.31E2,1.8979629E0,1.21E2,2.3541266E-2,-6.0841612E-5,1.0479166E1,1.45E2,8.408667E0,1.14625094E-4,1E-1,1.3993389E-2,1.16E2,1.58E2,-1.4949751E-5,-2.0125043E-4,-2.4692685E-4,-1.20267025E-4,3.9680826E-6,-2.3511208E-4,-1.19830765E-4,-1.5095111E-3,5.963844E-4,1.5635306E-2,-4.0966857E-4,-1.5716798E-5],"split_indices":[0,12,0,5,12,0,0,4,13,3,0,4,8,13,8,0,0,3,8,3,0,4,0,8,8,0,0,0,0,0,0,0,0,0,0,0,0],"split_type":[0,0,0,0,0,0,0,0,0,0,0,0,0,0,0,0,0,0,0,0,0,0,0,0,0,0,0,0,0,0,0,0,0,0,0,0,0],"sum_hessian":[9.53E2,9.51E2,2E0,9.06E2,4.5E1,1E0,1E0,6.21E2,2.85E2,3E0,4.2E1,4.68E2,1.53E2,4E0,2.81E2,1E0,2E0,3.61E2,1.07E2,1.2E2,3.3E1,3E0,1E0,2.1E1,2.6E2,3.18E2,4.3E1,8.5E1,2.2E1,1.19E2,1E0,2E0,1E0,2E1,1E0,6.2E1,1.98E2],"tree_param":{"num_deleted":"0","num_feature":"14","num_nodes":"37","size_leaf_vector":"1"}},{"base_weights":[3.8891548E-4,1.7979174E-4,6.662121E-2,4.5062898E-5,2.8323845E-3,2.5030367E-2,4.9491785E-3,-2.0856227E-4,3.0083282E-4,3.3228442E-2,-1.8307508E-5,-1.8535001E-4,-2.7852093E-3,-1.1482749E-4,1.464948E-3,2.0010076E-2,-4.867329E-5,-5.3477248E-5,-4.4614097E-4,2.9060693E-4,-2.107036E-3,-4.63187E-5,-3.8522547E-3,1.23913335E-2,4.3090162E-4,-2.5073727E-5,2.685647E-5,-4.6291077E-4,-4.9129467E-5,-4.8417463E-5,1.8526003E-3,-2.6074813E-3,2.2209629E-4,4.5208726E-3,-6.619219E-5],"categories":[],"categories_nodes":[],"categories_segments":[],"categories_sizes":[],"default_left":[0,0,0,0,0,0,0,0,0,0,0,0,0,0,0,0,0,0,0,0,0,0,0,0,0,0,0,0,0,0,0,0,0,0,0],"id":11,"left_children":[1,3,5,7,9,-1,-1,11,13,15,-1,17,19,21,23,-1,-1,25,27,-1,-1,29,31,-1,33,-1,-1,-1,-1,-1,-1,-1,-1,-1,-1],"loss_changes":[1.3201633E-2,3.4009884E-4,1.1518113E-3,5.889955E-5,4.047647E-3,0E0,0E0,2.6757025E-5,2.188804E-4,4.4814083E-3,0E0,1.5555366E-5,7.044331E-5,8.5341126E-5,4.8845126E-3,0E0,0E0,1.3074493E-6,4.6827314E-5,0E0,0E0,2.3654196E-4,1.3978506E-4,0E0,1.1192374E-3,0E0,0E0,0E0,0E0,0E0,0E0,0E0,0E0,0E0,0E0],"parents":[2147483647,0,0,1,1,2,2,3,3,4,4,7,7,8,8,9,9,11,11,12,12,13,13,14,14,17,17,18,18,21,21,22,22,24,24],"right_children":[2,4,6,8,10,-1,-1,12,14,16,-1,18,20,22,24,-1,-1,26,28,-1,-1,30,32,-1,34,-1,-1,-1,-1,-1,-1,-1,-1,-1,-1],"split_conditions":[8E-1,3.32E1,1E0,1E-1,3.44E1,2.5030367E-2,4.9491785E-3,3.6E2,1.0479166E1,1.219825E1,-1.8307508E-5,1.219825E1,-1.3291667E0,7.8351803E0,7.0604525E0,2.0010076E-2,-4.867329E-5,1.54E2,1.2878012E1,2.9060693E-4,-2.107036E-3,6.6735883E0,2.7E0,1.23913335E-2,2.4371598E0,-2.5073727E-5,2.685647E-5,-4.6291077E-4,-4.9129467E-5,-4.8417463E-5,1.8526003E-3,-2.6074813E-3,2.2209629E-4,4.5208726E-3,-6.619219E-5],"split_indices":[0,12,0,4,12,0,0,8,3,3,0,3,3,5,9,0,0,8,10,0,0,5,4,0,13,0,0,0,0,0,0,0,0,0,0],"split_type":[0,0,0,0,0,0,0,0,0,0,0,0,0,0,0,0,0,0,0,0,0,0,0,0,0,0,0,0,0,0,0,0,0,0,0],"sum_hessian":[9.53E2,9.51E2,2E0,9.06E2,4.5E1,1E0,1E0,4.55E2,4.51E2,3E0,4.2E1,4.52E2,3E0,3.33E2,1.18E2,1E0,2E0,3.01E2,1.51E2,2E0,1E0,3.28E2,5E0,2E0,1.16E2,2.49E2,5.2E1,3E1,1.21E2,3.23E2,5E0,2E0,3E0,4E0,1.12E2],"tree_param":{"num_deleted":"0","num_feature":"14","num_nodes":"35","size_leaf_vector":"1"}},{"base_weights":[3.3918084E-4,1.6144376E-4,5.6628022E-2,4.691131E-5,2.4162151E-3,2.127581E-2,4.2068013E-3,-9.228995E-5,4.3415936E-4,2.8250264E-2,-1.2942982E-5,-1.2391222E-4,5.1879855E-3,2.6572103E-2,-8.819257E-6,1.7008567E-2,-3.893863E-5,-1.13883456E-4,-1.0174519E-3,-2.1699858E-4,3.4382893E-3,1.1223483E-2,-8.919622E-4,1.2338857E-2,-2.1985295E-4,-2.0927795E-5,-1.6467537E-4,-2.6853306E-3,1.143131E-2,-4.1893875E-4,4.22664E-5],"categories":[],"categories_nodes":[],"categories_segments":[],"categories_sizes":[],"default_left":[0,0,0,0,0,0,0,0,0,0,0,0,0,0,0,0,0,0,0,0,0,0,0,0,0,0,0,0,0,0,0],"id":12,"left_children":[1,3,5,7,9,-1,-1,11,13,15,-1,17,19,21,23,-1,-1,25,-1,-1,-1,-1,-1,27,29,-1,-1,-1,-1,-1,-1],"loss_changes":[9.5352605E-3,2.457354E-4,8.321842E-4,4.8932277E-5,2.9238374E-3,0E0,0E0,1.121817E-4,2.7790864E-3,3.2364377E-3,0E0,2.1405765E-5,1.5661621E-4,1.3922583E-3,6.2028156E-4,0E0,0E0,1.2707535E-5,0E0,0E0,0E0,0E0,0E0,2.5352626E-3,9.951833E-5,0E0,0E0,0E0,0E0,0E0,0E0],"parents":[2147483647,0,0,1,1,2,2,3,3,4,4,7,7,8,8,9,9,11,11,12,12,13,13,14,14,17,17,23,23,24,24],"right_children":[2,4,6,8,10,-1,-1,12,14,16,-1,18,20,22,24,-1,-1,26,-1,-1,-1,-1,-1,28,30,-1,-1,-1,-1,-1,-1],"split_conditions":[8E-1,3.32E1,1E0,6.486192E0,3.44E1,2.127581E-2,4.2068013E-3,1E-1,3.2130709E0,1.219825E1,-1.2942982E-5,1.9443487E1,1E-1,8E-1,4.051786E0,1.7008567E-2,-3.893863E-5,1.0479166E1,-1.0174519E-3,-2.1699858E-4,3.4382893E-3,1.1223483E-2,-8.919622E-4,9.667E0,1.58E2,-2.0927795E-5,-1.6467537E-4,-2.6853306E-3,1.143131E-2,-4.1893875E-4,4.22664E-5],"split_indices":[0,12,0,5,12,0,0,2,13,3,0,9,4,4,10,0,0,3,0,0,0,0,0,3,8,0,0,0,0,0,0],"split_type":[0,0,0,0,0,0,0,0,0,0,0,0,0,0,0,0,0,0,0,0,0,0,0,0,0,0,0,0,0,0,0],"sum_hessian":[9.53E2,9.51E2,2E0,9.06E2,4.5E1,1E0,1E0,6.67E2,2.39E2,3E0,4.2E1,6.64E2,3E0,3E0,2.36E2,1E0,2E0,6.63E2,1E0,2E0,1E0,2E0,1E0,3E0,2.33E2,6.03E2,6E1,2E0,1E0,5.4E1,1.79E2],"tree_param":{"num_deleted":"0","num_feature":"14","num_nodes":"31","size_leaf_vector":"1"}},{"base_weights":[3.0363034E-4,1.5258603E-4,4.8133817E-2,5.5681434E-5,2.0599747E-3,1.8084437E-2,3.5757804E-3,3.744569E-5,2.7878417E-3,2.4017598E-2,-9.150386E-6,1.2041786E-4,-4.0014685E-4,-4.5873105E-5,2.6237404E-3,1.4457286E-2,-3.1150907E-5,4.6450015E-5,1.4070236E-2,-1.1633628E-4,-9.00036E-4,-1.7553051E-5,2.2307852E-4,8.37004E-3,4.806817E-5,1.4294701E-4,-4.038048E-5,-5.6105125E-4,-1.2507474E-4],"categories":[],"categories_nodes":[],"categories_segments":[],"categories_sizes":[],"default_left":[0,0,0,0,0,0,0,0,0,0,0,0,0,0,0,0,0,0,0,0,0,0,0,0,0,0,0,0,0],"id":13,"left_children":[1,3,5,7,9,-1,-1,11,13,15,-1,17,19,-1,-1,-1,-1,21,23,25,27,-1,-1,-1,-1,-1,-1,-1,-1],"loss_changes":[6.8848073E-3,1.7584796E-4,6.01253E-4,4.508505E-5,2.1122193E-3,0E0,0E0,3.2798005E-5,1.064626E-4,2.3373878E-3,0E0,7.825115E-4,2.0325126E-5,0E0,0E0,0E0,0E0,5.536189E-5,7.6502556E-4,1.0711548E-6,2.3592263E-5,0E0,0E0,0E0,0E0,0E0,0E0,0E0,0E0],"parents":[2147483647,0,0,1,1,2,2,3,3,4,4,7,7,8,8,9,9,11,11,12,12,17,17,18,18,19,19,20,20],"right_children":[2,4,6,8,10,-1,-1,12,14,16,-1,18,20,-1,-1,-1,-1,22,24,26,28,-1,-1,-1,-1,-1,-1,-1,-1],"split_conditions":[8E-1,3.32E1,1E0,1.6448513E1,3.44E1,1.8084437E-2,3.5757804E-3,1.701194E1,2.1192001E1,1.219825E1,-9.150386E-6,1.9569082E1,3E-1,-4.5873105E-5,2.6237404E-3,1.4457286E-2,-3.1150907E-5,1.219825E1,1.9694084E1,9.708333E-1,1.1000001E0,-1.7553051E-5,2.2307852E-4,8.37004E-3,4.806817E-5,1.4294701E-4,-4.038048E-5,-5.6105125E-4,-1.2507474E-4],"split_indices":[0,12,0,13,12,0,0,9,3,3,0,3,4,0,0,0,0,3,3,5,4,0,0,0,0,0,0,0,0],"split_type":[0,0,0,0,0,0,0,0,0,0,0,0,0,0,0,0,0,0,0,0,0,0,0,0,0,0,0,0,0],"sum_hessian":[9.53E2,9.51E2,2E0,9.06E2,4.5E1,1E0,1E0,9.01E2,5E0,3E0,4.2E1,7.58E2,1.43E2,4E0,1E0,1E0,2E0,7.55E2,3E0,9.2E1,5.1E1,6.57E2,9.8E1,1E0,2E0,2E0,9E1,1.6E1,3.5E1],"tree_param":{"num_deleted":"0","num_feature":"14","num_nodes":"29","size_leaf_vector":"1"}},{"base_weights":[2.6148793E-4,1.331074E-4,4.091375E-2,5.068365E-5,1.755395E-3,1.5371776E-2,3.0394124E-3,3.5125573E-5,2.3811343E-3,2.0418853E-2,-6.4691108E-6,1.0765478E-4,-3.8504446E-4,-3.4863562E-5,2.2301797E-3,1.2288693E-2,-2.4920724E-5,4.6190216E-5,1.58067E-2,-7.992885E-4,-1.00616686E-4,4.5913006E-5,-1.5962763E-4,-1.5193388E-6,7.114534E-3,-1.5336997E-4,-6.0468254E-4,9.3280796E-5,-5.553331E-5],"categories":[],"categories_nodes":[],"categories_segments":[],"categories_sizes":[],"default_left":[0,0,0,0,0,0,0,0,0,0,0,0,0,0,0,0,0,0,0,0,0,0,0,0,0,0,0,0,0],"id":14,"left_children":[1,3,5,7,9,-1,-1,11,13,15,-1,17,19,-1,-1,-1,-1,21,23,25,27,-1,-1,-1,-1,-1,-1,-1,-1],"loss_changes":[4.9734414E-3,1.2720774E-4,4.3440657E-4,3.2801763E-5,1.5259932E-3,0E0,0E0,2.752954E-5,7.657542E-5,1.6881239E-3,0E0,7.422698E-4,1.5589969E-5,0E0,0E0,0E0,0E0,4.7537134E-5,3.7525792E-4,1.7889393E-5,2.8394675E-6,0E0,0E0,0E0,0E0,0E0,0E0,0E0,0E0],"parents":[2147483647,0,0,1,1,2,2,3,3,4,4,7,7,8,8,9,9,11,11,12,12,17,17,18,18,19,19,20,20],"right_children":[2,4,6,8,10,-1,-1,12,14,16,-1,18,20,-1,-1,-1,-1,22,24,26,28,-1,-1,-1,-1,-1,-1,-1,-1],"split_conditions":[8E-1,3.32E1,1E0,1.6448513E1,3.44E1,1.5371776E-2,3.0394124E-3,4.999926E4,2.1192001E1,1.219825E1,-6.4691108E-6,4.9811254E4,1.4378012E1,-3.4863562E-5,2.2301797E-3,1.2288693E-2,-2.4920724E-5,8.296546E0,6.287834E0,2E-1,4.6316614E0,4.5913006E-5,-1.5962763E-4,-1.5193388E-6,7.114534E-3,-1.5336997E-4,-6.0468254E-4,9.3280796E-5,-5.553331E-5],"split_indices":[0,12,0,13,12,0,0,7,3,3,0,7,10,0,0,0,0,5,3,4,5,0,0,0,0,0,0,0,0],"split_type":[0,0,0,0,0,0,0,0,0,0,0,0,0,0,0,0,0,0,0,0,0,0,0,0,0,0,0,0,0],"sum_hessian":[9.53E2,9.51E2,2E0,9.06E2,4.5E1,1E0,1E0,9.01E2,5E0,3E0,4.2E1,7.69E2,1.32E2,4E0,1E0,1E0,2E0,7.67E2,2E0,5.3E1,7.9E1,6.48E2,1.19E2,1E0,1E0,4.4E1,9E0,1.3E1,6.6E1],"tree_param":{"num_deleted":"0","num_feature":"14","num_nodes":"29","size_leaf_vector":"1"}},{"base_weights":[2.2407173E-4,1.149521E-4,3.4776676E-2,-8.7873435E-5,6.302596E-4,1.3066006E-2,2.5834993E-3,-1.1413606E-4,4.4053067E-3,2.1845173E-2,6.320765E-5,-1.06582695E-4,-7.875634E-4,-1.834057E-4,2.9182928E-3,3.1635582E-2,-1.7538968E-3,1.07936505E-2,-1.02119186E-4,-7.137847E-5,-4.330072E-4,-1.422796E-4,1.19344825E-2,-7.6242187E-4,-2.683173E-5,-2.1333823E-3,9.676264E-3,-1.2736062E-3,6.788604E-5,-3.9746756E-5,2.7203972E-5,-4.1561638E-5,-8.6854916E-4,-5.762981E-4,-1.8821847E-4,-6.179777E-5,1.7611482E-4],"categories":[],"categories_nodes":[],"categories_segments":[],"categories_sizes":[],"default_left":[0,0,0,0,0,0,0,0,0,0,0,0,0,0,0,0,0,0,0,0,0,0,0,0,0,0,0,0,0,0,0,0,0,0,0,0,0],"id":15,"left_children":[1,3,5,7,9,-1,-1,11,13,15,17,19,-1,-1,-1,21,23,25,27,29,31,-1,-1,-1,-1,-1,-1,33,35,-1,-1,-1,-1,-1,-1,-1,-1],"loss_changes":[3.592933E-3,9.9556055E-5,3.138585E-4,8.1216655E-5,3.234678E-3,0E0,0E0,1.2636764E-5,1.1274838E-4,1.6727974E-3,4.6767216E-4,7.783327E-6,0E0,0E0,0E0,1.3267053E-3,3.7050268E-6,1.7663673E-3,5.186778E-5,6.102667E-6,4.745071E-5,0E0,0E0,0E0,0E0,0E0,0E0,1.2600296E-5,3.2539727E-5,0E0,0E0,0E0,0E0,0E0,0E0,0E0,0E0],"parents":[2147483647,0,0,1,1,2,2,3,3,4,4,7,7,8,8,9,9,10,10,11,11,15,15,16,16,17,17,18,18,19,19,20,20,27,27,28,28],"right_children":[2,4,6,8,10,-1,-1,12,14,16,18,20,-1,-1,-1,22,24,26,28,30,32,-1,-1,-1,-1,-1,-1,34,36,-1,-1,-1,-1,-1,-1,-1,-1],"split_conditions":[8E-1,6.486192E0,1E0,1E-1,3.647222E0,1.3066006E-2,2.5834993E-3,1.9443487E1,1E-1,1.4E2,4.051786E0,1.0479166E1,-7.875634E-4,-1.834057E-4,2.9182928E-3,1E-1,9.456583E0,9.667E0,1.46E2,1.2E0,2E-1,-1.422796E-4,1.19344825E-2,-7.6242187E-4,-2.683173E-5,-2.1333823E-3,9.676264E-3,1.1080542E1,1.1E0,-3.9746756E-5,2.7203972E-5,-4.1561638E-5,-8.6854916E-4,-5.762981E-4,-1.8821847E-4,-6.179777E-5,1.7611482E-4],"split_indices":[0,5,0,2,13,0,0,9,4,8,10,3,0,0,0,4,3,3,8,4,4,0,0,0,0,0,0,10,4,0,0,0,0,0,0,0,0],"split_type":[0,0,0,0,0,0,0,0,0,0,0,0,0,0,0,0,0,0,0,0,0,0,0,0,0,0,0,0,0,0,0,0,0,0,0,0,0],"sum_hessian":[9.53E2,9.51E2,2E0,6.83E2,2.68E2,1E0,1E0,6.8E2,3E0,6E0,2.62E2,6.79E2,1E0,2E0,1E0,4E0,2E0,3E0,2.59E2,6.14E2,6.5E1,1E0,3E0,1E0,1E0,2E0,1E0,3.2E1,2.27E2,4.46E2,1.68E2,5.9E1,6E0,1.5E1,1.7E1,1.49E2,7.8E1],"tree_param":{"num_deleted":"0","num_feature":"14","num_nodes":"37","size_leaf_vector":"1"}},{"base_weights":[1.9308695E-4,1.0034076E-4,2.9560179E-2,-6.0013354E-5,5.0770835E-4,1.1106107E-2,2.1959739E-3,-8.240657E-5,3.7674357E-3,1.6863475E-2,7.045327E-5,-7.596473E-5,-6.6942885E-4,-1.4672456E-4,2.4805483E-3,2.4503352E-2,-1.4908123E-3,9.441275E-3,-7.39842E-5,-1.2242013E-4,1.292631E-4,-1.2093766E-4,3.0830754E-2,-6.480586E-4,-2.2806971E-5,-1.7067059E-3,8.224824E-3,-3.5292134E-4,5.580359E-4,-3.4689565E-5,-5.8246567E-4,1.9521558E-5,8.457313E-5,2.1410265E-3,1.0904951E-2,-5.1335874E-4,-8.65331E-5,6.020937E-3,1.7101116E-5],"categories":[],"categories_nodes":[],"categories_segments":[],"categories_sizes":[],"default_left":[0,0,0,0,0,0,0,0,0,0,0,0,0,0,0,0,0,0,0,0,0,0,0,0,0,0,0,0,0,0,0,0,0,0,0,0,0,0,0],"id":16,"left_children":[1,3,5,7,9,-1,-1,11,13,15,17,19,-1,-1,-1,21,23,25,27,29,31,-1,33,-1,-1,-1,-1,35,37,-1,-1,-1,-1,-1,-1,-1,-1,-1,-1],"loss_changes":[2.5954298E-3,6.221802E-5,2.2676308E-4,5.8935355E-5,1.9226035E-3,0E0,0E0,9.258025E-6,8.067931E-5,1.0181016E-3,3.5666843E-4,6.498903E-6,0E0,0E0,0E0,8.0039515E-4,2.6768816E-6,1.2438269E-3,4.603335E-5,6.629025E-6,1.2162818E-6,0E0,2.6365696E-4,0E0,0E0,0E0,0E0,1.5358108E-5,7.8093726E-4,0E0,0E0,0E0,0E0,0E0,0E0,0E0,0E0,0E0,0E0],"parents":[2147483647,0,0,1,1,2,2,3,3,4,4,7,7,8,8,9,9,10,10,11,11,15,15,16,16,17,17,18,18,19,19,20,20,22,22,27,27,28,28],"right_children":[2,4,6,8,10,-1,-1,12,14,16,18,20,-1,-1,-1,22,24,26,28,30,32,-1,34,-1,-1,-1,-1,36,38,-1,-1,-1,-1,-1,-1,-1,-1,-1,-1],"split_conditions":[8E-1,6.486192E0,1E0,1E-1,3.647222E0,1.1106107E-2,2.1959739E-3,1.9443487E1,1E-1,1.4E2,4.051786E0,1.59E2,-6.6942885E-4,-1.4672456E-4,2.4805483E-3,1E-1,9.456583E0,9.667E0,1.9569082E1,1.58E2,1.2E0,-1.2093766E-4,8.66075E0,-6.480586E-4,-2.2806971E-5,-1.7067059E-3,8.224824E-3,8.289917E0,1.6350332E1,-3.4689565E-5,-5.8246567E-4,1.9521558E-5,8.457313E-5,2.1410265E-3,1.0904951E-2,-5.1335874E-4,-8.65331E-5,6.020937E-3,1.7101116E-5],"split_indices":[0,5,0,2,13,0,0,9,4,8,10,8,0,0,0,4,3,3,3,8,4,0,3,0,0,0,0,10,9,0,0,0,0,0,0,0,0,0,0],"split_type":[0,0,0,0,0,0,0,0,0,0,0,0,0,0,0,0,0,0,0,0,0,0,0,0,0,0,0,0,0,0,0,0,0,0,0,0,0,0,0],"sum_hessian":[9.53E2,9.51E2,2E0,6.83E2,2.68E2,1E0,1E0,6.8E2,3E0,6E0,2.62E2,6.79E2,1E0,2E0,1E0,4E0,2E0,3E0,2.59E2,5.54E2,1.25E2,1E0,3E0,1E0,1E0,2E0,1E0,1.8E2,7.9E1,5.53E2,1E0,8.9E1,3.6E1,1E0,2E0,7E0,1.73E2,1E0,7.8E1],"tree_param":{"num_deleted":"0","num_feature":"14","num_nodes":"39","size_leaf_vector":"1"}},{"base_weights":[1.7568895E-4,9.687903E-5,2.5126144E-2,-4.032612E-5,4.4539737E-4,9.440187E-3,1.8665784E-3,-5.9421003E-5,3.2206601E-3,1.3555026E-2,9.477838E-5,-5.3929816E-5,-5.690145E-4,-1.1737964E-4,2.1084656E-3,1.973735E-2,-1.2671906E-3,8.238421E-3,-3.087297E-5,2.5925423E-5,-1.6271169E-4,-1.0279701E-4,2.4843017E-2,-5.508498E-4,-1.9385927E-5,-1.3653645E-3,6.9911E-3,-2.5035927E-4,4.6610067E-4,2.2749641E-6,1.2229006E-4,-3.7942802E-5,-5.534128E-4,1.8198722E-3,8.723959E-3,-1.7741157E-4,-1.6252972E-5,5.117797E-3,1.203573E-5],"categories":[],"categories_nodes":[],"categories_segments":[],"categories_sizes":[],"default_left":[0,0,0,0,0,0,0,0,0,0,0,0,0,0,0,0,0,0,0,0,0,0,0,0,0,0,0,0,0,0,0,0,0,0,0,0,0,0,0],"id":17,"left_children":[1,3,5,7,9,-1,-1,11,13,15,17,19,-1,-1,-1,21,23,25,27,29,31,-1,33,-1,-1,-1,-1,35,37,-1,-1,-1,-1,-1,-1,-1,-1,-1,-1],"loss_changes":[1.8734576E-3,4.5541183E-5,1.6383606E-4,4.2782798E-5,1.2351698E-3,0E0,0E0,6.7682704E-6,5.7760368E-5,6.6646107E-4,2.6937164E-4,5.9112444E-6,0E0,0E0,0E0,5.211219E-4,1.9340473E-6,8.7677594E-4,2.8477205E-5,2.748447E-6,1.7319806E-5,0E0,1.4181156E-4,0E0,0E0,0E0,0E0,1.2077001E-5,5.647881E-4,0E0,0E0,0E0,0E0,0E0,0E0,0E0,0E0,0E0,0E0],"parents":[2147483647,0,0,1,1,2,2,3,3,4,4,7,7,8,8,9,9,10,10,11,11,15,15,16,16,17,17,18,18,19,19,20,20,22,22,27,27,28,28],"right_children":[2,4,6,8,10,-1,-1,12,14,16,18,20,-1,-1,-1,22,24,26,28,30,32,-1,34,-1,-1,-1,-1,36,38,-1,-1,-1,-1,-1,-1,-1,-1,-1,-1],"split_conditions":[8E-1,6.486192E0,1E0,1E-1,3.647222E0,9.440187E-3,1.8665784E-3,1.9443487E1,1E-1,1.4E2,4.051786E0,3E-1,-5.690145E-4,-1.1737964E-4,2.1084656E-3,1E-1,9.456583E0,9.667E0,1.9569082E1,5.89247E0,1.01919985E1,-1.0279701E-4,8.66075E0,-5.508498E-4,-1.9385927E-5,-1.3653645E-3,6.9911E-3,1.64E2,1.6350332E1,2.2749641E-6,1.2229006E-4,-3.7942802E-5,-5.534128E-4,1.8198722E-3,8.723959E-3,-1.7741157E-4,-1.6252972E-5,5.117797E-3,1.203573E-5],"split_indices":[0,5,0,2,13,0,0,9,4,8,10,4,0,0,0,4,3,3,3,13,3,0,3,0,0,0,0,8,9,0,0,0,0,0,0,0,0,0,0],"split_type":[0,0,0,0,0,0,0,0,0,0,0,0,0,0,0,0,0,0,0,0,0,0,0,0,0,0,0,0,0,0,0,0,0,0,0,0,0,0,0],"sum_hessian":[9.53E2,9.51E2,2E0,6.83E2,2.68E2,1E0,1E0,6.8E2,3E0,6E0,2.62E2,6.79E2,1E0,2E0,1E0,4E0,2E0,3E0,2.59E2,3.92E2,2.87E2,1E0,3E0,1E0,1E0,2E0,1E0,1.8E2,7.9E1,3.75E2,1.7E1,2.82E2,5E0,1E0,2E0,6.5E1,1.15E2,1E0,7.8E1],"tree_param":{"num_deleted":"0","num_feature":"14","num_nodes":"39","size_leaf_vector":"1"}},{"base_weights":[1.5725348E-4,9.028167E-5,2.1357223E-2,-2.9535067E-5,3.8385286E-4,8.02416E-3,1.5865915E-3,-4.6000263E-5,2.7522345E-3,1.089863E-2,1.0982586E-4,-1.3539138E-5,-3.6060676E-4,-9.390371E-5,1.7921963E-3,1.5904348E-2,-1.0771119E-3,7.1733277E-3,3.5942753E-6,-6.0696777E-5,3.3130327E-5,-9.928954E-5,-8.479716E-4,-8.7377455E-5,2.0026065E-2,-4.6822234E-4,-1.6478036E-5,-1.0922918E-3,5.9424345E-3,-3.947356E-5,1.8836241E-3,1.4889204E-5,-1.1415033E-4,-2.7333805E-4,6.950259E-5,1.5468915E-3,6.9791656E-3,1.7514286E-4,-5.2473777E-5,-6.7841334E-5,1.8648651E-3],"categories":[],"categories_nodes":[],"categories_segments":[],"categories_sizes":[],"default_left":[0,0,0,0,0,0,0,0,0,0,0,0,0,0,0,0,0,0,0,0,0,0,0,0,0,0,0,0,0,0,0,0,0,0,0,0,0,0,0,0,0],"id":18,"left_children":[1,3,5,7,9,-1,-1,11,13,15,17,19,21,-1,-1,23,25,27,29,31,-1,33,-1,-1,35,-1,-1,-1,-1,37,39,-1,-1,-1,-1,-1,-1,-1,-1,-1,-1],"loss_changes":[1.3525615E-3,3.3497694E-5,1.1837145E-4,3.1134816E-5,7.940509E-4,0E0,0E0,6.8783293E-6,4.13718E-5,4.3676107E-4,2.025733E-4,3.584639E-6,4.0316496E-5,0E0,0E0,3.396013E-4,1.3973493E-6,6.186663E-4,2.1693028E-5,1.5684625E-5,0E0,1.5795082E-5,0E0,0E0,7.262663E-5,0E0,0E0,0E0,0E0,2.2219332E-5,5.625016E-5,0E0,0E0,0E0,0E0,0E0,0E0,0E0,0E0,0E0,0E0],"parents":[2147483647,0,0,1,1,2,2,3,3,4,4,7,7,8,8,9,9,10,10,11,11,12,12,15,15,16,16,17,17,18,18,19,19,21,21,24,24,29,29,30,30],"right_children":[2,4,6,8,10,-1,-1,12,14,16,18,20,22,-1,-1,24,26,28,30,32,-1,34,-1,-1,36,-1,-1,-1,-1,38,40,-1,-1,-1,-1,-1,-1,-1,-1,-1,-1],"split_conditions":[8E-1,6.2999997E0,1E0,1E-1,3.647222E0,8.02416E-3,1.5865915E-3,1.0479166E1,1E-1,1.4E2,4.051786E0,1.2E0,2E-1,-9.390371E-5,1.7921963E-3,1E-1,9.456583E0,9.667E0,1.6448513E1,3E-1,3.3130327E-5,2.3334455E0,-8.479716E-4,-8.7377455E-5,8.66075E0,-4.6822234E-4,-1.6478036E-5,-1.0922918E-3,5.9424345E-3,1.2E0,2.1192001E1,1.4889204E-5,-1.1415033E-4,-2.7333805E-4,6.950259E-5,1.5468915E-3,6.9791656E-3,1.7514286E-4,-5.2473777E-5,-6.7841334E-5,1.8648651E-3],"split_indices":[0,5,0,2,13,0,0,3,4,8,10,4,4,0,0,4,3,3,13,4,0,13,0,0,3,0,0,0,0,12,3,0,0,0,0,0,0,0,0,0,0],"split_type":[0,0,0,0,0,0,0,0,0,0,0,0,0,0,0,0,0,0,0,0,0,0,0,0,0,0,0,0,0,0,0,0,0,0,0,0,0,0,0,0,0],"sum_hessian":[9.53E2,9.51E2,2E0,6.76E2,2.75E2,1E0,1E0,6.73E2,3E0,6E0,2.69E2,6.11E2,6.2E1,2E0,1E0,4E0,2E0,3E0,2.66E2,4.43E2,1.68E2,5.7E1,5E0,1E0,3E0,1E0,1E0,2E0,1E0,2.61E2,5E0,3.3E2,1.13E2,1.6E1,4.1E1,1E0,2E0,4.6E1,2.15E2,4E0,1E0],"tree_param":{"num_deleted":"0","num_feature":"14","num_nodes":"41","size_leaf_vector":"1"}},{"base_weights":[1.361937E-4,7.927297E-5,1.8153643E-2,-1.981731E-5,3.2204416E-4,6.8205358E-3,1.3486035E-3,-3.3858847E-5,2.3511362E-3,8.765323E-3,1.0195156E-4,-1.0177285E-5,-2.7603054E-4,-7.512297E-5,1.5233663E-3,1.2820779E-2,-9.155451E-4,6.233865E-3,9.705851E-6,-4.3247084E-5,3.1332776E-5,-6.9859234E-5,-2.119929E-3,-7.427084E-5,1.614976E-2,-3.9798897E-4,-1.4006331E-5,-8.7383337E-4,5.051069E-3,-2.7163293E-5,1.6180408E-3,-8.874593E-6,-1.8621115E-4,-2.0089904E-4,4.5385557E-5,-1.3512651E-4,-7.091239E-4,1.314858E-3,5.583332E-3,1.2371794E-4,-3.680453E-5,-5.155941E-5,1.5851354E-3],"categories":[],"categories_nodes":[],"categories_segments":[],"categories_sizes":[],"default_left":[0,0,0,0,0,0,0,0,0,0,0,0,0,0,0,0,0,0,0,0,0,0,0,0,0,0,0,0,0,0,0,0,0,0,0,0,0,0,0,0,0,0,0],"id":19,"left_children":[1,3,5,7,9,-1,-1,11,13,15,17,19,21,-1,-1,23,25,27,29,31,-1,33,35,-1,37,-1,-1,-1,-1,39,41,-1,-1,-1,-1,-1,-1,-1,-1,-1,-1,-1,-1],"loss_changes":[9.769513E-4,2.2907945E-5,8.552335E-5,2.261818E-5,5.119981E-4,0E0,0E0,3.8625835E-6,2.9646631E-5,2.8656045E-4,1.5266304E-4,2.3356474E-6,2.2661443E-5,0E0,0E0,2.215195E-4,1.0095846E-6,4.3697067E-4,1.5876498E-5,3.753541E-6,0E0,7.396694E-6,1.3776444E-6,0E0,3.4279772E-5,0E0,0E0,0E0,0E0,1.1050859E-5,4.02761E-5,0E0,0E0,0E0,0E0,0E0,0E0,0E0,0E0,0E0,0E0,0E0,0E0],"parents":[2147483647,0,0,1,1,2,2,3,3,4,4,7,7,8,8,9,9,10,10,11,11,12,12,15,15,16,16,17,17,18,18,19,19,21,21,22,22,24,24,29,29,30,30],"right_children":[2,4,6,8,10,-1,-1,12,14,16,18,20,22,-1,-1,24,26,28,30,32,-1,34,36,-1,38,-1,-1,-1,-1,40,42,-1,-1,-1,-1,-1,-1,-1,-1,-1,-1,-1,-1],"split_conditions":[8E-1,6.2999997E0,1E0,1E-1,3.647222E0,6.8205358E-3,1.3486035E-3,1.0925E1,1E-1,1.4E2,4.051786E0,1.25E2,2E-1,-7.512297E-5,1.5233663E-3,1E-1,9.456583E0,9.667E0,1.6448513E1,4.9417906E0,3.1332776E-5,2.3334455E0,1.14E2,-7.427084E-5,8.66075E0,-3.9798897E-4,-1.4006331E-5,-8.7383337E-4,5.051069E-3,1.2E0,2.1192001E1,-8.874593E-6,-1.8621115E-4,-2.0089904E-4,4.5385557E-5,-1.3512651E-4,-7.091239E-4,1.314858E-3,5.583332E-3,1.2371794E-4,-3.680453E-5,-5.155941E-5,1.5851354E-3],"split_indices":[0,5,0,2,13,0,0,3,4,8,10,8,4,0,0,4,3,3,13,5,0,13,8,0,3,0,0,0,0,12,3,0,0,0,0,0,0,0,0,0,0,0,0],"split_type":[0,0,0,0,0,0,0,0,0,0,0,0,0,0,0,0,0,0,0,0,0,0,0,0,0,0,0,0,0,0,0,0,0,0,0,0,0,0,0,0,0,0,0],"sum_hessian":[9.53E2,9.51E2,2E0,6.76E2,2.75E2,1E0,1E0,6.73E2,3E0,6E0,2.69E2,6.14E2,5.9E1,2E0,1E0,4E0,2E0,3E0,2.66E2,4.77E2,1.37E2,5.4E1,5E0,1E0,3E0,1E0,1E0,2E0,1E0,2.61E2,5E0,4.67E2,1E1,1.4E1,4E1,1E0,4E0,1E0,2E0,4.6E1,2.15E2,4E0,1E0],"tree_param":{"num_deleted":"0","num_feature":"14","num_nodes":"43","size_leaf_vector":"1"}},{"base_weights":[1.1699544E-4,6.861542E-5,1.5430589E-2,-1.3451546E-5,2.6966876E-4,5.797452E-3,1.1463136E-3,-2.5427476E-5,2.0078558E-3,4.91802E-3,2.5124843E-6,-5.54623E-6,-1.9689501E-4,-6.0098373E-5,1.2948611E-3,1.5395902E-2,1.0155581E-3,-1.4565078E-3,5.4200165E-5,-3.9761253E-5,2.847393E-5,-8.312627E-4,-1.13215065E-4,1.1176296E-3,5.4132747E-3,2.8734943E-3,-6.336299E-4,-4.895723E-4,-7.9965885E-6,-1.0849561E-4,3.6233646E-4,7.846485E-6,-7.900869E-5,-8.065176E-5,-5.0370663E-4,-1.2198692E-4,-1.4039808E-6,-4.366593E-4,-8.677789E-5,-1.4384378E-6,-1.7457084E-4,4.305299E-3,1.097799E-5],"categories":[],"categories_nodes":[],"categories_segments":[],"categories_sizes":[],"default_left":[0,0,0,0,0,0,0,0,0,0,0,0,0,0,0,0,0,0,0,0,0,0,0,0,0,0,0,0,0,0,0,0,0,0,0,0,0,0,0,0,0,0,0],"id":20,"left_children":[1,3,5,7,9,-1,-1,11,13,15,17,19,21,-1,-1,23,25,27,29,31,-1,33,35,-1,-1,-1,37,-1,-1,39,41,-1,-1,-1,-1,-1,-1,-1,-1,-1,-1,-1,-1],"loss_changes":[7.057331E-4,1.5711474E-5,6.1790284E-5,1.6439217E-5,3.4273448E-4,0E0,0E0,2.2965662E-6,2.125368E-5,5.9770764E-4,1.9837249E-5,2.0832906E-6,3.6217577E-6,0E0,0E0,5.640724E-5,1.7552824E-4,2.213661E-6,1.277296E-5,6.6688854E-6,0E0,3.3630113E-6,2.0043367E-6,0E0,0E0,0E0,2.6923954E-6,0E0,0E0,8.195693E-6,4.0046533E-4,0E0,0E0,0E0,0E0,0E0,0E0,0E0,0E0,0E0,0E0,0E0,0E0],"parents":[2147483647,0,0,1,1,2,2,3,3,4,4,7,7,8,8,9,9,10,10,11,11,12,12,15,15,16,16,17,17,18,18,19,19,21,21,22,22,26,26,29,29,30,30],"right_children":[2,4,6,8,10,-1,-1,12,14,16,18,20,22,-1,-1,24,26,28,30,32,-1,34,36,-1,-1,-1,38,-1,-1,40,42,-1,-1,-1,-1,-1,-1,-1,-1,-1,-1,-1,-1],"split_conditions":[8E-1,6.2999997E0,1E0,1E-1,5.0430555E0,5.797452E-3,1.1463136E-3,4.4437504E0,1E-1,1.31E2,8.289917E0,1.2E0,2.3334455E0,-6.0098373E-5,1.2948611E-3,8.66075E0,6.581291E0,2E-1,1.1E0,3E-1,2.847393E-5,1E-1,1.16E2,1.1176296E-3,5.4132747E-3,2.8734943E-3,7.144295E1,-4.895723E-4,-7.9965885E-6,3E-1,1.2E0,7.846485E-6,-7.900869E-5,-8.065176E-5,-5.0370663E-4,-1.2198692E-4,-1.4039808E-6,-4.366593E-4,-8.677789E-5,-1.4384378E-6,-1.7457084E-4,4.305299E-3,1.097799E-5],"split_indices":[0,5,0,2,13,0,0,5,4,8,10,4,13,0,0,3,5,0,4,4,0,4,8,0,0,0,7,0,0,4,12,0,0,0,0,0,0,0,0,0,0,0,0],"split_type":[0,0,0,0,0,0,0,0,0,0,0,0,0,0,0,0,0,0,0,0,0,0,0,0,0,0,0,0,0,0,0,0,0,0,0,0,0,0,0,0,0,0,0],"sum_hessian":[9.53E2,9.51E2,2E0,6.76E2,2.75E2,1E0,1E0,6.73E2,3E0,1.4E1,2.61E2,6.04E2,6.9E1,2E0,1E0,3E0,1.1E1,8E0,2.53E2,4.51E2,1.53E2,7E0,6.2E1,1E0,2E0,1E0,1E1,7E0,1E0,1.66E2,8.7E1,3.49E2,1.02E2,5E0,2E0,1.6E1,4.6E1,2E0,8E0,1.37E2,2.9E1,1E0,8.6E1],"tree_param":{"num_deleted":"0","num_feature":"14","num_nodes":"43","size_leaf_vector":"1"}},{"base_weights":[1.02810576E-4,6.169463E-5,1.3116002E-2,-1.0259568E-5,2.3182754E-4,4.927835E-3,9.743661E-4,-2.0585714E-5,1.7141902E-3,3.1459187E-3,2.2017874E-5,-2.242161E-6,-2.0278164E-4,-4.80787E-5,1.1006322E-3,6.589439E-4,9.977659E-3,-4.6208047E-4,5.1862367E-5,-3.7168759E-6,5.800189E-5,-6.6869376E-5,-4.3124973E-4,3.6613692E-3,-3.9677654E-4,2.1940416E-3,4.3306174E-3,2.0553185E-5,1.3790771E-3,-1.4445296E-4,3.330737E-5,-1.637655E-4,2.4424698E-3,-2.2797717E-7,-2.3779996E-4,9.499848E-4,3.7333968E-5,-1.00569196E-4,2.8185585E-5,-4.181987E-5,1.3457191E-3],"categories":[],"categories_nodes":[],"categories_segments":[],"categories_sizes":[],"default_left":[0,0,0,0,0,0,0,0,0,0,0,0,0,0,0,0,0,0,0,0,0,0,0,0,0,0,0,0,0,0,0,0,0,0,0,0,0,0,0,0,0],"id":21,"left_children":[1,3,5,7,9,-1,-1,11,13,15,17,19,21,-1,-1,23,25,-1,27,-1,-1,29,-1,31,33,35,-1,37,39,-1,-1,-1,-1,-1,-1,-1,-1,-1,-1,-1,-1],"loss_changes":[5.0962827E-4,1.1656549E-5,4.4643646E-5,1.1965924E-5,1.7295819E-4,0E0,0E0,2.2287397E-6,1.5243065E-5,3.1624228E-4,1.2435674E-5,1.2070789E-6,1.0140483E-5,0E0,0E0,4.8998576E-5,1.4181447E-4,0E0,1.0817251E-5,0E0,0E0,4.1841326E-6,0E0,7.984167E-5,1.8807458E-6,5.6444305E-6,0E0,6.7167025E-6,2.8929586E-5,0E0,0E0,0E0,0E0,0E0,0E0,0E0,0E0,0E0,0E0,0E0,0E0],"parents":[2147483647,0,0,1,1,2,2,3,3,4,4,7,7,8,8,9,9,10,10,11,11,12,12,15,15,16,16,18,18,21,21,23,23,24,24,25,25,27,27,28,28],"right_children":[2,4,6,8,10,-1,-1,12,14,16,18,20,22,-1,-1,24,26,-1,28,-1,-1,30,-1,32,34,36,-1,38,40,-1,-1,-1,-1,-1,-1,-1,-1,-1,-1,-1,-1],"split_conditions":[8E-1,6.0802917E0,1E0,1E-1,5.0430555E0,4.927835E-3,9.743661E-4,1.0479166E1,1E-1,1.4700002E1,1.01E2,3.51E2,2E-1,-4.80787E-5,1.1006322E-3,2.4371598E0,9.323249E0,-4.6208047E-4,1.6448513E1,-3.7168759E-6,5.800189E-5,2.3334455E0,-4.3124973E-4,9.456583E0,4.196528E0,8.66075E0,4.3306174E-3,1E0,2.1192001E1,-1.4445296E-4,3.330737E-5,-1.637655E-4,2.4424698E-3,-2.2797717E-7,-2.3779996E-4,9.499848E-4,3.7333968E-5,-1.00569196E-4,2.8185585E-5,-4.181987E-5,1.3457191E-3],"split_indices":[0,5,0,2,13,0,0,3,4,12,8,8,4,0,0,13,3,0,13,0,0,13,0,3,13,3,0,12,3,0,0,0,0,0,0,0,0,0,0,0,0],"split_type":[0,0,0,0,0,0,0,0,0,0,0,0,0,0,0,0,0,0,0,0,0,0,0,0,0,0,0,0,0,0,0,0,0,0,0,0,0,0,0,0,0],"sum_hessian":[9.53E2,9.51E2,2E0,6.69E2,2.82E2,1E0,1E0,6.66E2,3E0,1.8E1,2.64E2,6.06E2,6E1,2E0,1E0,1.4E1,4E0,4E0,2.6E2,5.77E2,2.9E1,5.5E1,5E0,3E0,1.1E1,2E0,2E0,2.55E2,5E0,1.6E1,3.9E1,2E0,1E0,6E0,5E0,1E0,1E0,4.3E1,2.12E2,4E0,1E0],"tree_param":{"num_deleted":"0","num_feature":"14","num_nodes":"41","size_leaf_vector":"1"}},{"base_weights":[8.726582E-5,5.2316984E-5,1.1148606E-2,-6.33924E-6,1.9100022E-4,4.188663E-3,8.282103E-4,-1.5141798E-5,1.4630721E-3,2.5894372E-3,1.831605E-5,-7.4483086E-7,-2.0836301E-4,-3.8462957E-5,9.355378E-4,5.973057E-4,8.047944E-3,-1.1231329E-4,2.8687163E-4,-1.2832705E-4,-1.179376E-3,-4.6128262E-4,2.806739E-3,1.8649349E-3,3.4644918E-3,-5.891538E-4,-9.087858E-5,3.1994253E-3,-8.278142E-5,-1.3411838E-4,8.967125E-6,-1.3263496E-5,-5.1745574E-4,-1.3253851E-5,-2.8589115E-4,2.0760992E-3,1.4477565E-5,8.074869E-4,3.173387E-5,7.36041E-5,-5.5167686E-5,-1.663321E-4,-1.0003457E-5],"categories":[],"categories_nodes":[],"categories_segments":[],"categories_sizes":[],"default_left":[0,0,0,0,0,0,0,0,0,0,0,0,0,0,0,0,0,0,0,0,0,0,0,0,0,0,0,0,0,0,0,0,0,0,0,0,0,0,0,0,0,0,0],"id":22,"left_children":[1,3,5,7,9,-1,-1,11,13,15,17,-1,19,-1,-1,21,23,25,27,29,31,33,35,37,-1,-1,39,-1,41,-1,-1,-1,-1,-1,-1,-1,-1,-1,-1,-1,-1,-1,-1],"loss_changes":[3.6821497E-4,7.745383E-6,3.2255222E-5,8.688322E-6,1.17163276E-4,0E0,0E0,1.6309598E-6,1.0936567E-5,2.0180011E-4,9.328748E-6,0E0,3.0350088E-6,0E0,0E0,3.6377904E-5,8.667703E-5,6.925514E-6,3.3463354E-4,1.980106E-6,1.7813577E-6,2.2138283E-6,5.640234E-5,4.0780997E-6,0E0,0E0,5.611815E-6,0E0,1.963474E-6,0E0,0E0,0E0,0E0,0E0,0E0,0E0,0E0,0E0,0E0,0E0,0E0,0E0,0E0],"parents":[2147483647,0,0,1,1,2,2,3,3,4,4,7,7,8,8,9,9,10,10,12,12,15,15,16,16,17,17,18,18,19,19,20,20,21,21,22,22,23,23,26,26,28,28],"right_children":[2,4,6,8,10,-1,-1,12,14,16,18,-1,20,-1,-1,22,24,26,28,30,32,34,36,38,-1,-1,40,-1,42,-1,-1,-1,-1,-1,-1,-1,-1,-1,-1,-1,-1,-1,-1],"split_conditions":[8E-1,6.0802917E0,1E0,1E-1,5.0430555E0,4.188663E-3,8.282103E-4,4.8527436E0,1E-1,1.4700002E1,4.9811254E4,-7.4483086E-7,5.796633E4,-3.8462957E-5,9.355378E-4,1.5398248E1,9.323249E0,7.6E1,4.999926E4,1.16E2,1.2071166E1,1.41E2,1.5739918E1,8.66075E0,3.4644918E-3,-5.891538E-4,1.219825E1,3.1994253E-3,1.4E2,-1.3411838E-4,8.967125E-6,-1.3263496E-5,-5.1745574E-4,-1.3253851E-5,-2.8589115E-4,2.0760992E-3,1.4477565E-5,8.074869E-4,3.173387E-5,7.36041E-5,-5.5167686E-5,-1.663321E-4,-1.0003457E-5],"split_indices":[0,5,0,2,13,0,0,5,4,12,7,0,7,0,0,3,3,8,7,8,3,8,3,3,0,0,3,0,8,0,0,0,0,0,0,0,0,0,0,0,0,0,0],"split_type":[0,0,0,0,0,0,0,0,0,0,0,0,0,0,0,0,0,0,0,0,0,0,0,0,0,0,0,0,0,0,0,0,0,0,0,0,0,0,0,0,0,0,0],"sum_hessian":[9.53E2,9.51E2,2E0,6.69E2,2.82E2,1E0,1E0,6.66E2,3E0,1.8E1,2.64E2,6.26E2,4E1,2E0,1E0,1.4E1,4E0,1.78E2,8.6E1,3.8E1,2E0,1E1,4E0,2E0,2E0,1E0,1.77E2,2E0,8.4E1,1.2E1,2.6E1,1E0,1E0,6E0,4E0,1E0,3E0,1E0,1E0,3.8E1,1.39E2,7E0,7.7E1],"tree_param":{"num_deleted":"0","num_feature":"14","num_nodes":"43","size_leaf_vector":"1"}},{"base_weights":[7.555654E-5,4.5852925E-5,9.476319E-3,-4.0785767E-6,1.6390329E-4,3.5603645E-3,7.039793E-4,-1.158369E-5,1.2484187E-3,2.1334018E-3,2.207545E-5,3.0031683E-7,-1.3662233E-4,-3.0770367E-5,7.952068E-4,5.375429E-4,6.494298E-3,-4.3369856E-4,3.8733764E-5,-3.558218E-5,-1.0568934E-3,-3.5009286E-4,2.382833E-3,1.5851948E-3,2.7715906E-3,-7.385906E-5,2.2005948E-4,-1.01273676E-4,2.8096796E-5,-1.1754273E-5,-3.757799E-4,2.6924621E-5,-1.8427565E-4,1.7646846E-3,1.1220114E-5,6.863639E-4,2.697379E-5,7.305173E-5,-5.269175E-5,2.0990162E-3,3.7449897E-6],"categories":[],"categories_nodes":[],"categories_segments":[],"categories_sizes":[],"default_left":[0,0,0,0,0,0,0,0,0,0,0,0,0,0,0,0,0,0,0,0,0,0,0,0,0,0,0,0,0,0,0,0,0,0,0,0,0,0,0,0,0],"id":23,"left_children":[1,3,5,7,9,-1,-1,11,13,15,17,-1,19,-1,-1,21,23,-1,25,27,29,31,33,35,-1,37,39,-1,-1,-1,-1,-1,-1,-1,-1,-1,-1,-1,-1,-1,-1],"loss_changes":[2.659572E-4,5.612167E-6,2.3304368E-5,6.3125512E-6,7.900321E-5,0E0,0E0,1.0497143E-6,7.8496705E-6,1.2873716E-4,6.535253E-6,0E0,5.634437E-6,0E0,0E0,2.5403395E-5,5.271616E-5,0E0,5.3856543E-6,2.2172685E-6,1.1459592E-6,1.3331991E-6,4.0818606E-5,2.9464277E-6,0E0,5.3079007E-6,1.4198666E-4,0E0,0E0,0E0,0E0,0E0,0E0,0E0,0E0,0E0,0E0,0E0,0E0,0E0,0E0],"parents":[2147483647,0,0,1,1,2,2,3,3,4,4,7,7,8,8,9,9,10,10,12,12,15,15,16,16,18,18,19,19,20,20,21,21,22,22,23,23,25,25,26,26],"right_children":[2,4,6,8,10,-1,-1,12,14,16,18,-1,20,-1,-1,22,24,-1,26,28,30,32,34,36,-1,38,40,-1,-1,-1,-1,-1,-1,-1,-1,-1,-1,-1,-1,-1,-1],"split_conditions":[8E-1,6.0802917E0,1E0,1E-1,5.0430555E0,3.5603645E-3,7.039793E-4,1.0479166E1,1E-1,1.4700002E1,9E1,3.0031683E-7,2E-1,-3.0770367E-5,7.952068E-4,1.5398248E1,9.323249E0,-4.3369856E-4,1.8916998E1,2.3334455E0,1.14E2,1.32E2,1.5739918E1,8.66075E0,2.7715906E-3,1.219825E1,1.6350332E1,-1.01273676E-4,2.8096796E-5,-1.1754273E-5,-3.757799E-4,2.6924621E-5,-1.8427565E-4,1.7646846E-3,1.1220114E-5,6.863639E-4,2.697379E-5,7.305173E-5,-5.269175E-5,2.0990162E-3,3.7449897E-6],"split_indices":[0,5,0,2,13,0,0,3,4,12,8,0,4,0,0,3,3,0,3,13,8,8,3,3,0,3,9,0,0,0,0,0,0,0,0,0,0,0,0,0,0],"split_type":[0,0,0,0,0,0,0,0,0,0,0,0,0,0,0,0,0,0,0,0,0,0,0,0,0,0,0,0,0,0,0,0,0,0,0,0,0,0,0,0,0],"sum_hessian":[9.53E2,9.51E2,2E0,6.69E2,2.82E2,1E0,1E0,6.66E2,3E0,1.8E1,2.64E2,6.06E2,6E1,2E0,1E0,1.4E1,4E0,2E0,2.62E2,5.5E1,5E0,1E1,4E0,2E0,2E0,1.62E2,1E2,1.6E1,3.9E1,1E0,4E0,4E0,6E0,1E0,3E0,1E0,1E0,3.9E1,1.23E2,2E0,9.8E1],"tree_param":{"num_deleted":"0","num_feature":"14","num_nodes":"41","size_leaf_vector":"1"}},{"base_weights":[6.479865E-5,3.955178E-5,8.054872E-3,-2.4012363E-6,1.3873541E-4,3.0263097E-3,5.9838296E-4,-2.6396565E-6,1.0650019E-3,1.7619845E-3,2.1827987E-5,-2.4616293E-5,6.7592564E-4,4.841836E-4,5.2429903E-3,-2.7438442E-4,1.1364845E-4,2.2865627E-3,-4.7087422E-5,2.2927721E-5,6.5155253E-3,1.8747083E-4,-3.9795428E-4,6.5465495E-3,1.7069582E-5,-8.53628E-5,1.4999819E-3,5.8340956E-4,2.2172704E-3,-1.6424313E-4,1.03379534E-4,8.543738E-5,2.86051E-3,-1.8686509E-4,1.4047056E-5],"categories":[],"categories_nodes":[],"categories_segments":[],"categories_sizes":[],"default_left":[0,0,0,0,0,0,0,0,0,0,0,0,0,0,0,0,0,0,0,0,0,0,0,0,0,0,0,0,0,0,0,0,0,0,0],"id":24,"left_children":[1,3,5,7,9,-1,-1,-1,11,13,15,-1,-1,17,19,21,23,25,-1,-1,27,-1,29,31,33,-1,-1,-1,-1,-1,-1,-1,-1,-1,-1],"loss_changes":[1.9212645E-4,3.9616552E-6,1.6837366E-5,4.5846923E-6,5.366642E-5,0E0,0E0,0E0,5.63607E-6,8.197404E-5,7.2387497E-6,0E0,0E0,1.7692599E-5,3.2375217E-5,7.249544E-6,1.2600857E-4,2.9328205E-5,0E0,0E0,1.6317063E-6,0E0,6.4062606E-6,5.3423995E-5,3.8564317E-6,0E0,0E0,0E0,0E0,0E0,0E0,0E0,0E0,0E0,0E0],"parents":[2147483647,0,0,1,1,2,2,3,3,4,4,8,8,9,9,10,10,13,13,14,14,15,15,16,16,17,17,20,20,22,22,23,23,24,24],"right_children":[2,4,6,8,10,-1,-1,-1,12,14,16,-1,-1,18,20,22,24,26,-1,-1,28,-1,30,32,34,-1,-1,-1,-1,-1,-1,-1,-1,-1,-1],"split_conditions":[8E-1,6.0802917E0,1E0,1E-1,5.0430555E0,3.0263097E-3,5.9838296E-4,-2.6396565E-6,1E-1,1.4700002E1,1.58E2,-2.4616293E-5,6.7592564E-4,2.4371598E0,6.6735883E0,6.836714E0,1.59E2,9.456583E0,-4.7087422E-5,2.2927721E-5,8.66075E0,1.8747083E-4,5.9E0,1.4154499E1,1.62E2,-8.53628E-5,1.4999819E-3,5.8340956E-4,2.2172704E-3,-1.6424313E-4,1.03379534E-4,8.543738E-5,2.86051E-3,-1.8686509E-4,1.4047056E-5],"split_indices":[0,5,0,2,13,0,0,0,4,12,8,0,0,13,5,5,8,3,0,0,3,0,4,3,8,0,0,0,0,0,0,0,0,0,0],"split_type":[0,0,0,0,0,0,0,0,0,0,0,0,0,0,0,0,0,0,0,0,0,0,0,0,0,0,0,0,0,0,0,0,0,0,0],"sum_hessian":[9.53E2,9.51E2,2E0,6.69E2,2.82E2,1E0,1E0,6.66E2,3E0,1.8E1,2.64E2,2E0,1E0,1.4E1,4E0,6.2E1,2.02E2,3E0,1.1E1,1E0,3E0,7E0,5.5E1,2E0,2E2,2E0,1E0,1E0,2E0,4.6E1,9E0,1E0,1E0,8E0,1.92E2],"tree_param":{"num_deleted":"0","num_feature":"14","num_nodes":"35","size_leaf_vector":"1"}},{"base_weights":[5.7271245E-5,3.581601E-5,6.8466417E-3,-7.126998E-7,1.2217085E-4,2.5723637E-3,5.0862506E-4,-6.1631563E-6,9.083291E-4,1.4539747E-3,2.6222007E-5,-2.1713306E-6,-3.822251E-4,-1.9693036E-5,5.74537E-4,4.300974E-4,4.2348118E-3,-1.5289607E-4,1.4104953E-4,3.155225E-5,-4.7327037E-5,-4.4365597E-4,1.4106538E-5,-2.096037E-4,1.7514203E-3,1.9488563E-5,1.5783102E-3,-6.9142785E-5,-7.3385047E-4,5.3036893E-3,4.3368473E-5,6.888554E-6,2.0085661E-4,-5.9821017E-5,1.6931072E-5,-1.4266005E-6,-2.2628428E-4,1.2749848E-3,1.929026E-5,-5.8389593E-5,8.248605E-5,-4.6087918E-4,-1.0185002E-4,-4.4773384E-5,2.4314336E-3,4.829939E-5,-4.0677405E-5],"categories":[],"categories_nodes":[],"categories_segments":[],"categories_sizes":[],"default_left":[0,0,0,0,0,0,0,0,0,0,0,0,0,0,0,0,0,0,0,0,0,0,0,0,0,0,0,0,0,0,0,0,0,0,0,0,0,0,0,0,0,0,0,0,0,0,0],"id":25,"left_children":[1,3,5,7,9,-1,-1,11,13,15,17,19,21,-1,-1,23,25,27,29,31,33,-1,-1,35,37,-1,-1,39,41,43,45,-1,-1,-1,-1,-1,-1,-1,-1,-1,-1,-1,-1,-1,-1,-1,-1],"loss_changes":[1.3872159E-4,3.0031053E-6,1.2165052E-5,3.325242E-6,3.6125042E-5,0E0,0E0,1.0004528E-6,4.0480745E-6,5.2276104E-5,5.4720026E-6,1.0080721E-6,3.3646074E-6,0E0,0E0,1.304588E-5,2.1054191E-5,5.009571E-6,8.146531E-5,2.0617044E-6,4.477005E-6,0E0,0E0,1.2237517E-6,2.0803305E-5,0E0,0E0,4.026108E-6,3.5920543E-6,4.703206E-5,3.3899814E-6,0E0,0E0,0E0,0E0,0E0,0E0,0E0,0E0,0E0,0E0,0E0,0E0,0E0,0E0,0E0,0E0],"parents":[2147483647,0,0,1,1,2,2,3,3,4,4,7,7,8,8,9,9,10,10,11,11,12,12,15,15,16,16,17,17,18,18,19,19,20,20,23,23,24,24,27,27,28,28,29,29,30,30],"right_children":[2,4,6,8,10,-1,-1,12,14,16,18,20,22,-1,-1,24,26,28,30,32,34,-1,-1,36,38,-1,-1,40,42,44,46,-1,-1,-1,-1,-1,-1,-1,-1,-1,-1,-1,-1,-1,-1,-1,-1],"split_conditions":[8E-1,6.0802917E0,1E0,1E-1,5.0430555E0,2.5723637E-3,5.0862506E-4,5.8174242E4,1E-1,1.4700002E1,1.6020239E1,3E-1,5.8295535E4,-1.9693036E-5,5.74537E-4,1.5398248E1,6.6735883E0,1.0825001E1,1.6350332E1,3.6E2,1.1000001E0,-4.4365597E-4,1.4106538E-5,7.3333325E0,1.5739918E1,1.9488563E-5,1.5783102E-3,3E0,1.1533692E1,1.76295E1,3E-1,6.888554E-6,2.0085661E-4,-5.9821017E-5,1.6931072E-5,-1.4266005E-6,-2.2628428E-4,1.2749848E-3,1.929026E-5,-5.8389593E-5,8.248605E-5,-4.6087918E-4,-1.0185002E-4,-4.4773384E-5,2.4314336E-3,4.829939E-5,-4.0677405E-5],"split_indices":[0,5,0,2,13,0,0,7,4,12,9,4,7,0,0,3,5,5,9,8,4,0,0,5,3,0,0,4,5,3,4,0,0,0,0,0,0,0,0,0,0,0,0,0,0,0,0],"split_type":[0,0,0,0,0,0,0,0,0,0,0,0,0,0,0,0,0,0,0,0,0,0,0,0,0,0,0,0,0,0,0,0,0,0,0,0,0,0,0,0,0,0,0,0,0,0,0],"sum_hessian":[9.53E2,9.51E2,2E0,6.69E2,2.82E2,1E0,1E0,6.66E2,3E0,1.8E1,2.64E2,6.6E2,6E0,2E0,1E0,1.4E1,4E0,1.03E2,1.61E2,3.78E2,2.82E2,1E0,5E0,1E1,4E0,1E0,3E0,9.1E1,1.2E1,2E0,1.59E2,3.74E2,4E0,1.14E2,1.68E2,8E0,2E0,1E0,3E0,6.7E1,2.4E1,3E0,9E0,1E0,1E0,9.6E1,6.3E1],"tree_param":{"num_deleted":"0","num_feature":"14","num_nodes":"47","size_leaf_vector":"1"}},{"base_weights":[4.8361508E-5,3.0123878E-5,5.8196485E-3,2.5814397E-5,7.052829E-4,2.18651E-3,4.3233187E-4,-8.638378E-5,4.7374782E-5,-1.3050368E-5,6.673806E-4,-2.8716781E-6,-2.2702763E-4,6.4099097E-4,3.0440764E-5,-3.5374163E-4,-5.031967E-5,4.6239015E-6,2.0667193E-3,7.491425E-5,-2.6847974E-5,1.5241199E-6,6.538947E-5,1.0546849E-5,-7.043222E-5],"categories":[],"categories_nodes":[],"categories_segments":[],"categories_sizes":[],"default_left":[0,0,0,0,0,0,0,0,0,0,0,0,0,0,0,0,0,0,0,0,0,0,0,0,0],"id":26,"left_children":[1,3,5,7,9,-1,-1,11,13,-1,-1,-1,15,17,19,-1,-1,-1,-1,21,23,-1,-1,-1,-1],"loss_changes":[1.00237565E-4,2.751718E-6,8.789219E-6,2.2949193E-6,6.9226235E-6,0E0,0E0,1.650696E-6,7.972072E-6,0E0,0E0,0E0,2.8508343E-6,8.588427E-5,1.9740314E-6,0E0,0E0,0E0,0E0,4.354435E-6,4.3787363E-6,0E0,0E0,0E0,0E0],"parents":[2147483647,0,0,1,1,2,2,3,3,4,4,7,7,8,8,12,12,13,13,14,14,19,19,20,20],"right_children":[2,4,6,8,10,-1,-1,12,14,-1,-1,-1,16,18,20,-1,-1,-1,-1,22,24,-1,-1,-1,-1],"split_conditions":[8E-1,1.6448513E1,1E0,9E-1,2.1192001E1,2.18651E-3,4.3233187E-4,4.8527436E0,1.2E0,-1.3050368E-5,6.673806E-4,-2.8716781E-6,4.9417906E0,7E-1,6E-1,-3.5374163E-4,-5.031967E-5,4.6239015E-6,2.0667193E-3,1.01919985E1,1.219825E1,1.5241199E-6,6.538947E-5,1.0546849E-5,-7.043222E-5],"split_indices":[0,13,0,12,3,0,0,5,12,0,0,0,5,4,4,0,0,0,0,3,3,0,0,0,0],"split_type":[0,0,0,0,0,0,0,0,0,0,0,0,0,0,0,0,0,0,0,0,0,0,0,0,0],"sum_hessian":[9.53E2,9.51E2,2E0,9.46E2,5E0,1E0,1E0,1.52E2,7.94E2,4E0,1E0,9.9E1,5.3E1,2.1E1,7.73E2,2E0,5.1E1,2E1,1E0,4.35E2,3.38E2,2.93E2,1.42E2,2.61E2,7.7E1],"tree_param":{"num_deleted":"0","num_feature":"14","num_nodes":"25","size_leaf_vector":"1"}},{"base_weights":[3.903607E-5,2.3529756E-5,4.946694E-3,1.9835064E-5,6.027534E-4,1.8585295E-3,3.6748277E-4,1.01069445E-5,2.1015962E-4,-9.918278E-6,5.672738E-4,2.4562762E-5,-9.3128314E-5,1.5925E-3,7.668239E-5,8.811458E-6,9.677515E-4,1.2750576E-5,-2.5352667E-4,8.585662E-4,6.462257E-5,-3.322339E-5,7.334322E-5,-1.36895205E-5,1.141559E-5,1.7567117E-3,2.1733946E-5,-2.061415E-4,-2.126583E-5],"categories":[],"categories_nodes":[],"categories_segments":[],"categories_sizes":[],"default_left":[0,0,0,0,0,0,0,0,0,0,0,0,0,0,0,0,0,0,0,0,0,0,0,0,0,0,0,0,0],"id":27,"left_children":[1,3,5,7,9,-1,-1,11,13,-1,-1,15,17,19,21,23,25,-1,27,-1,-1,-1,-1,-1,-1,-1,-1,-1,-1],"loss_changes":[7.24827E-5,2.025374E-6,6.350114E-6,1.7512467E-6,4.976696E-6,0E0,0E0,1.3483871E-6,8.365389E-6,0E0,0E0,1.1757782E-5,2.4255655E-6,6.3757725E-6,1.3793951E-6,1.2434547E-6,5.6466502E-5,0E0,3.9902407E-6,0E0,0E0,0E0,0E0,0E0,0E0,0E0,0E0,0E0,0E0],"parents":[2147483647,0,0,1,1,2,2,3,3,4,4,7,7,8,8,11,11,12,12,13,13,14,14,15,15,16,16,18,18],"right_children":[2,4,6,8,10,-1,-1,12,14,-1,-1,16,18,20,22,24,26,-1,28,-1,-1,-1,-1,-1,-1,-1,-1,-1,-1],"split_conditions":[8E-1,1.6448513E1,1E0,3.32E1,2.1192001E1,1.8585295E-3,3.6748277E-4,1.115691E1,3.44E1,-9.918278E-6,5.672738E-4,1.1707995E1,3E-1,1.219825E1,7.733671E0,4.7E0,1.3697505E1,1.2750576E-5,1.1000001E0,8.585662E-4,6.462257E-5,-3.322339E-5,7.334322E-5,-1.36895205E-5,1.141559E-5,1.7567117E-3,2.1733946E-5,-2.061415E-4,-2.126583E-5],"split_indices":[0,13,0,12,3,0,0,13,12,0,0,5,4,3,13,12,10,0,4,0,0,0,0,0,0,0,0,0,0],"split_type":[0,0,0,0,0,0,0,0,0,0,0,0,0,0,0,0,0,0,0,0,0,0,0,0,0,0,0,0,0],"sum_hessian":[9.53E2,9.51E2,2E0,9.46E2,5E0,1E0,1E0,9.01E2,4.5E1,4E0,1E0,7.91E2,1.1E2,3E0,4.2E1,7.79E2,1.2E1,6E1,5E1,1E0,2E0,2E1,2.2E1,2.72E2,5.07E2,1E0,1.1E1,1.4E1,3.6E1],"tree_param":{"num_deleted":"0","num_feature":"14","num_nodes":"29","size_leaf_vector":"1"}},{"base_weights":[3.288942E-5,1.9708441E-5,4.2046905E-3,-2.3549374E-5,6.247357E-5,1.5797496E-3,3.1236114E-4,-2.9861774E-5,9.774514E-4,1.8159865E-3,4.3884014E-5,-1.5636273E-5,-6.2461814E-4,4.7683643E-4,-3.6983256E-5,2.3216691E-5,1.3155565E-3,-9.990385E-5,7.152256E-5,-5.8110663E-6,2.5585704E-4,-4.0185964E-4,-1.2575206E-4,-2.8016875E-4,6.3359626E-6,1.52571E-3,4.5439017E-5,6.3737234E-6,-1.414962E-4,1.4932049E-3,3.626357E-5,8.9065E-5,6.4695846E-6],"categories":[],"categories_nodes":[],"categories_segments":[],"categories_sizes":[],"default_left":[0,0,0,0,0,0,0,0,0,0,0,0,0,0,0,0,0,0,0,0,0,0,0,0,0,0,0,0,0,0,0,0,0],"id":28,"left_children":[1,3,5,7,9,-1,-1,11,13,15,17,19,21,-1,-1,-1,-1,23,25,-1,-1,-1,-1,27,-1,29,31,-1,-1,-1,-1,-1,-1],"loss_changes":[5.237609E-5,1.7626006E-6,4.5879133E-6,3.0242609E-6,1.553428E-5,0E0,0E0,3.983687E-6,2.216893E-6,2.1994674E-5,1.8948374E-6,1.5147434E-6,1.0541312E-6,0E0,0E0,0E0,0E0,1.6857744E-6,1.506489E-5,0E0,0E0,0E0,0E0,1.79923E-6,0E0,3.334114E-5,2.3527432E-6,0E0,0E0,0E0,0E0,0E0,0E0],"parents":[2147483647,0,0,1,1,2,2,3,3,4,4,7,7,8,8,9,9,10,10,11,11,12,12,17,17,18,18,23,23,25,25,26,26],"right_children":[2,4,6,8,10,-1,-1,12,14,16,18,20,22,-1,-1,-1,-1,24,26,-1,-1,-1,-1,28,-1,30,32,-1,-1,-1,-1,-1,-1],"split_conditions":[8E-1,1.2E2,1E0,7.1062503E0,1.21E2,1.5797496E-3,3.1236114E-4,9.456583E0,1E-1,7.5249996E0,8.534999E0,6.1762366E0,5.224238E3,4.7683643E-4,-3.6983256E-5,2.3216691E-5,1.3155565E-3,1.62E2,8.685E0,-5.8110663E-6,2.5585704E-4,-4.0185964E-4,-1.2575206E-4,6.836714E0,6.3359626E-6,1.2E0,9.668271E0,6.3737234E-6,-1.414962E-4,1.4932049E-3,3.626357E-5,8.9065E-5,6.4695846E-6],"split_indices":[0,8,0,13,8,0,0,3,1,3,6,5,7,0,0,0,0,8,6,0,0,0,0,5,0,12,6,0,0,0,0,0,0],"split_type":[0,0,0,0,0,0,0,0,0,0,0,0,0,0,0,0,0,0,0,0,0,0,0,0,0,0,0,0,0,0,0,0,0],"sum_hessian":[9.53E2,9.51E2,2E0,4.73E2,4.78E2,1E0,1E0,4.71E2,2E0,4E0,4.74E2,4.61E2,1E1,1E0,1E0,3E0,1E0,7.6E1,3.98E2,4.6E2,1E0,1E0,9E0,3E1,4.6E1,6E0,3.92E2,1.2E1,1.8E1,1E0,5E0,3.3E1,3.59E2],"tree_param":{"num_deleted":"0","num_feature":"14","num_nodes":"33","size_leaf_vector":"1"}},{"base_weights":[2.8147702E-5,1.6944281E-5,3.573984E-3,1.3893041E-5,4.957077E-4,1.3427854E-3,2.655074E-4,2.4320323E-5,-1.279713E-4,-9.074557E-6,4.6882333E-4,1.4613275E-5,6.728217E-4,-7.736627E-6,-1.1800459E-4,-6.2854383E-6,8.341439E-5,1.2692236E-3,7.129794E-6,-2.9940984E-6,1.831455E-4,3.187101E-4,-3.5314258E-6],"categories":[],"categories_nodes":[],"categories_segments":[],"categories_sizes":[],"default_left":[0,0,0,0,0,0,0,0,0,0,0,0,0,0,0,0,0,0,0,0,0,0,0],"id":29,"left_children":[1,3,5,7,9,-1,-1,11,13,-1,-1,15,17,-1,-1,19,21,-1,-1,-1,-1,-1,-1],"loss_changes":[3.7837563E-5,1.383816E-6,3.3147298E-6,1.403971E-6,3.4145578E-6,0E0,0E0,5.5486826E-6,1.7524562E-6,0E0,0E0,1.2528958E-6,2.992023E-5,0E0,0E0,1.5306758E-6,1.8928531E-5,0E0,0E0,0E0,0E0,0E0,0E0],"parents":[2147483647,0,0,1,1,2,2,3,3,4,4,7,7,8,8,11,11,12,12,15,15,16,16],"right_children":[2,4,6,8,10,-1,-1,12,14,-1,-1,16,18,-1,-1,20,22,-1,-1,-1,-1,-1,-1],"split_conditions":[8E-1,1.6448513E1,1E0,1.9987833E1,2.1192001E1,1.3427854E-3,2.655074E-4,1.9569082E1,3E-1,-9.074557E-6,4.6882333E-4,6.0802917E0,1.6350332E1,-7.736627E-6,-1.1800459E-4,1E-1,5.0430555E0,1.2692236E-3,7.129794E-6,-2.9940984E-6,1.831455E-4,3.187101E-4,-3.5314258E-6],"split_indices":[0,13,0,3,3,0,0,3,4,0,0,5,9,0,0,2,13,0,0,0,0,0,0],"split_type":[0,0,0,0,0,0,0,0,0,0,0,0,0,0,0,0,0,0,0,0,0,0,0],"sum_hessian":[9.53E2,9.51E2,2E0,9.46E2,5E0,1E0,1E0,8.82E2,6.4E1,4E0,1E0,8.7E2,1.2E1,4.7E1,1.7E1,6.68E2,2.02E2,1E0,1.1E1,6.65E2,3E0,1.7E1,1.85E2],"tree_param":{"num_deleted":"0","num_feature":"14","num_nodes":"23","size_leaf_vector":"1"}},{"base_weights":[2.3596476E-5,1.4072867E-5,3.0378897E-3,-1.8417526E-6,8.376593E-5,1.1413693E-3,2.2568107E-4,6.8532804E-6,-5.1270047E-4,1.7153507E-3,4.5776822E-5,9.475938E-6,-2.991351E-4,-3.4887542E-4,-6.040302E-5,-3.3086642E-5,1.0788403E-3,3.7416266E-5,-4.2278974E-5,-4.987378E-6,1.8536602E-4,-7.570387E-5,4.942902E-4,1.2532308E-6,-8.703589E-5,5.551541E-4,8.325895E-6,-1.4477636E-5,-1.7347037E-4,-1.3891296E-5,3.9850027E-4],"categories":[],"categories_nodes":[],"categories_segments":[],"categories_sizes":[],"default_left":[0,0,0,0,0,0,0,0,0,0,0,0,0,0,0,0,0,0,0,0,0,0,0,0,0,0,0,0,0,0,0],"id":30,"left_children":[1,3,5,7,9,-1,-1,11,13,15,17,19,-1,-1,-1,-1,-1,-1,21,23,25,27,29,-1,-1,-1,-1,-1,-1,-1,-1],"loss_changes":[2.7343682E-5,1.0560541E-6,2.3949196E-6,3.4504542E-6,1.089237E-5,0E0,0E0,2.021114E-6,2.3977025E-6,1.4131147E-5,1.214831E-6,1.941961E-6,0E0,0E0,0E0,0E0,0E0,0E0,1.5260057E-6,1.8461201E-6,1.51706845E-5,1.0616632E-6,2.3159057E-6,0E0,0E0,0E0,0E0,0E0,0E0,0E0,0E0],"parents":[2147483647,0,0,1,1,2,2,3,3,4,4,7,7,8,8,9,9,10,10,11,11,18,18,19,19,20,20,21,21,22,22],"right_children":[2,4,6,8,10,-1,-1,12,14,16,18,20,-1,-1,-1,-1,-1,-1,22,24,26,28,30,-1,-1,-1,-1,-1,-1,-1,-1],"split_conditions":[8E-1,1.6020239E1,1E0,1.0825001E1,1.3697505E1,1.1413693E-3,2.2568107E-4,1.8756582E1,1.1533692E1,1.9181252E1,1.9408333E1,7.8351803E0,-2.991351E-4,-3.4887542E-4,-6.040302E-5,-3.3086642E-5,1.0788403E-3,3.7416266E-5,1.6448513E1,7.0000005E0,5.0430555E0,1.7199999E1,2.1192001E1,1.2532308E-6,-8.703589E-5,5.551541E-4,8.325895E-6,-1.4477636E-5,-1.7347037E-4,-1.3891296E-5,3.9850027E-4],"split_indices":[0,9,0,5,10,0,0,3,5,3,3,5,0,0,0,0,0,0,13,5,13,11,3,0,0,0,0,0,0,0,0],"split_type":[0,0,0,0,0,0,0,0,0,0,0,0,0,0,0,0,0,0,0,0,0,0,0,0,0,0,0,0,0,0,0],"sum_hessian":[9.53E2,9.51E2,2E0,7.75E2,1.76E2,1E0,1E0,7.63E2,1.2E1,3E0,1.73E2,7.62E2,1E0,3E0,9E0,2E0,1E0,9.1E1,8.2E1,7.05E2,5.7E1,7.8E1,4E0,6.84E2,2.1E1,4E0,5.3E1,7.5E1,3E0,3E0,1E0],"tree_param":{"num_deleted":"0","num_feature":"14","num_nodes":"31","size_leaf_vector":"1"}},{"base_weights":[1.9050205E-5,3.2859057E-6,2.5822073E-3,9.7016396E-4,1.9182936E-4],"categories":[],"categories_nodes":[],"categories_segments":[],"categories_sizes":[],"default_left":[0,0,0,0,0],"id":31,"left_children":[1,-1,3,-1,-1],"loss_changes":[1.9771378E-5,0E0,1.7303173E-6,0E0,0E0],"parents":[2147483647,0,0,2,2],"right_children":[2,-1,4,-1,-1],"split_conditions":[8E-1,3.2859057E-6,1E0,9.7016396E-4,1.9182936E-4],"split_indices":[0,0,0,0,0],"split_type":[0,0,0,0,0],"sum_hessian":[9.53E2,9.51E2,2E0,1E0,1E0],"tree_param":{"num_deleted":"0","num_feature":"14","num_nodes":"5","size_leaf_vector":"1"}},{"base_weights":[1.4556596E-5,2.3011698E-6,2.1948714E-3,8.2463626E-4,1.6305596E-4],"categories":[],"categories_nodes":[],"categories_segments":[],"categories_sizes":[],"default_left":[0,0,0,0,0],"id":32,"left_children":[1,-1,3,-1,-1],"loss_changes":[1.4306249E-5,0E0,1.2501087E-6,0E0,0E0],"parents":[2147483647,0,0,2,2],"right_children":[2,-1,4,-1,-1],"split_conditions":[8E-1,2.3011698E-6,1E0,8.2463626E-4,1.6305596E-4],"split_indices":[0,0,0,0,0],"split_type":[0,0,0,0,0],"sum_hessian":[9.53E2,9.51E2,2E0,1E0,1E0],"tree_param":{"num_deleted":"0","num_feature":"14","num_nodes":"5","size_leaf_vector":"1"}},{"base_weights":[1.122732E-5,1.6115366E-6,5.596921E-4],"categories":[],"categories_nodes":[],"categories_segments":[],"categories_sizes":[],"default_left":[0,0,0],"id":33,"left_children":[1,-1,-1],"loss_changes":[1.0349057E-5,0E0,0E0],"parents":[2147483647,0,0],"right_children":[2,-1,-1],"split_conditions":[8E-1,1.6115366E-6,5.596921E-4],"split_indices":[0,0,0],"split_type":[0,0,0],"sum_hessian":[9.53E2,9.51E2,2E0],"tree_param":{"num_deleted":"0","num_feature":"14","num_nodes":"3","size_leaf_vector":"1"}},{"base_weights":[8.447518E-6,1.1285883E-6,1.4925152E-3,6.169886E-4,5.4643304E-5],"categories":[],"categories_nodes":[],"categories_segments":[],"categories_sizes":[],"default_left":[0,0,0,0,0],"id":34,"left_children":[1,-1,3,-1,-1],"loss_changes":[6.6282005E-6,0E0,1.8429891E-6,0E0,0E0],"parents":[2147483647,0,0,2,2],"right_children":[2,-1,4,-1,-1],"split_conditions":[8E-1,1.1285883E-6,1E0,6.169886E-4,5.4643304E-5],"split_indices":[0,0,0,0,0],"split_type":[0,0,0,0,0],"sum_hessian":[9.53E2,9.51E2,2E0,1E0,1E0],"tree_param":{"num_deleted":"0","num_feature":"14","num_nodes":"5","size_leaf_vector":"1"}},{"base_weights":[6.6184957E-6,7.9037073E-7,1.2686452E-3,5.244434E-4,4.6446923E-5],"categories":[],"categories_nodes":[],"categories_segments":[],"categories_sizes":[],"default_left":[0,0,0,0,0],"id":35,"left_children":[1,-1,3,-1,-1],"loss_changes":[4.7932E-6,0E0,1.3315785E-6,0E0,0E0],"parents":[2147483647,0,0,2,2],"right_children":[2,-1,4,-1,-1],"split_conditions":[8E-1,7.9037073E-7,1E0,5.244434E-4,4.6446923E-5],"split_indices":[0,0,0,0,0],"split_type":[0,0,0,0,0],"sum_hessian":[9.53E2,9.51E2,2E0,1E0,1E0],"tree_param":{"num_deleted":"0","num_feature":"14","num_nodes":"5","size_leaf_vector":"1"}},{"base_weights":[5.2321952E-6,5.535149E-7,3.2350275E-4],"categories":[],"categories_nodes":[],"categories_segments":[],"categories_sizes":[],"default_left":[0,0,0],"id":36,"left_children":[1,-1,-1],"loss_changes":[3.4655911E-6,0E0,0E0],"parents":[2147483647,0,0],"right_children":[2,-1,-1],"split_conditions":[8E-1,5.535149E-7,3.2350275E-4],"split_indices":[0,0,0],"split_type":[0,0,0],"sum_hessian":[9.53E2,9.51E2,2E0],"tree_param":{"num_deleted":"0","num_feature":"14","num_nodes":"3","size_leaf_vector":"1"}},{"base_weights":[4.002278E-6,3.8764423E-7,8.626829E-4,3.9725305E-4,-9.045751E-6],"categories":[],"categories_nodes":[],"categories_segments":[],"categories_sizes":[],"default_left":[0,0,0,0,0],"id":37,"left_children":[1,-1,3,-1,-1],"loss_changes":[2.2189733E-6,0E0,1.2760415E-6,0E0,0E0],"parents":[2147483647,0,0,2,2],"right_children":[2,-1,4,-1,-1],"split_conditions":[8E-1,3.8764423E-7,1E0,3.9725305E-4,-9.045751E-6],"split_indices":[0,0,0,0,0],"split_type":[0,0,0,0,0],"sum_hessian":[9.53E2,9.51E2,2E0,1E0,1E0],"tree_param":{"num_deleted":"0","num_feature":"14","num_nodes":"5","size_leaf_vector":"1"}},{"base_weights":[3.2088824E-6,2.7146382E-7,2.1998286E-4],"categories":[],"categories_nodes":[],"categories_segments":[],"categories_sizes":[],"default_left":[0,0,0],"id":38,"left_children":[1,-1,-1],"loss_changes":[1.6040383E-6,0E0,0E0],"parents":[2147483647,0,0],"right_children":[2,-1,-1],"split_conditions":[8E-1,2.7146382E-7,2.1998286E-4],"split_indices":[0,0,0],"split_type":[0,0,0],"sum_hessian":[9.53E2,9.51E2,2E0],"tree_param":{"num_deleted":"0","num_feature":"14","num_nodes":"3","size_leaf_vector":"1"}},{"base_weights":[2.477062E-6,-1.8512604E-6,1.69495E-4,1.2958754E-3,1.0373639E-5,6.005586E-4,4.7379202E-5],"categories":[],"categories_nodes":[],"categories_segments":[],"categories_sizes":[],"default_left":[0,0,0,0,0,0,0],"id":39,"left_children":[1,-1,3,5,-1,-1,-1],"loss_changes":[1.3789648E-6,0E0,7.0976384E-6,3.7007112E-6,0E0,0E0,0E0],"parents":[2147483647,0,0,2,2,3,3],"right_children":[2,-1,4,6,-1,-1,-1],"split_conditions":[3.32E1,-1.8512604E-6,3.44E1,8.644225E0,1.0373639E-5,6.005586E-4,4.7379202E-5],"split_indices":[12,0,12,5,0,0,0],"split_type":[0,0,0,0,0,0,0],"sum_hessian":[9.53E2,9.07E2,4.6E1,4E0,4.2E1,2E0,2E0],"tree_param":{"num_deleted":"0","num_feature":"14","num_nodes":"7","size_leaf_vector":"1"}},{"base_weights":[2.4219928E-6],"categories":[],"categories_nodes":[],"categories_segments":[],"categories_sizes":[],"default_left":[0],"id":40,"left_children":[-1],"loss_changes":[0E0],"parents":[2147483647],"right_children":[-1],"split_conditions":[7.265979E-7],"split_indices":[0],"split_type":[0],"sum_hessian":[9.53E2],"tree_param":{"num_deleted":"0","num_feature":"14","num_nodes":"1","size_leaf_vector":"1"}},{"base_weights":[1.6961552E-6],"categories":[],"categories_nodes":[],"categories_segments":[],"categories_sizes":[],"default_left":[0],"id":41,"left_children":[-1],"loss_changes":[0E0],"parents":[2147483647],"right_children":[-1],"split_conditions":[5.088466E-7],"split_indices":[0],"split_type":[0],"sum_hessian":[9.53E2],"tree_param":{"num_deleted":"0","num_feature":"14","num_nodes":"1","size_leaf_vector":"1"}},{"base_weights":[1.1877993E-6],"categories":[],"categories_nodes":[],"categories_segments":[],"categories_sizes":[],"default_left":[0],"id":42,"left_children":[-1],"loss_changes":[0E0],"parents":[2147483647],"right_children":[-1],"split_conditions":[3.563398E-7],"split_indices":[0],"split_type":[0],"sum_hessian":[9.53E2],"tree_param":{"num_deleted":"0","num_feature":"14","num_nodes":"1","size_leaf_vector":"1"}},{"base_weights":[8.318213E-7],"categories":[],"categories_nodes":[],"categories_segments":[],"categories_sizes":[],"default_left":[0],"id":43,"left_children":[-1],"loss_changes":[0E0],"parents":[2147483647],"right_children":[-1],"split_conditions":[2.495464E-7],"split_indices":[0],"split_type":[0],"sum_hessian":[9.53E2],"tree_param":{"num_deleted":"0","num_feature":"14","num_nodes":"1","size_leaf_vector":"1"}},{"base_weights":[5.8257046E-7],"categories":[],"categories_nodes":[],"categories_segments":[],"categories_sizes":[],"default_left":[0],"id":44,"left_children":[-1],"loss_changes":[0E0],"parents":[2147483647],"right_children":[-1],"split_conditions":[1.7477115E-7],"split_indices":[0],"split_type":[0],"sum_hessian":[9.53E2],"tree_param":{"num_deleted":"0","num_feature":"14","num_nodes":"1","size_leaf_vector":"1"}},{"base_weights":[4.0798383E-7],"categories":[],"categories_nodes":[],"categories_segments":[],"categories_sizes":[],"default_left":[0],"id":45,"left_children":[-1],"loss_changes":[0E0],"parents":[2147483647],"right_children":[-1],"split_conditions":[1.2239515E-7],"split_indices":[0],"split_type":[0],"sum_hessian":[9.53E2],"tree_param":{"num_deleted":"0","num_feature":"14","num_nodes":"1","size_leaf_vector":"1"}},{"base_weights":[2.8574792E-7],"categories":[],"categories_nodes":[],"categories_segments":[],"categories_sizes":[],"default_left":[0],"id":46,"left_children":[-1],"loss_changes":[0E0],"parents":[2147483647],"right_children":[-1],"split_conditions":[8.572438E-8],"split_indices":[0],"split_type":[0],"sum_hessian":[9.53E2],"tree_param":{"num_deleted":"0","num_feature":"14","num_nodes":"1","size_leaf_vector":"1"}},{"base_weights":[2.0014231E-7],"categories":[],"categories_nodes":[],"categories_segments":[],"categories_sizes":[],"default_left":[0],"id":47,"left_children":[-1],"loss_changes":[0E0],"parents":[2147483647],"right_children":[-1],"split_conditions":[6.0042694E-8],"split_indices":[0],"split_type":[0],"sum_hessian":[9.53E2],"tree_param":{"num_deleted":"0","num_feature":"14","num_nodes":"1","size_leaf_vector":"1"}},{"base_weights":[1.4016541E-7],"categories":[],"categories_nodes":[],"categories_segments":[],"categories_sizes":[],"default_left":[0],"id":48,"left_children":[-1],"loss_changes":[0E0],"parents":[2147483647],"right_children":[-1],"split_conditions":[4.2049624E-8],"split_indices":[0],"split_type":[0],"sum_hessian":[9.53E2],"tree_param":{"num_deleted":"0","num_feature":"14","num_nodes":"1","size_leaf_vector":"1"}},{"base_weights":[9.810352E-8],"categories":[],"categories_nodes":[],"categories_segments":[],"categories_sizes":[],"default_left":[0],"id":49,"left_children":[-1],"loss_changes":[0E0],"parents":[2147483647],"right_children":[-1],"split_conditions":[2.9431057E-8],"split_indices":[0],"split_type":[0],"sum_hessian":[9.53E2],"tree_param":{"num_deleted":"0","num_feature":"14","num_nodes":"1","size_leaf_vector":"1"}},{"base_weights":[6.8762866E-8],"categories":[],"categories_nodes":[],"categories_segments":[],"categories_sizes":[],"default_left":[0],"id":50,"left_children":[-1],"loss_changes":[0E0],"parents":[2147483647],"right_children":[-1],"split_conditions":[2.062886E-8],"split_indices":[0],"split_type":[0],"sum_hessian":[9.53E2],"tree_param":{"num_deleted":"0","num_feature":"14","num_nodes":"1","size_leaf_vector":"1"}},{"base_weights":[4.820185E-8],"categories":[],"categories_nodes":[],"categories_segments":[],"categories_sizes":[],"default_left":[0],"id":51,"left_children":[-1],"loss_changes":[0E0],"parents":[2147483647],"right_children":[-1],"split_conditions":[1.4460556E-8],"split_indices":[0],"split_type":[0],"sum_hessian":[9.53E2],"tree_param":{"num_deleted":"0","num_feature":"14","num_nodes":"1","size_leaf_vector":"1"}},{"base_weights":[3.3784318E-8],"categories":[],"categories_nodes":[],"categories_segments":[],"categories_sizes":[],"default_left":[0],"id":52,"left_children":[-1],"loss_changes":[0E0],"parents":[2147483647],"right_children":[-1],"split_conditions":[1.0135295E-8],"split_indices":[0],"split_type":[0],"sum_hessian":[9.53E2],"tree_param":{"num_deleted":"0","num_feature":"14","num_nodes":"1","size_leaf_vector":"1"}},{"base_weights":[2.3687154E-8],"categories":[],"categories_nodes":[],"categories_segments":[],"categories_sizes":[],"default_left":[0],"id":53,"left_children":[-1],"loss_changes":[0E0],"parents":[2147483647],"right_children":[-1],"split_conditions":[7.1061463E-9],"split_indices":[0],"split_type":[0],"sum_hessian":[9.53E2],"tree_param":{"num_deleted":"0","num_feature":"14","num_nodes":"1","size_leaf_vector":"1"}},{"base_weights":[1.6617548E-8],"categories":[],"categories_nodes":[],"categories_segments":[],"categories_sizes":[],"default_left":[0],"id":54,"left_children":[-1],"loss_changes":[0E0],"parents":[2147483647],"right_children":[-1],"split_conditions":[4.9852646E-9],"split_indices":[0],"split_type":[0],"sum_hessian":[9.53E2],"tree_param":{"num_deleted":"0","num_feature":"14","num_nodes":"1","size_leaf_vector":"1"}},{"base_weights":[1.16438645E-8],"categories":[],"categories_nodes":[],"categories_segments":[],"categories_sizes":[],"default_left":[0],"id":55,"left_children":[-1],"loss_changes":[0E0],"parents":[2147483647],"right_children":[-1],"split_conditions":[3.4931595E-9],"split_indices":[0],"split_type":[0],"sum_hessian":[9.53E2],"tree_param":{"num_deleted":"0","num_feature":"14","num_nodes":"1","size_leaf_vector":"1"}},{"base_weights":[8.1878655E-9],"categories":[],"categories_nodes":[],"categories_segments":[],"categories_sizes":[],"default_left":[0],"id":56,"left_children":[-1],"loss_changes":[0E0],"parents":[2147483647],"right_children":[-1],"split_conditions":[2.4563598E-9],"split_indices":[0],"split_type":[0],"sum_hessian":[9.53E2],"tree_param":{"num_deleted":"0","num_feature":"14","num_nodes":"1","size_leaf_vector":"1"}},{"base_weights":[5.7580762E-9],"categories":[],"categories_nodes":[],"categories_segments":[],"categories_sizes":[],"default_left":[0],"id":57,"left_children":[-1],"loss_changes":[0E0],"parents":[2147483647],"right_children":[-1],"split_conditions":[1.727423E-9],"split_indices":[0],"split_type":[0],"sum_hessian":[9.53E2],"tree_param":{"num_deleted":"0","num_feature":"14","num_nodes":"1","size_leaf_vector":"1"}},{"base_weights":[4.0477497E-9],"categories":[],"categories_nodes":[],"categories_segments":[],"categories_sizes":[],"default_left":[0],"id":58,"left_children":[-1],"loss_changes":[0E0],"parents":[2147483647],"right_children":[-1],"split_conditions":[1.214325E-9],"split_indices":[0],"split_type":[0],"sum_hessian":[9.53E2],"tree_param":{"num_deleted":"0","num_feature":"14","num_nodes":"1","size_leaf_vector":"1"}},{"base_weights":[2.8472749E-9],"categories":[],"categories_nodes":[],"categories_segments":[],"categories_sizes":[],"default_left":[0],"id":59,"left_children":[-1],"loss_changes":[0E0],"parents":[2147483647],"right_children":[-1],"split_conditions":[8.541825E-10],"split_indices":[0],"split_type":[0],"sum_hessian":[9.53E2],"tree_param":{"num_deleted":"0","num_feature":"14","num_nodes":"1","size_leaf_vector":"1"}},{"base_weights":[2.0018154E-9],"categories":[],"categories_nodes":[],"categories_segments":[],"categories_sizes":[],"default_left":[0],"id":60,"left_children":[-1],"loss_changes":[0E0],"parents":[2147483647],"right_children":[-1],"split_conditions":[6.005446E-10],"split_indices":[0],"split_type":[0],"sum_hessian":[9.53E2],"tree_param":{"num_deleted":"0","num_feature":"14","num_nodes":"1","size_leaf_vector":"1"}},{"base_weights":[1.4082876E-9],"categories":[],"categories_nodes":[],"categories_segments":[],"categories_sizes":[],"default_left":[0],"id":61,"left_children":[-1],"loss_changes":[0E0],"parents":[2147483647],"right_children":[-1],"split_conditions":[4.224863E-10],"split_indices":[0],"split_type":[0],"sum_hessian":[9.53E2],"tree_param":{"num_deleted":"0","num_feature":"14","num_nodes":"1","size_leaf_vector":"1"}},{"base_weights":[9.891294E-10],"categories":[],"categories_nodes":[],"categories_segments":[],"categories_sizes":[],"default_left":[0],"id":62,"left_children":[-1],"loss_changes":[0E0],"parents":[2147483647],"right_children":[-1],"split_conditions":[2.9673886E-10],"split_indices":[0],"split_type":[0],"sum_hessian":[9.53E2],"tree_param":{"num_deleted":"0","num_feature":"14","num_nodes":"1","size_leaf_vector":"1"}},{"base_weights":[6.961189E-10],"categories":[],"categories_nodes":[],"categories_segments":[],"categories_sizes":[],"default_left":[0],"id":63,"left_children":[-1],"loss_changes":[0E0],"parents":[2147483647],"right_children":[-1],"split_conditions":[2.0883567E-10],"split_indices":[0],"split_type":[0],"sum_hessian":[9.53E2],"tree_param":{"num_deleted":"0","num_feature":"14","num_nodes":"1","size_leaf_vector":"1"}},{"base_weights":[4.890543E-10],"categories":[],"categories_nodes":[],"categories_segments":[],"categories_sizes":[],"default_left":[0],"id":64,"left_children":[-1],"loss_changes":[0E0],"parents":[2147483647],"right_children":[-1],"split_conditions":[1.4671629E-10],"split_indices":[0],"split_type":[0],"sum_hessian":[9.53E2],"tree_param":{"num_deleted":"0","num_feature":"14","num_nodes":"1","size_leaf_vector":"1"}},{"base_weights":[3.434497E-10],"categories":[],"categories_nodes":[],"categories_segments":[],"categories_sizes":[],"default_left":[0],"id":65,"left_children":[-1],"loss_changes":[0E0],"parents":[2147483647],"right_children":[-1],"split_conditions":[1.0303492E-10],"split_indices":[0],"split_type":[0],"sum_hessian":[9.53E2],"tree_param":{"num_deleted":"0","num_feature":"14","num_nodes":"1","size_leaf_vector":"1"}},{"base_weights":[2.4005214E-10],"categories":[],"categories_nodes":[],"categories_segments":[],"categories_sizes":[],"default_left":[0],"id":66,"left_children":[-1],"loss_changes":[0E0],"parents":[2147483647],"right_children":[-1],"split_conditions":[7.201564E-11],"split_indices":[0],"split_type":[0],"sum_hessian":[9.53E2],"tree_param":{"num_deleted":"0","num_feature":"14","num_nodes":"1","size_leaf_vector":"1"}},{"base_weights":[1.692571E-10],"categories":[],"categories_nodes":[],"categories_segments":[],"categories_sizes":[],"default_left":[0],"id":67,"left_children":[-1],"loss_changes":[0E0],"parents":[2147483647],"right_children":[-1],"split_conditions":[5.077713E-11],"split_indices":[0],"split_type":[0],"sum_hessian":[9.53E2],"tree_param":{"num_deleted":"0","num_feature":"14","num_nodes":"1","size_leaf_vector":"1"}},{"base_weights":[1.2058593E-10],"categories":[],"categories_nodes":[],"categories_segments":[],"categories_sizes":[],"default_left":[0],"id":68,"left_children":[-1],"loss_changes":[0E0],"parents":[2147483647],"right_children":[-1],"split_conditions":[3.617578E-11],"split_indices":[0],"split_type":[0],"sum_hessian":[9.53E2],"tree_param":{"num_deleted":"0","num_feature":"14","num_nodes":"1","size_leaf_vector":"1"}},{"base_weights":[8.645245E-11],"categories":[],"categories_nodes":[],"categories_segments":[],"categories_sizes":[],"default_left":[0],"id":69,"left_children":[-1],"loss_changes":[0E0],"parents":[2147483647],"right_children":[-1],"split_conditions":[2.5935736E-11],"split_indices":[0],"split_type":[0],"sum_hessian":[9.53E2],"tree_param":{"num_deleted":"0","num_feature":"14","num_nodes":"1","size_leaf_vector":"1"}},{"base_weights":[6.151931E-11],"categories":[],"categories_nodes":[],"categories_segments":[],"categories_sizes":[],"default_left":[0],"id":70,"left_children":[-1],"loss_changes":[0E0],"parents":[2147483647],"right_children":[-1],"split_conditions":[1.8455794E-11],"split_indices":[0],"split_type":[0],"sum_hessian":[9.53E2],"tree_param":{"num_deleted":"0","num_feature":"14","num_nodes":"1","size_leaf_vector":"1"}},{"base_weights":[4.4211013E-11],"categories":[],"categories_nodes":[],"categories_segments":[],"categories_sizes":[],"default_left":[0],"id":71,"left_children":[-1],"loss_changes":[0E0],"parents":[2147483647],"right_children":[-1],"split_conditions":[1.32633045E-11],"split_indices":[0],"split_type":[0],"sum_hessian":[9.53E2],"tree_param":{"num_deleted":"0","num_feature":"14","num_nodes":"1","size_leaf_vector":"1"}},{"base_weights":[3.2659896E-11],"categories":[],"categories_nodes":[],"categories_segments":[],"categories_sizes":[],"default_left":[0],"id":72,"left_children":[-1],"loss_changes":[0E0],"parents":[2147483647],"right_children":[-1],"split_conditions":[9.797969E-12],"split_indices":[0],"split_type":[0],"sum_hessian":[9.53E2],"tree_param":{"num_deleted":"0","num_feature":"14","num_nodes":"1","size_leaf_vector":"1"}},{"base_weights":[2.3776845E-11],"categories":[],"categories_nodes":[],"categories_segments":[],"categories_sizes":[],"default_left":[0],"id":73,"left_children":[-1],"loss_changes":[0E0],"parents":[2147483647],"right_children":[-1],"split_conditions":[7.1330537E-12],"split_indices":[0],"split_type":[0],"sum_hessian":[9.53E2],"tree_param":{"num_deleted":"0","num_feature":"14","num_nodes":"1","size_leaf_vector":"1"}},{"base_weights":[1.91122E-11],"categories":[],"categories_nodes":[],"categories_segments":[],"categories_sizes":[],"default_left":[0],"id":74,"left_children":[-1],"loss_changes":[0E0],"parents":[2147483647],"right_children":[-1],"split_conditions":[5.73366E-12],"split_indices":[0],"split_type":[0],"sum_hessian":[9.53E2],"tree_param":{"num_deleted":"0","num_feature":"14","num_nodes":"1","size_leaf_vector":"1"}},{"base_weights":[1.5186831E-11],"categories":[],"categories_nodes":[],"categories_segments":[],"categories_sizes":[],"default_left":[0],"id":75,"left_children":[-1],"loss_changes":[0E0],"parents":[2147483647],"right_children":[-1],"split_conditions":[4.5560495E-12],"split_indices":[0],"split_type":[0],"sum_hessian":[9.53E2],"tree_param":{"num_deleted":"0","num_feature":"14","num_nodes":"1","size_leaf_vector":"1"}},{"base_weights":[1.1825279E-11],"categories":[],"categories_nodes":[],"categories_segments":[],"categories_sizes":[],"default_left":[0],"id":76,"left_children":[-1],"loss_changes":[0E0],"parents":[2147483647],"right_children":[-1],"split_conditions":[3.5475837E-12],"split_indices":[0],"split_type":[0],"sum_hessian":[9.53E2],"tree_param":{"num_deleted":"0","num_feature":"14","num_nodes":"1","size_leaf_vector":"1"}},{"base_weights":[9.878406E-12],"categories":[],"categories_nodes":[],"categories_segments":[],"categories_sizes":[],"default_left":[0],"id":77,"left_children":[-1],"loss_changes":[0E0],"parents":[2147483647],"right_children":[-1],"split_conditions":[2.963522E-12],"split_indices":[0],"split_type":[0],"sum_hessian":[9.53E2],"tree_param":{"num_deleted":"0","num_feature":"14","num_nodes":"1","size_leaf_vector":"1"}},{"base_weights":[8.030295E-12],"categories":[],"categories_nodes":[],"categories_segments":[],"categories_sizes":[],"default_left":[0],"id":78,"left_children":[-1],"loss_changes":[0E0],"parents":[2147483647],"right_children":[-1],"split_conditions":[2.4090886E-12],"split_indices":[0],"split_type":[0],"sum_hessian":[9.53E2],"tree_param":{"num_deleted":"0","num_feature":"14","num_nodes":"1","size_leaf_vector":"1"}},{"base_weights":[6.777937E-12],"categories":[],"categories_nodes":[],"categories_segments":[],"categories_sizes":[],"default_left":[0],"id":79,"left_children":[-1],"loss_changes":[0E0],"parents":[2147483647],"right_children":[-1],"split_conditions":[2.0333813E-12],"split_indices":[0],"split_type":[0],"sum_hessian":[9.53E2],"tree_param":{"num_deleted":"0","num_feature":"14","num_nodes":"1","size_leaf_vector":"1"}},{"base_weights":[5.6201545E-12],"categories":[],"categories_nodes":[],"categories_segments":[],"categories_sizes":[],"default_left":[0],"id":80,"left_children":[-1],"loss_changes":[0E0],"parents":[2147483647],"right_children":[-1],"split_conditions":[1.6860464E-12],"split_indices":[0],"split_type":[0],"sum_hessian":[9.53E2],"tree_param":{"num_deleted":"0","num_feature":"14","num_nodes":"1","size_leaf_vector":"1"}},{"base_weights":[4.8275494E-12],"categories":[],"categories_nodes":[],"categories_segments":[],"categories_sizes":[],"default_left":[0],"id":81,"left_children":[-1],"loss_changes":[0E0],"parents":[2147483647],"right_children":[-1],"split_conditions":[1.4482649E-12],"split_indices":[0],"split_type":[0],"sum_hessian":[9.53E2],"tree_param":{"num_deleted":"0","num_feature":"14","num_nodes":"1","size_leaf_vector":"1"}},{"base_weights":[4.0873637E-12],"categories":[],"categories_nodes":[],"categories_segments":[],"categories_sizes":[],"default_left":[0],"id":82,"left_children":[-1],"loss_changes":[0E0],"parents":[2147483647],"right_children":[-1],"split_conditions":[1.2262091E-12],"split_indices":[0],"split_type":[0],"sum_hessian":[9.53E2],"tree_param":{"num_deleted":"0","num_feature":"14","num_nodes":"1","size_leaf_vector":"1"}},{"base_weights":[3.3910765E-12],"categories":[],"categories_nodes":[],"categories_segments":[],"categories_sizes":[],"default_left":[0],"id":83,"left_children":[-1],"loss_changes":[0E0],"parents":[2147483647],"right_children":[-1],"split_conditions":[1.0173229E-12],"split_indices":[0],"split_type":[0],"sum_hessian":[9.53E2],"tree_param":{"num_deleted":"0","num_feature":"14","num_nodes":"1","size_leaf_vector":"1"}},{"base_weights":[2.7465083E-12],"categories":[],"categories_nodes":[],"categories_segments":[],"categories_sizes":[],"default_left":[0],"id":84,"left_children":[-1],"loss_changes":[0E0],"parents":[2147483647],"right_children":[-1],"split_conditions":[8.239525E-13],"split_indices":[0],"split_type":[0],"sum_hessian":[9.53E2],"tree_param":{"num_deleted":"0","num_feature":"14","num_nodes":"1","size_leaf_vector":"1"}},{"base_weights":[2.5957303E-12],"categories":[],"categories_nodes":[],"categories_segments":[],"categories_sizes":[],"default_left":[0],"id":85,"left_children":[-1],"loss_changes":[0E0],"parents":[2147483647],"right_children":[-1],"split_conditions":[7.787191E-13],"split_indices":[0],"split_type":[0],"sum_hessian":[9.53E2],"tree_param":{"num_deleted":"0","num_feature":"14","num_nodes":"1","size_leaf_vector":"1"}},{"base_weights":[2.4456671E-12],"categories":[],"categories_nodes":[],"categories_segments":[],"categories_sizes":[],"default_left":[0],"id":86,"left_children":[-1],"loss_changes":[0E0],"parents":[2147483647],"right_children":[-1],"split_conditions":[7.3370016E-13],"split_indices":[0],"split_type":[0],"sum_hessian":[9.53E2],"tree_param":{"num_deleted":"0","num_feature":"14","num_nodes":"1","size_leaf_vector":"1"}},{"base_weights":[2.296483E-12],"categories":[],"categories_nodes":[],"categories_segments":[],"categories_sizes":[],"default_left":[0],"id":87,"left_children":[-1],"loss_changes":[0E0],"parents":[2147483647],"right_children":[-1],"split_conditions":[6.8894494E-13],"split_indices":[0],"split_type":[0],"sum_hessian":[9.53E2],"tree_param":{"num_deleted":"0","num_feature":"14","num_nodes":"1","size_leaf_vector":"1"}},{"base_weights":[2.1482224E-12],"categories":[],"categories_nodes":[],"categories_segments":[],"categories_sizes":[],"default_left":[0],"id":88,"left_children":[-1],"loss_changes":[0E0],"parents":[2147483647],"right_children":[-1],"split_conditions":[6.4446674E-13],"split_indices":[0],"split_type":[0],"sum_hessian":[9.53E2],"tree_param":{"num_deleted":"0","num_feature":"14","num_nodes":"1","size_leaf_vector":"1"}},{"base_weights":[2.048374E-12],"categories":[],"categories_nodes":[],"categories_segments":[],"categories_sizes":[],"default_left":[0],"id":89,"left_children":[-1],"loss_changes":[0E0],"parents":[2147483647],"right_children":[-1],"split_conditions":[6.1451224E-13],"split_indices":[0],"split_type":[0],"sum_hessian":[9.53E2],"tree_param":{"num_deleted":"0","num_feature":"14","num_nodes":"1","size_leaf_vector":"1"}},{"base_weights":[1.9489278E-12],"categories":[],"categories_nodes":[],"categories_segments":[],"categories_sizes":[],"default_left":[0],"id":90,"left_children":[-1],"loss_changes":[0E0],"parents":[2147483647],"right_children":[-1],"split_conditions":[5.8467836E-13],"split_indices":[0],"split_type":[0],"sum_hessian":[9.53E2],"tree_param":{"num_deleted":"0","num_feature":"14","num_nodes":"1","size_leaf_vector":"1"}},{"base_weights":[1.850167E-12],"categories":[],"categories_nodes":[],"categories_segments":[],"categories_sizes":[],"default_left":[0],"id":91,"left_children":[-1],"loss_changes":[0E0],"parents":[2147483647],"right_children":[-1],"split_conditions":[5.550501E-13],"split_indices":[0],"split_type":[0],"sum_hessian":[9.53E2],"tree_param":{"num_deleted":"0","num_feature":"14","num_nodes":"1","size_leaf_vector":"1"}},{"base_weights":[1.7519124E-12],"categories":[],"categories_nodes":[],"categories_segments":[],"categories_sizes":[],"default_left":[0],"id":92,"left_children":[-1],"loss_changes":[0E0],"parents":[2147483647],"right_children":[-1],"split_conditions":[5.255737E-13],"split_indices":[0],"split_type":[0],"sum_hessian":[9.53E2],"tree_param":{"num_deleted":"0","num_feature":"14","num_nodes":"1","size_leaf_vector":"1"}},{"base_weights":[1.6544921E-12],"categories":[],"categories_nodes":[],"categories_segments":[],"categories_sizes":[],"default_left":[0],"id":93,"left_children":[-1],"loss_changes":[0E0],"parents":[2147483647],"right_children":[-1],"split_conditions":[4.9634765E-13],"split_indices":[0],"split_type":[0],"sum_hessian":[9.53E2],"tree_param":{"num_deleted":"0","num_feature":"14","num_nodes":"1","size_leaf_vector":"1"}},{"base_weights":[1.557459E-12],"categories":[],"categories_nodes":[],"categories_segments":[],"categories_sizes":[],"default_left":[0],"id":94,"left_children":[-1],"loss_changes":[0E0],"parents":[2147483647],"right_children":[-1],"split_conditions":[4.6723774E-13],"split_indices":[0],"split_type":[0],"sum_hessian":[9.53E2],"tree_param":{"num_deleted":"0","num_feature":"14","num_nodes":"1","size_leaf_vector":"1"}},{"base_weights":[1.4611112E-12],"categories":[],"categories_nodes":[],"categories_segments":[],"categories_sizes":[],"default_left":[0],"id":95,"left_children":[-1],"loss_changes":[0E0],"parents":[2147483647],"right_children":[-1],"split_conditions":[4.3833337E-13],"split_indices":[0],"split_type":[0],"sum_hessian":[9.53E2],"tree_param":{"num_deleted":"0","num_feature":"14","num_nodes":"1","size_leaf_vector":"1"}},{"base_weights":[1.4050722E-12],"categories":[],"categories_nodes":[],"categories_segments":[],"categories_sizes":[],"default_left":[0],"id":96,"left_children":[-1],"loss_changes":[0E0],"parents":[2147483647],"right_children":[-1],"split_conditions":[4.2152168E-13],"split_indices":[0],"split_type":[0],"sum_hessian":[9.53E2],"tree_param":{"num_deleted":"0","num_feature":"14","num_nodes":"1","size_leaf_vector":"1"}},{"base_weights":[1.3495248E-12],"categories":[],"categories_nodes":[],"categories_segments":[],"categories_sizes":[],"default_left":[0],"id":97,"left_children":[-1],"loss_changes":[0E0],"parents":[2147483647],"right_children":[-1],"split_conditions":[4.0485744E-13],"split_indices":[0],"split_type":[0],"sum_hessian":[9.53E2],"tree_param":{"num_deleted":"0","num_feature":"14","num_nodes":"1","size_leaf_vector":"1"}},{"base_weights":[1.2942156E-12],"categories":[],"categories_nodes":[],"categories_segments":[],"categories_sizes":[],"default_left":[0],"id":98,"left_children":[-1],"loss_changes":[0E0],"parents":[2147483647],"right_children":[-1],"split_conditions":[3.882647E-13],"split_indices":[0],"split_type":[0],"sum_hessian":[9.53E2],"tree_param":{"num_deleted":"0","num_feature":"14","num_nodes":"1","size_leaf_vector":"1"}},{"base_weights":[1.2390852E-12],"categories":[],"categories_nodes":[],"categories_segments":[],"categories_sizes":[],"default_left":[0],"id":99,"left_children":[-1],"loss_changes":[0E0],"parents":[2147483647],"right_children":[-1],"split_conditions":[3.7172557E-13],"split_indices":[0],"split_type":[0],"sum_hessian":[9.53E2],"tree_param":{"num_deleted":"0","num_feature":"14","num_nodes":"1","size_leaf_vector":"1"}}]},"name":"gbtree"},"learner_model_param":{"base_score":"2.8331585E-3","boost_from_average":"1","num_class":"0","num_feature":"14","num_target":"1"},"objective":{"name":"reg:squarederror","reg_loss_param":{"scale_pos_weight":"1"}}},"version":[2,0,3]}